{
  "meta": {
    "model_type": "FNN",
    "input_size": 1,
    "output_size": 1,
    "hidden_sizes": [
      64
    ],
    "num_linear_layers": 2,
    "dtype": "float32",
    "input_columns": [
      "u0"
    ],
    "output_columns": [
      "y0"
    ],
    "norm": {
      "mean": [
        [
          [
            0.0061549232341349125
          ]
        ]
      ],
      "std": [
        [
          [
            0.022241493687033653
          ]
        ]
      ],
      "axes": [
        0,
        1
      ]
    }
  },
  "weights": {
    "linear_0_weight": [
      [
        0.9040498733520508
      ],
      [
        -0.7112849950790405
      ],
      [
        -0.9007759690284729
      ],
      [
        -0.09376126527786255
      ],
      [
        0.7532607913017273
      ],
      [
        0.8762287497520447
      ],
      [
        -0.8927581310272217
      ],
      [
        0.8902672529220581
      ],
      [
        0.8414248824119568
      ],
      [
        -0.2890375852584839
      ],
      [
        -0.4469621479511261
      ],
      [
        0.878175675868988
      ],
      [
        -0.8327985405921936
      ],
      [
        0.19498291611671448
      ],
      [
        -0.9794759154319763
      ],
      [
        0.8537666201591492
      ],
      [
        -0.9625420570373535
      ],
      [
        0.604356586933136
      ],
      [
        0.6868869662284851
      ],
      [
        0.06527585536241531
      ],
      [
        0.956932783126831
      ],
      [
        -0.3790110945701599
      ],
      [
        -0.911738932132721
      ],
      [
        0.1376716047525406
      ],
      [
        0.7496491074562073
      ],
      [
        -0.029922200366854668
      ],
      [
        0.17750416696071625
      ],
      [
        0.03930989280343056
      ],
      [
        0.32654327154159546
      ],
      [
        -0.6734638810157776
      ],
      [
        -0.772115170955658
      ],
      [
        -0.9188156723976135
      ],
      [
        0.1819629967212677
      ],
      [
        -0.6585821509361267
      ],
      [
        -0.1876961886882782
      ],
      [
        -0.8173967003822327
      ],
      [
        -0.32490697503089905
      ],
      [
        -0.3601841330528259
      ],
      [
        0.805713951587677
      ],
      [
        -0.007793303579092026
      ],
      [
        -0.9571144580841064
      ],
      [
        0.5436201691627502
      ],
      [
        0.9273214340209961
      ],
      [
        0.3399239182472229
      ],
      [
        -0.4688941538333893
      ],
      [
        -0.8782444000244141
      ],
      [
        -0.8602825999259949
      ],
      [
        -0.3816436529159546
      ],
      [
        0.8531714081764221
      ],
      [
        0.389777272939682
      ],
      [
        -0.2440522313117981
      ],
      [
        -0.4245826005935669
      ],
      [
        -0.8842625021934509
      ],
      [
        -0.09374948590993881
      ],
      [
        0.45071685314178467
      ],
      [
        0.7087715268135071
      ],
      [
        0.861907958984375
      ],
      [
        -0.36238646507263184
      ],
      [
        0.33105525374412537
      ],
      [
        -0.8266197443008423
      ],
      [
        -0.8237462639808655
      ],
      [
        -0.3817496597766876
      ],
      [
        0.1705823540687561
      ],
      [
        0.8499537110328674
      ]
    ],
    "linear_0_bias": [
      -0.4001537263393402,
      -0.4043467342853546,
      0.06430710107088089,
      0.8006206750869751,
      0.6265014410018921,
      -0.8657951951026917,
      0.16802002489566803,
      0.8596718907356262,
      0.8167665600776672,
      0.368912011384964,
      0.8584056496620178,
      0.452248215675354,
      -0.3459714353084564,
      -0.1072000116109848,
      0.7216684222221375,
      -0.718284010887146,
      -0.6877941489219666,
      0.31216463446617126,
      -0.7680412530899048,
      0.9320292472839355,
      -0.28685620427131653,
      -0.11127328127622604,
      -0.12140660732984543,
      -0.6146156787872314,
      0.05648940056562424,
      0.48885610699653625,
      0.3057176470756531,
      -0.935549259185791,
      0.3309392035007477,
      0.7154467105865479,
      -0.7081769108772278,
      -0.3994923532009125,
      0.25116369128227234,
      0.3941105306148529,
      -0.005859626457095146,
      -0.5870769023895264,
      0.10860059410333633,
      -0.4799927771091461,
      0.1485101580619812,
      0.887322723865509,
      0.41914111375808716,
      0.546205461025238,
      0.6831214427947998,
      0.2788122892379761,
      0.9631990790367126,
      -0.05728583410382271,
      -0.4473736584186554,
      0.9040616154670715,
      -0.19483807682991028,
      -0.09263994544744492,
      0.2977297604084015,
      0.18134912848472595,
      0.08088630437850952,
      -0.5700869560241699,
      0.9596638083457947,
      -0.5883038640022278,
      0.4183669984340668,
      0.3360716998577118,
      -0.5839125514030457,
      -0.7846314907073975,
      0.1061321571469307,
      0.8243165016174316,
      -0.7000150680541992,
      -1.004769206047058
    ],
    "linear_0_in_features": 1,
    "linear_0_out_features": 64,
    "linear_1_weight": [
      [
        0.02365633100271225,
        -0.02941793017089367,
        0.043311525136232376,
        0.04121650010347366,
        0.014417845755815506,
        -0.08971284329891205,
        0.05964398384094238,
        0.015192185528576374,
        0.007008164655417204,
        -0.13104204833507538,
        0.024363815784454346,
        0.044389866292476654,
        -0.03370930999517441,
        -0.05755564942955971,
        -0.04424054175615311,
        0.041066959500312805,
        0.05901002883911133,
        0.07034099847078323,
        0.059089623391628265,
        0.014218972995877266,
        -0.09680210053920746,
        0.042847972363233566,
        -0.01338227093219757,
        0.09081907570362091,
        0.023112978786230087,
        -0.0940871313214302,
        -0.0740768164396286,
        -0.0012970787938684225,
        -0.025397269055247307,
        -0.12542444467544556,
        0.057678285986185074,
        -0.01184906717389822,
        0.06201640143990517,
        0.06032188609242439,
        0.0037040608003735542,
        -0.051079683005809784,
        0.040211863815784454,
        0.027621392160654068,
        -0.11824414879083633,
        0.03836957365274429,
        0.06885193288326263,
        -0.08728908747434616,
        0.09206224232912064,
        -0.11687066406011581,
        0.041109807789325714,
        0.0456683486700058,
        0.0636507049202919,
        -0.028303684666752815,
        -0.10203159600496292,
        0.08875744789838791,
        0.05256321281194687,
        -0.035233285278081894,
        0.003725459100678563,
        0.014593071304261684,
        0.07536626607179642,
        0.0981271043419838,
        -0.09767958521842957,
        -0.08552684634923935,
        0.05098337307572365,
        -0.09652330726385117,
        -0.017698856070637703,
        -0.09384272992610931,
        0.035732343792915344,
        0.08896990865468979
      ]
    ],
    "linear_1_bias": [
      0.07739965617656708
    ],
    "linear_1_in_features": 64,
    "linear_1_out_features": 1
  }
}