{
  "meta": {
    "model_type": "FNN",
    "input_size": 1,
    "output_size": 1,
    "hidden_sizes": [
      32,
      32,
      32
    ],
    "num_linear_layers": 4,
    "dtype": "float32",
    "input_columns": [
      "u0"
    ],
    "output_columns": [
      "y0"
    ],
    "norm": {
      "mean": [
        [
          [
            0.0061549232341349125
          ]
        ]
      ],
      "std": [
        [
          [
            0.022241493687033653
          ]
        ]
      ],
      "axes": [
        0,
        1
      ]
    }
  },
  "weights": {
    "linear_0_weight": [
      [
        0.5248586535453796
      ],
      [
        -0.3690403401851654
      ],
      [
        -0.4080849587917328
      ],
      [
        0.22036409378051758
      ],
      [
        -0.5813525319099426
      ],
      [
        -0.6098350882530212
      ],
      [
        0.48588648438453674
      ],
      [
        -0.27565935254096985
      ],
      [
        -0.671088457107544
      ],
      [
        0.22207298874855042
      ],
      [
        -0.7193194031715393
      ],
      [
        0.8901254534721375
      ],
      [
        0.00790628045797348
      ],
      [
        0.33724597096443176
      ],
      [
        -0.5296196937561035
      ],
      [
        0.654656708240509
      ],
      [
        0.5917196869850159
      ],
      [
        0.1757325977087021
      ],
      [
        0.07705161720514297
      ],
      [
        -0.10743093490600586
      ],
      [
        -0.007001304067671299
      ],
      [
        0.5189403295516968
      ],
      [
        -0.42937198281288147
      ],
      [
        0.6426519751548767
      ],
      [
        0.952141523361206
      ],
      [
        -0.8316923975944519
      ],
      [
        -0.7845194339752197
      ],
      [
        -0.49094244837760925
      ],
      [
        -0.5238590240478516
      ],
      [
        0.14580276608467102
      ],
      [
        0.38649260997772217
      ],
      [
        -0.5814467072486877
      ]
    ],
    "linear_0_bias": [
      -0.1353009045124054,
      -0.61043381690979,
      -0.08897179365158081,
      -0.490831196308136,
      -0.8228416442871094,
      -0.198686882853508,
      0.9782620072364807,
      -0.40927618741989136,
      0.202299103140831,
      -0.737743079662323,
      -0.6785497069358826,
      0.0020310990512371063,
      0.9183741211891174,
      -0.7535415887832642,
      -0.6047271490097046,
      0.7839155793190002,
      -0.2987053692340851,
      -0.9970580339431763,
      0.827519953250885,
      0.9614623188972473,
      -0.9345816373825073,
      0.025475505739450455,
      0.43547895550727844,
      -0.7901982665061951,
      -0.3898085653781891,
      0.9038043022155762,
      0.7174049615859985,
      -0.04467032477259636,
      -0.3146476447582245,
      0.3274250030517578,
      -0.5886412858963013,
      0.7112598419189453
    ],
    "linear_0_in_features": 1,
    "linear_0_out_features": 32,
    "linear_1_weight": [
      [
        0.1445949822664261,
        -0.08617474138736725,
        -0.093718022108078,
        -0.07475361973047256,
        -0.14310914278030396,
        0.0645541325211525,
        0.06671465188264847,
        0.05054339021444321,
        -0.024421116337180138,
        0.03577651455998421,
        0.008875354193150997,
        -0.15270541608333588,
        -0.09955491870641708,
        0.09986595064401627,
        0.06738897413015366,
        0.059387318789958954,
        0.09633352607488632,
        0.09410103410482407,
        -0.1458183228969574,
        -0.12221396714448929,
        0.06525138020515442,
        0.06024494394659996,
        0.00488952687010169,
        -0.06407921761274338,
        -0.07505197077989578,
        -0.12175972759723663,
        0.17512109875679016,
        0.09953129291534424,
        -0.06508845835924149,
        0.14284378290176392,
        0.07636789977550507,
        -0.014955282211303711
      ],
      [
        -0.13651134073734283,
        0.051490213721990585,
        -0.1776438057422638,
        -0.07541698217391968,
        0.1745443344116211,
        0.017262905836105347,
        0.062076739966869354,
        -0.03230353817343712,
        -0.016075046733021736,
        0.13509860634803772,
        -0.05696915090084076,
        -0.09237305074930191,
        0.060404226183891296,
        -0.03000609762966633,
        0.1256968230009079,
        -0.005071965511888266,
        0.13441193103790283,
        -0.01796855218708515,
        -0.062074609100818634,
        0.011701959185302258,
        0.1317179948091507,
        0.0893065333366394,
        0.06617670506238937,
        -0.06877393275499344,
        -0.005390535574406385,
        0.07110821455717087,
        -0.1517838090658188,
        -0.08729412406682968,
        0.13499923050403595,
        0.0699770525097847,
        -0.09663452953100204,
        0.13631679117679596
      ],
      [
        0.12345883995294571,
        -0.11606673151254654,
        0.023175647482275963,
        -0.16178347170352936,
        0.053506262600421906,
        0.046494260430336,
        -0.06475221365690231,
        0.05997469276189804,
        -0.07164338231086731,
        -0.11171461641788483,
        -0.025886470451951027,
        0.011654901318252087,
        0.014019055292010307,
        0.08354295045137405,
        -0.021946026012301445,
        -0.009094888344407082,
        -0.028721433132886887,
        0.14344878494739532,
        -0.15399041771888733,
        0.06513454020023346,
        -0.0010517349001020193,
        -0.08723315596580505,
        -0.008543098345398903,
        0.14841817319393158,
        -0.07019002735614777,
        0.04248856380581856,
        -0.07365268468856812,
        -0.1584368348121643,
        0.1331816166639328,
        0.05739625543355942,
        -0.17533427476882935,
        -0.004197630099952221
      ],
      [
        -0.09175721555948257,
        0.019130881875753403,
        -0.10317428410053253,
        0.0704897940158844,
        -0.1226046234369278,
        -0.07475102692842484,
        0.05223705247044563,
        -0.027302250266075134,
        0.13801659643650055,
        -0.06360852718353271,
        0.052899736911058426,
        0.05360625684261322,
        0.019345242530107498,
        0.10811060667037964,
        0.07381642609834671,
        0.03436347469687462,
        0.1456623673439026,
        -0.07470076531171799,
        -0.10922078043222427,
        -0.0803990438580513,
        0.09622891992330551,
        0.04583802819252014,
        -0.05610870569944382,
        0.1544916331768036,
        0.0723753347992897,
        0.011174403131008148,
        -0.006101244129240513,
        0.14672860503196716,
        -0.0775168389081955,
        0.020389597862958908,
        -0.0023488751612603664,
        0.13563427329063416
      ],
      [
        0.017916744574904442,
        0.09022488445043564,
        0.07262855023145676,
        -0.11553996801376343,
        -0.02881588414311409,
        0.08533721417188644,
        -0.12302980571985245,
        -0.01533898338675499,
        0.01624986156821251,
        -0.08350135385990143,
        -0.0878409668803215,
        0.053027112036943436,
        -0.15486225485801697,
        0.14757201075553894,
        0.07118313014507294,
        -0.12514212727546692,
        -0.15637001395225525,
        0.0029300618916749954,
        0.008045688271522522,
        -0.03196197748184204,
        0.13863623142242432,
        0.15362390875816345,
        -0.04224641993641853,
        -0.011028168722987175,
        0.05326913669705391,
        -0.1253354251384735,
        -0.03552578017115593,
        0.17227280139923096,
        -0.12437788397073746,
        -0.05564567819237709,
        0.036401793360710144,
        -0.10550649464130402
      ],
      [
        -0.03286989405751228,
        0.1426863819360733,
        0.013049650937318802,
        0.08436068147420883,
        0.10679401457309723,
        -0.0574825219810009,
        0.04568691924214363,
        -4.9298072553938255e-05,
        0.13703757524490356,
        0.146551251411438,
        -0.15261216461658478,
        -0.061166975647211075,
        0.12761880457401276,
        0.06217659264802933,
        0.037701115012168884,
        -0.1094803661108017,
        0.07391004264354706,
        0.06759476661682129,
        -0.1464456468820572,
        0.08143620193004608,
        0.09963313490152359,
        0.15694913268089294,
        0.03452422097325325,
        0.14833083748817444,
        -0.04905841499567032,
        -0.06790647655725479,
        0.13634662330150604,
        -0.16823533177375793,
        0.054592788219451904,
        -0.13998296856880188,
        -0.07339099794626236,
        0.1637326329946518
      ],
      [
        0.1795744150876999,
        -0.11063488572835922,
        -0.07651754468679428,
        0.16367799043655396,
        0.1426987498998642,
        0.14424262940883636,
        0.08256719261407852,
        -0.04467322677373886,
        -0.14312511682510376,
        -0.046584658324718475,
        0.10319728404283524,
        -0.12428216636180878,
        0.12176156789064407,
        -0.15843552350997925,
        0.08736147731542587,
        -0.1513591706752777,
        -0.11861581355333328,
        -0.08438297361135483,
        0.1184505745768547,
        0.059628721326589584,
        0.04956381395459175,
        0.11830821633338928,
        -0.13797639310359955,
        -0.1583515852689743,
        0.07548752427101135,
        0.00011700870527420193,
        0.1672108769416809,
        -0.03557863458991051,
        0.1366821974515915,
        -0.07214485108852386,
        -0.018143298104405403,
        0.1158604845404625
      ],
      [
        -0.1596520096063614,
        -0.03445500135421753,
        -0.05716802924871445,
        -0.022319957613945007,
        -0.07783739268779755,
        -0.032499395310878754,
        0.09755907207727432,
        -0.0686628445982933,
        -0.1558249294757843,
        0.03570535406470299,
        -0.08043666183948517,
        0.05359635502099991,
        -0.04195428267121315,
        -0.04095606505870819,
        0.10407750308513641,
        0.027954934164881706,
        -0.17330412566661835,
        0.06485070288181305,
        -0.0906035378575325,
        0.07843656092882156,
        0.06274484843015671,
        -0.1151832714676857,
        0.1460614651441574,
        -0.15795667469501495,
        0.13216617703437805,
        0.05496088042855263,
        0.044853467494249344,
        -0.10844194889068604,
        0.16275553405284882,
        0.01625928282737732,
        -0.15819045901298523,
        0.12392484396696091
      ],
      [
        -0.15323501825332642,
        -0.1196770966053009,
        -0.1636313647031784,
        -0.0357048325240612,
        -0.05006194859743118,
        -0.1567952185869217,
        0.15417234599590302,
        -0.05810052156448364,
        0.00975987408310175,
        0.10376321524381638,
        -0.053198542445898056,
        0.10511064529418945,
        0.03688978776335716,
        0.04255969449877739,
        -0.12349638342857361,
        0.12159150093793869,
        0.12142353504896164,
        -0.012196256779134274,
        0.004000849090516567,
        -0.11504575610160828,
        0.131168395280838,
        -0.11117617040872574,
        -0.06985518336296082,
        0.012336593121290207,
        -0.009690038859844208,
        -0.05864543840289116,
        0.08940665423870087,
        -0.16314171254634857,
        0.04009665921330452,
        0.012317913584411144,
        -0.08390337228775024,
        -0.13291247189044952
      ],
      [
        -0.05765226110816002,
        0.013546296395361423,
        0.11783074587583542,
        0.14888310432434082,
        -0.01277814619243145,
        -0.11006753146648407,
        0.0021050935611128807,
        -0.14473369717597961,
        -0.09905296564102173,
        -0.10560920834541321,
        0.019027533009648323,
        0.008239805698394775,
        0.0556015707552433,
        0.1658080816268921,
        0.05368039384484291,
        -0.05623796209692955,
        -0.15668748319149017,
        0.0770900547504425,
        0.1198272854089737,
        0.14747846126556396,
        0.013536665588617325,
        -0.027183489874005318,
        -0.11019779741764069,
        0.1009574830532074,
        0.10844866186380386,
        -0.015058407559990883,
        -0.03823063150048256,
        0.15601354837417603,
        0.03977711498737335,
        0.02712436579167843,
        -0.026734374463558197,
        -0.05460933968424797
      ],
      [
        0.034763313829898834,
        0.051265865564346313,
        -0.03873353451490402,
        0.09438558667898178,
        -0.07813486456871033,
        -0.05968239903450012,
        -0.058630552142858505,
        0.13566114008426666,
        -0.13278290629386902,
        0.10505300015211105,
        0.09842489659786224,
        0.16058531403541565,
        -0.002695750445127487,
        -0.044963665306568146,
        -0.037443608045578,
        0.04712260887026787,
        -0.1439918577671051,
        -0.003629771526902914,
        0.14602155983448029,
        0.11951709538698196,
        -0.11239485442638397,
        0.05553734302520752,
        0.07113739848136902,
        -0.05157674476504326,
        0.18419800698757172,
        -0.08661922067403793,
        0.1400100439786911,
        -0.13697098195552826,
        -0.10215938091278076,
        0.15004241466522217,
        0.16320793330669403,
        0.059005849063396454
      ],
      [
        0.035945355892181396,
        0.14975272119045258,
        -0.1662132889032364,
        -0.05136403441429138,
        -0.0525440014898777,
        -0.0125146908685565,
        0.0042566261254251,
        0.02127576433122158,
        -0.16068296134471893,
        0.016635728999972343,
        0.008917278610169888,
        -0.11577387154102325,
        -0.039105165749788284,
        -0.08943914622068405,
        -0.14364492893218994,
        -0.08229444921016693,
        0.04679993912577629,
        -0.04319218173623085,
        -0.002305996837094426,
        0.07726163417100906,
        -0.01827400177717209,
        0.08156515657901764,
        -0.05057219788432121,
        -0.0830441489815712,
        -0.1629166454076767,
        0.05044873431324959,
        -0.15562468767166138,
        0.1373070925474167,
        0.11045630276203156,
        -0.011488097719848156,
        -0.011008506640791893,
        0.03168831765651703
      ],
      [
        -0.13020092248916626,
        -0.032609786838293076,
        0.11490841209888458,
        -0.1664503514766693,
        -0.05911199003458023,
        0.11363037675619125,
        -0.14225368201732635,
        0.010763582773506641,
        -0.11354614049196243,
        -0.10013910382986069,
        -0.06957241892814636,
        -0.14297273755073547,
        -0.023892635479569435,
        0.09393089264631271,
        0.10054758191108704,
        -0.11571391671895981,
        0.16765724122524261,
        -0.016088474541902542,
        0.025109848007559776,
        0.09126932919025421,
        0.04943554103374481,
        0.009508466348052025,
        -0.034170396625995636,
        -0.04131669923663139,
        -0.1728563755750656,
        -0.07264025509357452,
        0.029580751433968544,
        -0.00040148882544599473,
        -0.18407320976257324,
        0.16097955405712128,
        0.06173573434352875,
        0.1575755774974823
      ],
      [
        0.09430650621652603,
        0.02569759078323841,
        0.1262025386095047,
        0.048737358301877975,
        0.09091910719871521,
        -0.02914566732943058,
        0.13590961694717407,
        0.08953261375427246,
        0.036857761442661285,
        -0.12635736167430878,
        0.056540340185165405,
        -0.0863957330584526,
        0.04181651398539543,
        0.16833822429180145,
        -0.16815553605556488,
        0.026895901188254356,
        -0.0164414644241333,
        -0.09596628695726395,
        -0.14658117294311523,
        -0.07617559283971786,
        0.05989837273955345,
        0.012914914637804031,
        -0.042252618819475174,
        -0.1423693597316742,
        -0.13015475869178772,
        -0.1790608912706375,
        -0.13002745807170868,
        0.006912681274116039,
        -0.004455803893506527,
        0.11440155655145645,
        -0.005933925975114107,
        -0.14042693376541138
      ],
      [
        0.17371149361133575,
        0.04805101081728935,
        0.019422920420765877,
        0.00036006461596116424,
        0.1353670209646225,
        0.06106885150074959,
        0.010809415951371193,
        0.13006143271923065,
        -0.17036080360412598,
        -0.13126444816589355,
        0.10623463243246078,
        -0.04963797330856323,
        -0.12188024818897247,
        -0.025535155087709427,
        -0.02434219978749752,
        0.07703778147697449,
        0.027716565877199173,
        -0.056485868990421295,
        0.1800268441438675,
        0.019552936777472496,
        -0.13059355318546295,
        0.07867278903722763,
        0.02155245840549469,
        -0.011651445180177689,
        -0.10893312096595764,
        -0.1005907654762268,
        -0.13808099925518036,
        -0.02143758535385132,
        -0.13406424224376678,
        0.1615731567144394,
        -0.03809260204434395,
        0.10698914527893066
      ],
      [
        0.10252082347869873,
        -0.0279555544257164,
        0.16702665388584137,
        0.061867427080869675,
        0.12034586071968079,
        0.14429305493831635,
        0.11343500018119812,
        -0.1475992649793625,
        -0.07101359963417053,
        0.05350309610366821,
        0.06737738847732544,
        -0.07004792243242264,
        -0.05721776559948921,
        0.056150663644075394,
        0.02579636126756668,
        0.033436037600040436,
        0.02786738984286785,
        0.0010911256540566683,
        -0.06826634705066681,
        -0.06372988224029541,
        -0.047525838017463684,
        0.08390328288078308,
        0.015130183659493923,
        -0.13800710439682007,
        -0.11080250144004822,
        -0.05417001619935036,
        0.0010231859050691128,
        0.0829019844532013,
        0.055229302495718,
        -0.05766211822628975,
        0.05582641810178757,
        0.056244637817144394
      ],
      [
        0.03480910509824753,
        0.05017080530524254,
        0.14501290023326874,
        0.016809990629553795,
        -0.11049064993858337,
        0.011976061388850212,
        0.07894518226385117,
        0.022993525490164757,
        0.052912354469299316,
        0.07070446759462357,
        0.17479464411735535,
        -0.07225886732339859,
        -0.055763065814971924,
        0.0647173821926117,
        0.16425925493240356,
        -0.05710916221141815,
        0.13870249688625336,
        -0.12829847633838654,
        0.1392536163330078,
        -0.027669651433825493,
        0.12884768843650818,
        -0.18354858458042145,
        -0.1474900245666504,
        -0.18364453315734863,
        -0.09609200805425644,
        -0.03868225961923599,
        -0.09993461519479752,
        0.1111508384346962,
        -0.09844956547021866,
        0.06452386826276779,
        -0.02628244273364544,
        -0.15363243222236633
      ],
      [
        -0.12661287188529968,
        0.04122195392847061,
        -0.14664597809314728,
        -0.14815682172775269,
        -0.11155273765325546,
        0.0986059233546257,
        -0.09001994132995605,
        -0.1677176058292389,
        0.06074384227395058,
        -0.14613650739192963,
        -0.0006736060604453087,
        0.02146882936358452,
        -0.11931977421045303,
        0.13857229053974152,
        -0.03341657295823097,
        0.1531469076871872,
        -0.06631335616111755,
        0.06594853103160858,
        -0.16059455275535583,
        0.10386436432600021,
        -0.10697738081216812,
        -0.13045752048492432,
        0.10553058236837387,
        -0.1643797606229782,
        -0.11852358281612396,
        0.11268310248851776,
        -0.15170666575431824,
        0.15560637414455414,
        -0.18475551903247833,
        -0.17394804954528809,
        -0.11763833463191986,
        -0.15991869568824768
      ],
      [
        0.059304140508174896,
        -0.006223104894161224,
        -0.10869918763637543,
        0.07461965829133987,
        0.06696207821369171,
        -0.0015093296533450484,
        0.061682239174842834,
        0.14993809163570404,
        -0.08676397800445557,
        0.12820276618003845,
        0.042635273188352585,
        0.04447431489825249,
        -0.03651447594165802,
        -0.14390981197357178,
        -0.13047100603580475,
        -0.03809630870819092,
        -0.017647072672843933,
        -0.11283763498067856,
        -0.07578828930854797,
        -0.15438538789749146,
        0.09500187635421753,
        0.009070156142115593,
        0.11454569548368454,
        0.055923763662576675,
        0.1479368805885315,
        -0.024371307343244553,
        -0.016107724979519844,
        -0.0735335648059845,
        0.12457580864429474,
        -0.015524953603744507,
        -0.13609318435192108,
        -0.05374576896429062
      ],
      [
        -0.14913693070411682,
        0.07529805600643158,
        -0.043407902121543884,
        0.1363750547170639,
        -0.10061311721801758,
        -0.09101104736328125,
        0.0947088748216629,
        0.0011716530425474048,
        0.09754154086112976,
        -0.09149785339832306,
        0.032823558896780014,
        -0.010019486770033836,
        0.03038484789431095,
        0.1315384805202484,
        -0.17963473498821259,
        -0.16761326789855957,
        -0.05135686323046684,
        -0.008718550205230713,
        -0.09592454880475998,
        -0.04632524773478508,
        0.13800060749053955,
        0.0097136115655303,
        0.05945076793432236,
        -0.09306983649730682,
        -0.12580101191997528,
        0.09104331582784653,
        -0.10093676298856735,
        -0.13838689029216766,
        -0.025341114029288292,
        0.10154324769973755,
        -0.1387951523065567,
        0.08932812511920929
      ],
      [
        0.018914932385087013,
        0.02019747719168663,
        0.0008749693515710533,
        -0.05617138370871544,
        0.062239743769168854,
        0.11999710649251938,
        0.052325956523418427,
        0.04927743226289749,
        0.056807741522789,
        0.08655644953250885,
        0.07427726686000824,
        -0.0726388692855835,
        0.14141005277633667,
        -0.07814841717481613,
        -0.12817798554897308,
        -0.049047019332647324,
        -0.09740757197141647,
        -0.09100685268640518,
        -0.13183967769145966,
        -0.18530745804309845,
        -0.1604999452829361,
        0.12172861397266388,
        0.081607386469841,
        -0.07336662709712982,
        -0.12971968948841095,
        -0.06372741609811783,
        -0.17090252041816711,
        -0.05370064824819565,
        -0.08709507435560226,
        0.12433714419603348,
        0.13455671072006226,
        -0.047487203031778336
      ],
      [
        -0.1600692868232727,
        -0.010903743095695972,
        -0.14979331195354462,
        -0.08784620463848114,
        0.044081542640924454,
        -0.16991963982582092,
        0.015900174155831337,
        -0.07645467668771744,
        -0.139780193567276,
        0.0007008726242929697,
        -0.01746952161192894,
        -0.047158751636743546,
        0.06842952966690063,
        -0.12997475266456604,
        0.15652400255203247,
        -0.16471929848194122,
        0.1688760668039322,
        -0.09139413386583328,
        0.11721792817115784,
        -0.08371961861848831,
        -0.1465471386909485,
        0.09424984455108643,
        0.11074963957071304,
        -0.07490643113851547,
        -0.011350737884640694,
        0.031216777861118317,
        -0.14396169781684875,
        -0.15897716581821442,
        -0.11806992441415787,
        -0.16104327142238617,
        -0.10281264781951904,
        -0.16137006878852844
      ],
      [
        0.1379491537809372,
        0.055387046188116074,
        -0.10219136625528336,
        -0.11931172013282776,
        0.09778960794210434,
        -0.04508180171251297,
        -0.1553027182817459,
        -0.11308938264846802,
        0.055962301790714264,
        0.05639886111021042,
        -0.14951191842556,
        0.14950130879878998,
        -0.14157672226428986,
        -0.023753799498081207,
        0.11369526386260986,
        0.11659909039735794,
        0.06089285388588905,
        0.03797433525323868,
        0.04702575504779816,
        0.10018003731966019,
        0.019961265847086906,
        0.09691435098648071,
        0.04097946360707283,
        -0.17647041380405426,
        -0.09304502606391907,
        0.0028555761091411114,
        0.12453432381153107,
        -0.1447574645280838,
        -0.18077078461647034,
        0.08981653302907944,
        -0.17474694550037384,
        0.15491220355033875
      ],
      [
        0.0889052078127861,
        -0.03994401916861534,
        0.111107736825943,
        0.13560958206653595,
        -0.06411709636449814,
        -0.15262293815612793,
        0.15437714755535126,
        -0.06286496669054031,
        0.017521291971206665,
        -0.057015445083379745,
        -0.04827233403921127,
        -0.13726556301116943,
        -0.13694903254508972,
        -0.07551981508731842,
        -0.13875733315944672,
        0.1453745812177658,
        0.05077904090285301,
        0.09690573811531067,
        0.030497919768095016,
        0.04434967041015625,
        -0.14045082032680511,
        0.13585063815116882,
        -0.06715930253267288,
        0.05542290210723877,
        0.005902807228267193,
        0.06549300998449326,
        -0.06644095480442047,
        0.0627080649137497,
        0.03568219393491745,
        0.02269739843904972,
        0.12001817673444748,
        -0.04364224895834923
      ],
      [
        0.019934263080358505,
        0.07579077035188675,
        0.10128547996282578,
        -0.09975291043519974,
        -0.11396979540586472,
        -0.1164918839931488,
        -0.14618633687496185,
        -0.054275091737508774,
        -0.1719365119934082,
        -0.13135100901126862,
        0.1694677621126175,
        -0.032921697944402695,
        0.09890785813331604,
        -0.09060070663690567,
        -0.1455276906490326,
        -0.09652506560087204,
        0.14275044202804565,
        -0.056189488619565964,
        -0.023288140073418617,
        0.09084750711917877,
        0.09496695548295975,
        0.11104024201631546,
        -0.1096884086728096,
        -0.06319715082645416,
        -0.014993786811828613,
        0.14702455699443817,
        -0.09921377897262573,
        -0.08366986364126205,
        -0.014947942458093166,
        0.1604614555835724,
        0.1404353529214859,
        -0.009989984333515167
      ],
      [
        0.12558268010616302,
        0.11661173403263092,
        0.006063628941774368,
        0.009733125567436218,
        -0.16030265390872955,
        0.09942302852869034,
        -0.06767520308494568,
        -0.1805085390806198,
        0.06325486302375793,
        0.09522256255149841,
        0.1343422383069992,
        0.03697517514228821,
        0.1333969682455063,
        -0.13795676827430725,
        0.10142362117767334,
        -0.06615330278873444,
        0.0978132039308548,
        -0.11213105171918869,
        0.06937175244092941,
        0.06347241997718811,
        0.00540176872164011,
        -0.0061131748370826244,
        0.1573367565870285,
        -0.07746842503547668,
        -0.0017079293029382825,
        -0.01970566250383854,
        -0.07051756978034973,
        0.11660578846931458,
        0.11058168113231659,
        0.058427371084690094,
        0.08605507016181946,
        0.028128724545240402
      ],
      [
        0.008262126706540585,
        -0.15991556644439697,
        0.04626815766096115,
        -0.08205119520425797,
        0.1097039133310318,
        0.16038820147514343,
        -0.10711593925952911,
        -0.12665654718875885,
        -0.17815826833248138,
        0.0979977399110794,
        0.08423665165901184,
        -0.015498284250497818,
        -0.17317111790180206,
        0.13225726783275604,
        0.0006304968846961856,
        -0.16474518179893494,
        -0.06117653846740723,
        -0.10354015976190567,
        -0.1779031753540039,
        -0.03281283378601074,
        -0.07913374900817871,
        0.1330355703830719,
        -0.011060466058552265,
        -0.039741646498441696,
        -0.14144177734851837,
        0.08568242192268372,
        -0.14940382540225983,
        0.00510172825306654,
        -0.04938964545726776,
        -0.14886513352394104,
        0.084465891122818,
        0.16032876074314117
      ],
      [
        -0.07038268446922302,
        0.15290860831737518,
        -0.17784713208675385,
        -0.014920759946107864,
        0.17315754294395447,
        0.03782074525952339,
        -0.08502739667892456,
        -0.1373063325881958,
        0.11860805004835129,
        0.11673539876937866,
        -0.1578434854745865,
        0.07264582067728043,
        0.014433084987103939,
        0.1190618947148323,
        -0.008600343018770218,
        0.09620717912912369,
        -0.056946009397506714,
        0.004636014346033335,
        0.1129450798034668,
        0.1278807520866394,
        0.07064658403396606,
        -0.16156944632530212,
        -0.004563658032566309,
        -0.11863311380147934,
        0.09469199925661087,
        0.00985413882881403,
        -0.1377335488796234,
        -0.11256718635559082,
        0.0982804000377655,
        0.09876591712236404,
        -0.10437234491109848,
        -0.057652801275253296
      ],
      [
        -0.0894051194190979,
        -0.026341529563069344,
        -0.14045292139053345,
        -0.1624135673046112,
        0.06877322494983673,
        -0.057233329862356186,
        -0.02195766381919384,
        -0.0025102344807237387,
        -0.07518553733825684,
        0.10738587379455566,
        -0.1290421485900879,
        0.11460670083761215,
        -0.09747865796089172,
        -0.1759200096130371,
        0.08435491472482681,
        -0.06103977560997009,
        0.0053326901979744434,
        0.05660618096590042,
        -0.05191562697291374,
        0.10080006718635559,
        -0.031449444591999054,
        -0.17721930146217346,
        0.04494225233793259,
        -0.04927867278456688,
        0.06877166777849197,
        0.08040501922369003,
        0.07680823653936386,
        0.05739164352416992,
        0.15590603649616241,
        0.1030178889632225,
        0.02108740247786045,
        -0.017037395387887955
      ],
      [
        0.14534485340118408,
        0.17535704374313354,
        0.15331965684890747,
        0.07891719043254852,
        0.16990530490875244,
        0.012323563918471336,
        0.11227328330278397,
        -0.0069338674657046795,
        0.07698269188404083,
        0.03876035287976265,
        -0.02220063842833042,
        -0.012078593485057354,
        -0.15714937448501587,
        0.1682863086462021,
        0.14332403242588043,
        0.05917620658874512,
        -0.12318355590105057,
        -0.0058842250145971775,
        0.006938885431736708,
        0.058374494314193726,
        0.03649812191724777,
        0.14132098853588104,
        -0.060262154787778854,
        -0.13006986677646637,
        0.02053040638566017,
        0.0031654825434088707,
        -0.15731114149093628,
        -0.11857904493808746,
        -0.06894348561763763,
        0.03341054171323776,
        0.04434697702527046,
        -0.03713327646255493
      ],
      [
        -0.06053169444203377,
        -0.08179403841495514,
        0.08054547756910324,
        0.04642545431852341,
        -0.15077640116214752,
        -0.1507112681865692,
        -6.451310764532536e-05,
        0.16707277297973633,
        -0.04876816272735596,
        -0.12594348192214966,
        0.1679605096578598,
        -0.1152208223938942,
        0.08854354918003082,
        -0.10826807469129562,
        0.06783662736415863,
        0.05463018640875816,
        0.0656309500336647,
        -0.13060623407363892,
        0.1338518261909485,
        0.062021590769290924,
        -0.07731333374977112,
        -0.14120276272296906,
        0.047272782772779465,
        -0.12290230393409729,
        -0.14740712940692902,
        0.0656951293349266,
        -0.050028346478939056,
        0.05381022021174431,
        -0.14491018652915955,
        0.15565721690654755,
        0.10318180173635483,
        -0.03344106674194336
      ],
      [
        0.03528645634651184,
        -0.17613352835178375,
        -0.07917935401201248,
        0.07192967087030411,
        0.07973520457744598,
        0.0008644303889013827,
        0.13311657309532166,
        -0.11660192906856537,
        0.07504402846097946,
        -0.00554517051205039,
        -0.052736733108758926,
        -0.010992273688316345,
        0.0888405367732048,
        -0.041618864983320236,
        0.11186043173074722,
        0.0957782194018364,
        0.08441001921892166,
        0.11595176160335541,
        0.09623563289642334,
        0.004869349766522646,
        -0.1694069504737854,
        0.0795106291770935,
        0.17225319147109985,
        -0.05143766105175018,
        -0.08542139083147049,
        0.06602320075035095,
        -0.06810688972473145,
        -0.14716708660125732,
        0.04642336815595627,
        0.09985876828432083,
        -0.06210295110940933,
        0.01577887125313282
      ]
    ],
    "linear_1_bias": [
      -0.1265658289194107,
      -0.188520148396492,
      0.06061661243438721,
      0.09440045803785324,
      -0.09759452193975449,
      0.0820511132478714,
      -0.042845629155635834,
      -0.06820753216743469,
      0.08491465449333191,
      0.04389325529336929,
      0.0937410444021225,
      -0.06298882514238358,
      0.1357116848230362,
      -0.001434367266483605,
      0.01599632389843464,
      -0.09678710252046585,
      -0.021008869633078575,
      0.11322416365146637,
      -0.10850602388381958,
      -0.17753218114376068,
      0.09762250632047653,
      0.02633434534072876,
      -0.10133928805589676,
      -0.03552141413092613,
      -0.010150715708732605,
      0.09524257481098175,
      0.1514563113451004,
      -0.17978496849536896,
      -0.029205910861492157,
      -0.14527781307697296,
      0.11039449274539948,
      0.17083948850631714
    ],
    "linear_1_in_features": 32,
    "linear_1_out_features": 32,
    "linear_2_weight": [
      [
        0.09961719810962677,
        -0.10065391659736633,
        -0.10394394397735596,
        0.15920096635818481,
        0.002092184266075492,
        -0.09684901684522629,
        0.13239988684654236,
        -0.059775035828351974,
        -0.008128399029374123,
        -0.1317887008190155,
        -0.138260617852211,
        0.10693486779928207,
        -0.03963655233383179,
        -0.18223468959331512,
        -0.19995930790901184,
        0.17074449360370636,
        -0.0447193905711174,
        -0.0036541204899549484,
        -0.02188369259238243,
        0.14342661201953888,
        0.08247643709182739,
        -0.11098781228065491,
        0.10426576435565948,
        0.10376502573490143,
        0.14715082943439484,
        0.14690035581588745,
        0.13103121519088745,
        -0.054476022720336914,
        0.06313662976026535,
        0.1548849195241928,
        0.007043677382171154,
        0.1459001749753952
      ],
      [
        0.05750437453389168,
        -0.07391990721225739,
        0.06231631338596344,
        0.003207552945241332,
        -0.06236276030540466,
        -0.12509551644325256,
        0.0634642094373703,
        0.05155247077345848,
        0.12324117124080658,
        -0.17322605848312378,
        -0.08015784621238708,
        -0.08621080219745636,
        -0.14413048326969147,
        0.010042457841336727,
        0.17299242317676544,
        0.10198014974594116,
        0.09677137434482574,
        0.060500722378492355,
        -0.1672685593366623,
        0.06266283988952637,
        0.052500169724226,
        -0.16153201460838318,
        -0.17464205622673035,
        0.1390380710363388,
        0.06136394292116165,
        0.022657662630081177,
        0.12781192362308502,
        -0.0060966731980443,
        0.14368197321891785,
        -0.15879087150096893,
        -0.06820273399353027,
        -0.051093872636556625
      ],
      [
        0.08805260807275772,
        -0.1721334457397461,
        -0.008947931230068207,
        -0.10013782232999802,
        0.04919380694627762,
        -0.05815104767680168,
        0.14466382563114166,
        -0.12272438406944275,
        0.0883772000670433,
        -0.0909910649061203,
        0.10941580682992935,
        0.07675061374902725,
        0.055131323635578156,
        -0.06216764077544212,
        0.030944079160690308,
        -0.06656567007303238,
        0.10289052873849869,
        0.07345891743898392,
        0.018048634752631187,
        -0.06365828216075897,
        -0.1683986335992813,
        -0.14860421419143677,
        -0.07549294084310532,
        -0.13017135858535767,
        -0.06461400538682938,
        -0.01050806138664484,
        -0.07637950032949448,
        -0.016564451158046722,
        -0.034010425209999084,
        0.007192040793597698,
        -0.12168166041374207,
        -0.06414277851581573
      ],
      [
        -0.15878987312316895,
        0.006801308132708073,
        -0.05152248963713646,
        -0.045735299587249756,
        0.001267962739802897,
        -0.10582327842712402,
        -0.00048137371777556837,
        0.1631053239107132,
        -0.09680585563182831,
        -0.060718681663274765,
        -0.12740524113178253,
        0.03877757489681244,
        0.1476791352033615,
        -0.1506342887878418,
        -0.02061144821345806,
        -0.004071455914527178,
        0.0672699585556984,
        0.06111517548561096,
        -0.04831620678305626,
        -0.081088587641716,
        -0.09624982625246048,
        -0.003162457374855876,
        0.03384668007493019,
        0.09112945944070816,
        0.13590547442436218,
        0.03544919937849045,
        0.12920698523521423,
        -0.13764338195323944,
        -0.029848366975784302,
        0.13701486587524414,
        0.07783960551023483,
        0.06688740849494934
      ],
      [
        -0.12616416811943054,
        -0.10907195508480072,
        -0.03197028115391731,
        -0.14955641329288483,
        -0.15972797572612762,
        0.0931948870420456,
        0.13064968585968018,
        0.04954232648015022,
        -0.0856470838189125,
        -0.10603614151477814,
        -0.0010383526096120477,
        -0.16430389881134033,
        -0.050761181861162186,
        -0.11954650282859802,
        -0.037612102925777435,
        -0.02992888353765011,
        0.08168042451143265,
        -0.10561500489711761,
        0.024354759603738785,
        -0.010161783546209335,
        -0.05852479115128517,
        -0.05854613706469536,
        0.025964833796024323,
        0.09504122287034988,
        0.07814906537532806,
        0.11120892316102982,
        0.18701580166816711,
        -0.0057337344624102116,
        0.14470715820789337,
        -0.05771918594837189,
        0.008119763806462288,
        -0.15606571733951569
      ],
      [
        -0.08931140601634979,
        -0.0763874277472496,
        0.16847820580005646,
        -0.10078498721122742,
        -0.17308597266674042,
        -0.07202145457267761,
        0.1334485113620758,
        0.026719452813267708,
        -0.09119315445423126,
        -0.07409343123435974,
        -0.033134445548057556,
        -0.11678018420934677,
        0.07947832345962524,
        -0.08991612493991852,
        -0.1669461578130722,
        0.09428703784942627,
        -0.11567497253417969,
        0.1048797070980072,
        0.032297488301992416,
        0.09812935441732407,
        0.010035824961960316,
        -0.15339376032352448,
        0.06710498780012131,
        0.10683312267065048,
        0.1138899102807045,
        0.1447589099407196,
        0.03524403274059296,
        -0.13601651787757874,
        0.12372557073831558,
        -0.17459119856357574,
        0.08794507384300232,
        0.04572034999728203
      ],
      [
        -0.05435900762677193,
        0.05969254672527313,
        0.14226609468460083,
        0.15288348495960236,
        -0.16380107402801514,
        0.13910992443561554,
        -0.08129920065402985,
        -0.1594921052455902,
        -0.1574908196926117,
        -0.043040551245212555,
        0.020680943503975868,
        0.010896863415837288,
        0.0339462086558342,
        -0.12560392916202545,
        0.12282192707061768,
        -0.037263743579387665,
        -0.17281286418437958,
        0.11789760738611221,
        0.16771200299263,
        0.027724800631403923,
        0.08773434162139893,
        0.11665017902851105,
        -0.019506040960550308,
        0.11017335951328278,
        0.07889023423194885,
        -0.06964518874883652,
        0.14953911304473877,
        0.09542924165725708,
        -0.14452500641345978,
        0.16255752742290497,
        -0.06289282441139221,
        -0.15815332531929016
      ],
      [
        0.16456663608551025,
        -0.120921790599823,
        -0.10830314457416534,
        0.07309899479150772,
        0.13768216967582703,
        -0.0601721815764904,
        -0.11364774405956268,
        0.08635933697223663,
        0.16760212182998657,
        0.08177252113819122,
        0.16648267209529877,
        -0.06893213838338852,
        0.1349312961101532,
        0.09337137639522552,
        0.01492567639797926,
        0.08732485771179199,
        0.009916447103023529,
        -0.048449110239744186,
        -0.08134221285581589,
        -0.011634414084255695,
        -0.12427257001399994,
        -0.02624022215604782,
        0.18049365282058716,
        0.08452239632606506,
        0.05065229907631874,
        0.06652062386274338,
        0.0580512210726738,
        0.08759751170873642,
        -0.13442081212997437,
        -0.1502838283777237,
        -0.09635809808969498,
        -0.10559385269880295
      ],
      [
        0.03862294554710388,
        -0.09745046496391296,
        0.01982361450791359,
        0.16302959620952606,
        -0.0605500265955925,
        0.10920195281505585,
        -0.02829928509891033,
        0.08739562332630157,
        0.15364836156368256,
        -0.11005371063947678,
        -0.09473291784524918,
        -0.14898478984832764,
        0.08310171961784363,
        -0.10460984706878662,
        -0.13525140285491943,
        -0.1168891042470932,
        -0.0030536488629877567,
        -0.17308811843395233,
        0.11575587838888168,
        -0.16889409720897675,
        -0.020324192941188812,
        -0.11570382863283157,
        0.15087926387786865,
        -0.1819557249546051,
        -0.14028458297252655,
        0.06466315686702728,
        -0.1000664159655571,
        0.0813978984951973,
        0.07184095680713654,
        0.13642115890979767,
        0.10327570140361786,
        -0.12488234788179398
      ],
      [
        0.021230554208159447,
        -0.03347964957356453,
        0.15804781019687653,
        -0.1466514766216278,
        0.1629744917154312,
        -0.11341425031423569,
        0.11076048016548157,
        -0.0013724190648645163,
        -0.053128622472286224,
        -0.03837283328175545,
        -0.12877213954925537,
        -0.0023024147376418114,
        0.11640018224716187,
        0.13994567096233368,
        -0.11825621873140335,
        -0.03532522916793823,
        -0.06954187154769897,
        0.16601411998271942,
        0.07674992829561234,
        -0.04322417825460434,
        0.15087418258190155,
        -0.08044750988483429,
        -0.024111643433570862,
        0.0430002436041832,
        0.11721691489219666,
        0.174057736992836,
        -0.12116900086402893,
        0.13603682816028595,
        -0.1201731488108635,
        -0.10273925960063934,
        0.15317679941654205,
        -0.15492714941501617
      ],
      [
        0.024740898981690407,
        0.08470229804515839,
        -0.01729942299425602,
        -0.06407874077558517,
        0.06485553830862045,
        -0.061491336673498154,
        -0.1157769113779068,
        0.026498325169086456,
        0.07600891590118408,
        -0.11224134266376495,
        -0.10342274606227875,
        0.12003478407859802,
        -0.03889789432287216,
        0.05150516331195831,
        -0.07756659388542175,
        -0.08272939175367355,
        -0.0360192134976387,
        0.0979146957397461,
        -0.1028517633676529,
        0.020342569798231125,
        -0.16756412386894226,
        0.03005908615887165,
        0.1169200986623764,
        -0.1546175479888916,
        0.08315139263868332,
        0.04354273900389671,
        -0.08306197822093964,
        0.011557021178305149,
        -0.024903472512960434,
        0.08085829764604568,
        0.11869204044342041,
        -0.020507916808128357
      ],
      [
        -0.010906386189162731,
        0.05396108701825142,
        0.029754696413874626,
        0.10826318711042404,
        -0.15085619688034058,
        -0.10583209246397018,
        -0.17773695290088654,
        0.07505762577056885,
        0.11385221034288406,
        0.026351939886808395,
        0.1456214189529419,
        0.008918053470551968,
        -0.05174115300178528,
        0.048656463623046875,
        -0.010947429575026035,
        -0.08603411167860031,
        0.14986427128314972,
        0.06673809140920639,
        0.08665554225444794,
        0.15284278988838196,
        0.12875071167945862,
        0.09899359941482544,
        0.14688166975975037,
        0.03498700261116028,
        0.018511507660150528,
        -0.15737809240818024,
        -0.04026513546705246,
        0.12870199978351593,
        -0.04587002471089363,
        -0.04347199946641922,
        -0.16251711547374725,
        -0.12211977690458298
      ],
      [
        -0.018081851303577423,
        0.004451786167919636,
        -0.13167069852352142,
        -0.11391830444335938,
        0.13855202496051788,
        -0.05411389842629433,
        0.14358875155448914,
        0.062298860400915146,
        0.1311320811510086,
        0.11026859283447266,
        0.07418692857027054,
        -0.06709377467632294,
        0.05185283347964287,
        -0.04403618723154068,
        -0.04990773648023605,
        0.09246958792209625,
        0.05414269492030144,
        0.0033299040514975786,
        0.11582031100988388,
        0.0458451546728611,
        0.003960521426051855,
        0.1264394074678421,
        -0.06434660404920578,
        0.0376998707652092,
        0.08097293227910995,
        0.0005930355982854962,
        -0.021965283900499344,
        0.04525882378220558,
        -0.1564909815788269,
        0.1228550523519516,
        -0.10452304780483246,
        -0.09888767451047897
      ],
      [
        -0.005791866220533848,
        0.06649179011583328,
        -0.039828963577747345,
        0.10955122113227844,
        0.09662163257598877,
        -0.029719153419137,
        -0.04917946457862854,
        0.06701076775789261,
        0.11096600443124771,
        -0.1273658573627472,
        -0.1281530112028122,
        -0.11999300867319107,
        0.147049680352211,
        0.08108757436275482,
        0.14657019078731537,
        -0.08475268632173538,
        -0.09955228865146637,
        -0.001461949897930026,
        -0.11352737247943878,
        -0.09095069020986557,
        0.09637436270713806,
        -0.1005411148071289,
        0.029458429664373398,
        0.1167408674955368,
        0.06528269499540329,
        -0.12643344700336456,
        -0.08619840443134308,
        -0.044086143374443054,
        -0.07104409486055374,
        -0.15155404806137085,
        0.08240029215812683,
        0.17738336324691772
      ],
      [
        0.14417527616024017,
        -0.06134561449289322,
        -0.11810460686683655,
        0.07186434417963028,
        -0.008522736839950085,
        -0.08584729582071304,
        0.14196816086769104,
        0.016597306355834007,
        0.18034186959266663,
        0.057587575167417526,
        0.15675313770771027,
        -0.1368541270494461,
        0.11779781430959702,
        0.01338452473282814,
        0.0329667404294014,
        -0.03929755464196205,
        0.12610650062561035,
        0.1451355218887329,
        0.04573715478181839,
        0.10039891302585602,
        0.13503293693065643,
        -0.0009262983803637326,
        0.12051387131214142,
        -0.06930679082870483,
        0.1555306762456894,
        0.028668049722909927,
        -0.16613991558551788,
        0.041024018079042435,
        -0.020441774278879166,
        -0.09970304369926453,
        -0.07354076951742172,
        0.055184680968523026
      ],
      [
        -0.0330965481698513,
        0.03852354735136032,
        -0.021925577893853188,
        0.057057883590459824,
        0.014662113040685654,
        0.06181344762444496,
        -0.1029154434800148,
        0.13944004476070404,
        -0.12237527221441269,
        0.02408488839864731,
        0.023961767554283142,
        -0.06363144516944885,
        -0.176432803273201,
        -0.07453376799821854,
        0.04261104017496109,
        -0.17505639791488647,
        -0.03879435732960701,
        -0.059154633432626724,
        0.07800720632076263,
        -0.046423278748989105,
        0.11381165683269501,
        -0.05006476491689682,
        -0.11692778021097183,
        0.1389995962381363,
        -0.007657285779714584,
        0.15521804988384247,
        -0.008850385434925556,
        0.05444679036736488,
        0.07339252531528473,
        0.09492065757513046,
        -0.02197234146296978,
        0.17072436213493347
      ],
      [
        0.05842757970094681,
        -0.06452742964029312,
        0.12359903752803802,
        -0.14597611129283905,
        0.14047880470752716,
        -0.1187795102596283,
        -0.10378691554069519,
        0.07847516238689423,
        -0.17632754147052765,
        0.014087352901697159,
        -0.09594063460826874,
        0.1696760207414627,
        -0.18849234282970428,
        -0.02074570767581463,
        -0.035645708441734314,
        0.0833454504609108,
        0.1250523328781128,
        -0.03730408474802971,
        -0.15636448562145233,
        0.05209226906299591,
        -0.11613239347934723,
        0.031527675688266754,
        0.13972017168998718,
        0.09473400563001633,
        0.03155976161360741,
        -0.15531502664089203,
        0.00823802500963211,
        -0.1390063315629959,
        0.11830643564462662,
        0.0349821075797081,
        0.04709393531084061,
        0.03042799048125744
      ],
      [
        0.14542952179908752,
        0.08665213733911514,
        -0.012696139514446259,
        0.12693028151988983,
        -0.06033442169427872,
        -0.034195058047771454,
        -0.04112660512328148,
        0.1168830394744873,
        0.15583430230617523,
        0.14940421283245087,
        -0.10171221196651459,
        -0.1133079007267952,
        -0.1460850089788437,
        -0.09873493760824203,
        0.046836066991090775,
        0.04143473878502846,
        -0.08760306984186172,
        0.11569193005561829,
        0.005332881584763527,
        0.1520182192325592,
        0.000814770464785397,
        0.08254290372133255,
        0.04553777351975441,
        -0.09544074535369873,
        0.0807962715625763,
        0.0863945260643959,
        -0.09900088608264923,
        -0.0749196857213974,
        -0.0448981449007988,
        -0.02342451736330986,
        0.053314607590436935,
        0.14463555812835693
      ],
      [
        -0.12836705148220062,
        0.06080028787255287,
        0.1514948159456253,
        0.004541204776614904,
        -0.13851052522659302,
        -0.037889108061790466,
        0.05165551230311394,
        -0.13129287958145142,
        -0.0686536431312561,
        -0.00424205232411623,
        -0.05003790557384491,
        -0.0007525878609158099,
        0.09322217106819153,
        -0.12782184779644012,
        -0.08072805404663086,
        0.06787122786045074,
        -0.07009553909301758,
        -0.08047359436750412,
        -0.028948666527867317,
        -0.09395457059144974,
        0.15299542248249054,
        -0.11749807745218277,
        0.16760914027690887,
        -0.10813567042350769,
        -0.14786826074123383,
        0.08528248220682144,
        0.18298214673995972,
        -0.17085152864456177,
        0.15844659507274628,
        -0.010700151324272156,
        -0.07618336379528046,
        -0.1297970712184906
      ],
      [
        -0.15313775837421417,
        0.05403711646795273,
        0.052840232849121094,
        0.07741308957338333,
        0.051234785467386246,
        0.10739727318286896,
        0.16347743570804596,
        -0.12460074573755264,
        0.028218857944011688,
        -0.025379912927746773,
        -0.014951997436583042,
        0.13718153536319733,
        -0.08737432956695557,
        0.033241745084524155,
        -0.06542515009641647,
        0.10747396945953369,
        -0.10868200659751892,
        -0.007159872446209192,
        0.1585734784603119,
        0.08582542091608047,
        0.1704135537147522,
        -0.1413816660642624,
        0.019941724836826324,
        -0.10943972319364548,
        0.07581865787506104,
        -0.09644399583339691,
        -0.05787528306245804,
        -0.13024340569972992,
        -0.11253262311220169,
        -0.01513833086937666,
        -0.04373680427670479,
        0.003512096358463168
      ],
      [
        -0.11004271358251572,
        0.1181870698928833,
        0.007666676305234432,
        -0.09711374342441559,
        -0.17472103238105774,
        0.11165103316307068,
        0.007534089498221874,
        0.039623964577913284,
        -0.043385960161685944,
        0.04586831107735634,
        0.16915039718151093,
        0.06005493551492691,
        0.022785762324929237,
        0.07833220809698105,
        -0.06447821110486984,
        0.04707126319408417,
        0.005473433993756771,
        0.16254131495952606,
        0.14752312004566193,
        0.059008244425058365,
        0.06163615360856056,
        -0.013986723497509956,
        0.06022869050502777,
        0.14452362060546875,
        -0.07235820591449738,
        0.0018500530859455466,
        0.07280619442462921,
        -0.14289216697216034,
        -0.004338288214057684,
        0.0410107746720314,
        -0.1394989788532257,
        0.02682068943977356
      ],
      [
        -0.17269763350486755,
        -0.10147291421890259,
        0.14265304803848267,
        0.021286064758896828,
        -0.002681606449186802,
        0.01733035407960415,
        0.0681685209274292,
        0.04751657322049141,
        0.10833380371332169,
        0.18625369668006897,
        -0.05503489077091217,
        -0.13297325372695923,
        -0.015920540317893028,
        -0.09568586945533752,
        -0.046240195631980896,
        -0.17386062443256378,
        -0.0064647807739675045,
        0.17129138112068176,
        -0.10869619250297546,
        0.1343366950750351,
        -0.04596700891852379,
        -0.16486860811710358,
        0.07032953947782516,
        0.18973563611507416,
        0.0038517294451594353,
        0.11841325461864471,
        0.12904812395572662,
        -0.05550985783338547,
        0.1485770046710968,
        -0.023634957149624825,
        -0.00884711928665638,
        -0.1068151444196701
      ],
      [
        -0.004894660320132971,
        0.0940312072634697,
        -0.1388028860092163,
        -0.028014671057462692,
        0.01909349113702774,
        0.16201087832450867,
        0.10632467269897461,
        0.09116045385599136,
        0.01312891487032175,
        -0.06268267333507538,
        -0.041922733187675476,
        0.1432691216468811,
        0.09633450955152512,
        0.16259144246578217,
        -0.05534401535987854,
        0.10515795648097992,
        -0.03264470770955086,
        0.06576449424028397,
        -0.07914136350154877,
        0.13136321306228638,
        0.07553092390298843,
        -0.0272488072514534,
        0.05100025236606598,
        -0.05694721266627312,
        0.023875372484326363,
        -0.054318565875291824,
        0.136415496468544,
        0.0871155634522438,
        -0.06928867101669312,
        0.1537027508020401,
        0.1240205243229866,
        -0.047563303261995316
      ],
      [
        0.17319469153881073,
        0.11681529134511948,
        -0.12025856226682663,
        -0.10038843005895615,
        0.08213668316602707,
        -0.039903879165649414,
        0.05671831592917442,
        -0.13645708560943604,
        0.11756762117147446,
        -0.1682722121477127,
        -0.04802270233631134,
        -0.05277487635612488,
        -0.1330137997865677,
        0.120550237596035,
        0.13752968609333038,
        -0.09053072333335876,
        0.1572154313325882,
        0.09858492016792297,
        0.03616662323474884,
        -0.05182407796382904,
        0.14091871678829193,
        -0.04106657952070236,
        -0.06917412579059601,
        -0.004813767038285732,
        -0.043068479746580124,
        0.05546678230166435,
        -0.048644088208675385,
        -0.06787773221731186,
        0.05619030445814133,
        0.17322808504104614,
        0.1325223743915558,
        -0.01181387435644865
      ],
      [
        -0.14586572349071503,
        0.10827715694904327,
        0.06321150809526443,
        0.08236823976039886,
        0.042707860469818115,
        -0.0028272559866309166,
        -0.13099828362464905,
        -0.13008852303028107,
        0.09899063408374786,
        -0.10848627239465714,
        0.07552918791770935,
        -0.040105048567056656,
        -0.0806121826171875,
        -0.18502061069011688,
        0.13451775908470154,
        0.15742239356040955,
        0.03637704998254776,
        0.15276552736759186,
        -0.14911191165447235,
        0.03224203735589981,
        -0.15595155954360962,
        -0.052999578416347504,
        0.09903842210769653,
        0.15513089299201965,
        -0.17351378500461578,
        -0.16406413912773132,
        0.008148753084242344,
        0.016370413824915886,
        -0.030943719670176506,
        0.06496650725603104,
        -0.03751591593027115,
        -0.1734960973262787
      ],
      [
        -0.1681077480316162,
        0.12095907330513,
        0.09218064695596695,
        -0.136679545044899,
        -0.16043777763843536,
        0.17311163246631622,
        0.17460580170154572,
        0.159829780459404,
        0.09958386421203613,
        -0.12160825729370117,
        0.10896962136030197,
        0.12907692790031433,
        -0.08615856617689133,
        -0.005639955867081881,
        -0.055402062833309174,
        0.08078561723232269,
        -0.15372449159622192,
        0.11396676301956177,
        0.14639228582382202,
        0.04412563145160675,
        -0.14824552834033966,
        0.010658501647412777,
        0.12983722984790802,
        0.05408090725541115,
        -0.10665997862815857,
        0.05497021973133087,
        -0.1431664228439331,
        0.07545708864927292,
        -0.14774653315544128,
        -0.061260174959897995,
        -0.022612258791923523,
        0.09871188551187515
      ],
      [
        0.03506321460008621,
        -0.02958526462316513,
        0.04051138833165169,
        0.1237020343542099,
        0.13942451775074005,
        -0.049384307116270065,
        0.10168246179819107,
        -0.13743117451667786,
        -0.14910583198070526,
        0.08583913743495941,
        -0.15776126086711884,
        -0.0833815485239029,
        -0.1308051347732544,
        0.07083392143249512,
        -0.0615726113319397,
        -0.09186185151338577,
        -0.03556195646524429,
        0.11087594926357269,
        -0.13255715370178223,
        0.013077042065560818,
        0.09626946598291397,
        -0.15980440378189087,
        0.14162784814834595,
        -0.19669371843338013,
        -0.05286619812250137,
        -0.18545712530612946,
        -0.1710452288389206,
        0.12310152500867844,
        0.08434503525495529,
        0.039838649332523346,
        -0.0693819597363472,
        0.024899853393435478
      ],
      [
        0.007857969030737877,
        -0.14508242905139923,
        0.1605466604232788,
        -0.0426972396671772,
        0.16031549870967865,
        -0.06737639009952545,
        0.1310400813817978,
        0.10775543004274368,
        0.07828359305858612,
        -0.13199006021022797,
        -0.08678951114416122,
        0.1449817568063736,
        0.1270667016506195,
        0.05323956161737442,
        0.04719448462128639,
        0.11574976146221161,
        0.10261472314596176,
        -0.08124140650033951,
        -0.025555400177836418,
        -0.15526333451271057,
        0.1398182362318039,
        0.05881284922361374,
        0.09770091623067856,
        0.11648798733949661,
        -0.12418071180582047,
        0.06059138476848602,
        0.11605117470026016,
        -0.1515309363603592,
        -0.0656401738524437,
        0.13705824315547943,
        -0.01262661162763834,
        0.02791709080338478
      ],
      [
        0.11568334698677063,
        0.06898510456085205,
        -0.1283896416425705,
        0.14893265068531036,
        -0.12315686047077179,
        -0.1599688082933426,
        0.02611890621483326,
        -0.09987293928861618,
        0.05214168503880501,
        -0.16750158369541168,
        0.08929454535245895,
        -0.04142177850008011,
        0.056930746883153915,
        -0.07131952047348022,
        -0.13024352490901947,
        0.08089528977870941,
        0.10917805880308151,
        -0.13448652625083923,
        -0.10598528385162354,
        0.14613445103168488,
        -0.14368027448654175,
        0.04380952939391136,
        -0.05635104700922966,
        0.033498261123895645,
        0.1283872425556183,
        0.07291827350854874,
        0.0643065795302391,
        0.025046030059456825,
        -0.009505946189165115,
        0.06831260025501251,
        -0.061671189963817596,
        -0.0902143269777298
      ],
      [
        0.1443428099155426,
        -0.02128143422305584,
        -0.021449772641062737,
        -0.004687904380261898,
        0.1240471750497818,
        0.15107187628746033,
        0.06836357712745667,
        0.13048727810382843,
        -0.14591847360134125,
        -0.08123486489057541,
        0.17819538712501526,
        -0.17374499142169952,
        -0.10220661759376526,
        -0.12725234031677246,
        0.14057156443595886,
        -0.14357055723667145,
        -0.10466115176677704,
        -0.059998176991939545,
        0.008496498689055443,
        0.11212169378995895,
        0.15319284796714783,
        -0.043871212750673294,
        -0.016476966440677643,
        0.1350840926170349,
        -0.14512529969215393,
        0.11207704246044159,
        0.1271291971206665,
        0.12583543360233307,
        -0.16178183257579803,
        -0.11889778822660446,
        -0.009190204553306103,
        -0.03859333321452141
      ],
      [
        -0.06539055705070496,
        0.10425813496112823,
        -0.05985022336244583,
        0.015060185454785824,
        -0.03878595679998398,
        0.1290813833475113,
        -0.062252603471279144,
        0.08541795611381531,
        0.12757642567157745,
        -0.10675407201051712,
        -0.13871844112873077,
        -0.1236894503235817,
        0.03938768059015274,
        0.11734279990196228,
        -0.05627765506505966,
        0.05792080610990524,
        -0.09116224199533463,
        0.052629776298999786,
        0.11044878512620926,
        0.05144601687788963,
        -0.012284055352210999,
        -0.04660746082663536,
        -0.004105415195226669,
        -0.1046098843216896,
        0.051205407828092575,
        -0.11040246486663818,
        0.16801664233207703,
        0.013477753847837448,
        -0.0807981863617897,
        0.06715171784162521,
        0.15599890053272247,
        -0.10078323632478714
      ],
      [
        -0.058231934905052185,
        0.10957387089729309,
        -0.16129988431930542,
        -0.0817246362566948,
        -0.03508163243532181,
        -0.003764151828363538,
        0.03847631439566612,
        0.11655915528535843,
        -0.07575752586126328,
        0.05641229450702667,
        0.16770869493484497,
        0.12556397914886475,
        0.15709969401359558,
        -0.10022690892219543,
        -0.1511915624141693,
        -0.0389174185693264,
        0.03601200506091118,
        0.1354869306087494,
        0.04288576915860176,
        0.04311268776655197,
        -0.07206806540489197,
        -0.12115459889173508,
        0.012417677789926529,
        -0.0043152556754648685,
        0.15005414187908173,
        -0.10928215831518173,
        -0.040053512901067734,
        0.08737140148878098,
        0.15658678114414215,
        0.056321606040000916,
        -0.15118704736232758,
        0.14680972695350647
      ]
    ],
    "linear_2_bias": [
      -0.07608940452337265,
      -0.04363701492547989,
      -0.17511586844921112,
      0.14024707674980164,
      -0.001923991716466844,
      -0.14392636716365814,
      0.12323080003261566,
      -0.08182239532470703,
      -0.09499474614858627,
      -0.11121267825365067,
      -0.03454786166548729,
      0.14947396516799927,
      0.12034356594085693,
      0.15759418904781342,
      -0.07789478451013565,
      -0.01973196491599083,
      0.09140796214342117,
      0.135705828666687,
      0.05500176176428795,
      -0.17278896272182465,
      0.007615863345563412,
      0.039961133152246475,
      0.025506604462862015,
      -0.16592223942279816,
      -0.0064031039364635944,
      -0.0651768296957016,
      0.1274864375591278,
      -0.14526285231113434,
      -0.15459749102592468,
      0.18446049094200134,
      0.15595979988574982,
      -0.10935212671756744
    ],
    "linear_2_in_features": 32,
    "linear_2_out_features": 32,
    "linear_3_weight": [
      [
        0.06932340562343597,
        -0.0005972272483631968,
        -0.12571164965629578,
        0.0699780210852623,
        0.020837202668190002,
        -0.03871116042137146,
        0.1323782354593277,
        -0.11269154399633408,
        0.09106266498565674,
        -0.1693035215139389,
        0.027775678783655167,
        0.14375337958335876,
        0.09685398638248444,
        -0.03681159391999245,
        -0.06623733043670654,
        -0.01043681614100933,
        0.07394923269748688,
        0.03578922152519226,
        0.03537013754248619,
        0.11723560839891434,
        -0.11543237417936325,
        -0.1022871732711792,
        -0.055133331567049026,
        0.13749612867832184,
        0.13852740824222565,
        -0.05762016400694847,
        0.15454472601413727,
        -0.12555678188800812,
        -0.0771835520863533,
        -0.12410550564527512,
        0.12381385266780853,
        -0.04043784365057945
      ]
    ],
    "linear_3_bias": [
      0.04710346832871437
    ],
    "linear_3_in_features": 32,
    "linear_3_out_features": 1
  }
}