{
  "meta": {
    "input_size": 1,
    "hidden_size": 32,
    "num_layers": 3,
    "rnn_type": "gru",
    "output_size": 1,
    "dtype": "float32",
    "input_columns": [
      "u0"
    ],
    "output_columns": [
      "y0"
    ],
    "norm": {
      "mean": [
        [
          [
            0.0061549232341349125
          ]
        ]
      ],
      "std": [
        [
          [
            0.022241493687033653
          ]
        ]
      ],
      "axes": [
        0,
        1
      ]
    }
  },
  "weights": {
    "w_ir_l0": [
      [
        -0.27915269136428833
      ],
      [
        -0.23622940480709076
      ],
      [
        0.1363421082496643
      ],
      [
        0.07113628834486008
      ],
      [
        -0.16373272240161896
      ],
      [
        0.023213455453515053
      ],
      [
        0.06345493346452713
      ],
      [
        0.015942171216011047
      ],
      [
        -0.16488875448703766
      ],
      [
        0.2919712960720062
      ],
      [
        -0.12324617803096771
      ],
      [
        0.05703805387020111
      ],
      [
        0.06773880124092102
      ],
      [
        0.15393072366714478
      ],
      [
        -0.1390821635723114
      ],
      [
        -0.18485072255134583
      ],
      [
        -0.006060819141566753
      ],
      [
        -0.1260313093662262
      ],
      [
        0.04455526918172836
      ],
      [
        0.1642925888299942
      ],
      [
        -0.14518697559833527
      ],
      [
        0.023929238319396973
      ],
      [
        0.18297959864139557
      ],
      [
        -0.19264405965805054
      ],
      [
        -0.18512703478336334
      ],
      [
        -0.054673049598932266
      ],
      [
        0.11687313765287399
      ],
      [
        -0.24592536687850952
      ],
      [
        0.04705842584371567
      ],
      [
        0.023000461980700493
      ],
      [
        0.06523264944553375
      ],
      [
        -0.0759541317820549
      ]
    ],
    "w_iz_l0": [
      [
        0.18782058358192444
      ],
      [
        0.04059659317135811
      ],
      [
        -0.09585212916135788
      ],
      [
        -0.012794925831258297
      ],
      [
        0.08028819411993027
      ],
      [
        -0.05729731172323227
      ],
      [
        0.06107598915696144
      ],
      [
        -0.06627009063959122
      ],
      [
        0.25719526410102844
      ],
      [
        -0.27965956926345825
      ],
      [
        -0.06171996518969536
      ],
      [
        -0.014022588729858398
      ],
      [
        -0.11092162132263184
      ],
      [
        -0.14777447283267975
      ],
      [
        0.004579377826303244
      ],
      [
        0.12445704638957977
      ],
      [
        -0.12296729534864426
      ],
      [
        0.20061489939689636
      ],
      [
        -0.2289709448814392
      ],
      [
        -0.07861363142728806
      ],
      [
        -0.09537532925605774
      ],
      [
        0.037283845245838165
      ],
      [
        -0.07379480451345444
      ],
      [
        0.16965265572071075
      ],
      [
        0.05451053008437157
      ],
      [
        0.02606622315943241
      ],
      [
        -0.12587770819664001
      ],
      [
        0.2128971368074417
      ],
      [
        -0.11058744788169861
      ],
      [
        0.0821286216378212
      ],
      [
        -0.029382389038801193
      ],
      [
        -0.003282759804278612
      ]
    ],
    "w_in_l0": [
      [
        0.029136188328266144
      ],
      [
        -0.11257456988096237
      ],
      [
        0.06197160482406616
      ],
      [
        -0.011541408486664295
      ],
      [
        0.0803198367357254
      ],
      [
        -0.03539862111210823
      ],
      [
        0.08541569858789444
      ],
      [
        -0.03055337257683277
      ],
      [
        0.11620991677045822
      ],
      [
        0.017997149378061295
      ],
      [
        0.06913577020168304
      ],
      [
        0.05837900564074516
      ],
      [
        0.027543801814317703
      ],
      [
        0.09404220432043076
      ],
      [
        0.1400061845779419
      ],
      [
        -0.07681071758270264
      ],
      [
        0.035049546509981155
      ],
      [
        0.03766825795173645
      ],
      [
        -0.11732064932584763
      ],
      [
        0.0015570134855806828
      ],
      [
        0.09570424258708954
      ],
      [
        -0.09140801429748535
      ],
      [
        -0.03710321709513664
      ],
      [
        0.050030454993247986
      ],
      [
        -0.10287844389677048
      ],
      [
        0.0003237010387238115
      ],
      [
        -0.032487716525793076
      ],
      [
        -0.02189590595662594
      ],
      [
        0.07530121505260468
      ],
      [
        0.08345828205347061
      ],
      [
        0.09670252352952957
      ],
      [
        -0.07554513961076736
      ]
    ],
    "b_ir_l0": [
      -0.04822497442364693,
      -0.08579086512327194,
      0.02097402885556221,
      0.20116248726844788,
      0.19647428393363953,
      0.011252445168793201,
      -0.01832822524011135,
      0.12415609508752823,
      0.12498262524604797,
      -0.07740576565265656,
      0.0930846631526947,
      0.034875765442848206,
      0.23159919679164886,
      0.24052663147449493,
      0.01622520200908184,
      0.044368091970682144,
      0.1899455338716507,
      0.09746843576431274,
      -0.08102390170097351,
      -0.06394597887992859,
      -0.08409906923770905,
      -0.007823551073670387,
      -0.060753438621759415,
      0.13984684646129608,
      -0.06451860070228577,
      0.3142367899417877,
      0.12822262942790985,
      -0.10293117165565491,
      0.02983230911195278,
      -0.04716020077466965,
      0.1599363386631012,
      0.07724485546350479
    ],
    "b_iz_l0": [
      -0.031677234917879105,
      0.1323511004447937,
      -0.0031131731811910868,
      -0.09315889328718185,
      -0.03879879042506218,
      -0.12861783802509308,
      -0.10137976706027985,
      0.05791465938091278,
      -0.014863856136798859,
      -0.08511350303888321,
      -0.020797159522771835,
      -0.22701561450958252,
      -0.04113959148526192,
      0.02672533132135868,
      0.03973155468702316,
      -0.13524845242500305,
      -0.062302228063344955,
      -0.04688533768057823,
      0.14290520548820496,
      -0.1996370553970337,
      0.07634753733873367,
      -0.039407357573509216,
      -0.27364039421081543,
      -0.10356039553880692,
      0.12832964956760406,
      -0.24828878045082092,
      -0.0644121915102005,
      -0.11197314411401749,
      0.1517176628112793,
      -0.09472601860761642,
      0.06463837623596191,
      -0.1325870305299759
    ],
    "b_in_l0": [
      0.12943466007709503,
      0.07354485243558884,
      0.0050712814554572105,
      -0.1531325876712799,
      -0.04105802997946739,
      0.08109066635370255,
      -0.047624070197343826,
      0.008208549581468105,
      -0.06463941931724548,
      -0.086520716547966,
      0.06500481814146042,
      -0.06881596893072128,
      0.016974404454231262,
      -0.19376304745674133,
      -0.05955447256565094,
      0.06538363546133041,
      -0.15164043009281158,
      0.01671271026134491,
      0.033504411578178406,
      0.08424238115549088,
      0.12525895237922668,
      0.10688771307468414,
      0.09753122180700302,
      0.10135142505168915,
      0.01761147938668728,
      -0.04674806818366051,
      0.031718552112579346,
      -0.0652180016040802,
      0.023783110082149506,
      -0.11155638843774796,
      0.010987672954797745,
      -0.03287801519036293
    ],
    "w_hr_l0": [
      [
        0.13382655382156372,
        0.23581168055534363,
        0.0837661400437355,
        0.110375314950943,
        0.11209462583065033,
        -0.041663285344839096,
        -0.2228710800409317,
        0.02263479493558407,
        -0.2117287963628769,
        -0.11163642257452011,
        0.036609526723623276,
        -0.1767393797636032,
        -0.14247487485408783,
        0.06848177313804626,
        -0.12415022403001785,
        -0.05830639600753784,
        0.05834594741463661,
        -0.055225346237421036,
        0.18469935655593872,
        -0.06265652179718018,
        -0.19296784698963165,
        0.19635775685310364,
        -0.024227581918239594,
        0.11595457792282104,
        0.1589244157075882,
        0.15830984711647034,
        -0.0016895256703719497,
        -0.1129152774810791,
        0.007623810321092606,
        -0.13783366978168488,
        -0.061778996139764786,
        -0.0704069510102272
      ],
      [
        -0.18836709856987,
        -0.10273568332195282,
        0.04812196269631386,
        -0.06146515905857086,
        -0.09426633268594742,
        0.16931158304214478,
        -0.09610236436128616,
        0.2686057686805725,
        -0.14287543296813965,
        -0.030385678634047508,
        -0.06485585868358612,
        -0.13225886225700378,
        -0.18256114423274994,
        0.23961485922336578,
        -0.12386845052242279,
        -0.06807152926921844,
        -0.04763945937156677,
        0.07925184816122055,
        0.03870909661054611,
        -0.03348603472113609,
        -0.05619197338819504,
        0.0470430925488472,
        0.08368503302335739,
        -0.14009429514408112,
        0.22807438671588898,
        -0.1469554305076599,
        0.01192167866975069,
        0.10111133754253387,
        0.03043818473815918,
        0.2596607506275177,
        -0.17268365621566772,
        0.2676307260990143
      ],
      [
        -0.055549588054418564,
        0.2559201717376709,
        -0.014840362593531609,
        -0.17968156933784485,
        -0.09869276732206345,
        -0.19502298533916473,
        -0.02027597464621067,
        -0.170510396361351,
        -0.1355958878993988,
        0.000963002850767225,
        0.10372649878263474,
        0.07503094524145126,
        0.028385654091835022,
        0.01186758279800415,
        0.12174733728170395,
        0.037213150411844254,
        -0.10571775585412979,
        -0.042057160288095474,
        -0.059837181121110916,
        0.023341437801718712,
        0.11270862072706223,
        0.04938201978802681,
        0.11958320438861847,
        -0.06777065247297287,
        0.23176544904708862,
        0.26424312591552734,
        -0.21646447479724884,
        0.1441730111837387,
        0.19259369373321533,
        -0.06250112503767014,
        -0.0015822432469576597,
        -0.10776986181735992
      ],
      [
        0.19343580305576324,
        0.015459413640201092,
        0.08887481689453125,
        -0.09235388040542603,
        -0.00799246784299612,
        0.013618950732052326,
        0.08594189584255219,
        -0.011097053065896034,
        0.25102418661117554,
        -0.23524391651153564,
        0.19889114797115326,
        0.2665676176548004,
        0.07422459125518799,
        0.12746372818946838,
        -0.02135651931166649,
        -0.17694228887557983,
        -0.14745205640792847,
        0.18354542553424835,
        -0.04837357997894287,
        -0.015332157723605633,
        0.1165485680103302,
        -0.11169281601905823,
        0.09379950165748596,
        0.016599290072917938,
        -0.14569392800331116,
        -0.08167970180511475,
        -0.13114716112613678,
        -0.29557690024375916,
        -0.008895566686987877,
        -0.10549723356962204,
        0.017717033624649048,
        -0.20828364789485931
      ],
      [
        0.08987013250589371,
        0.20448283851146698,
        -0.12467052042484283,
        0.038671884685754776,
        -0.11396417021751404,
        -0.16171753406524658,
        -0.14474205672740936,
        0.060443710535764694,
        0.03004356473684311,
        -0.04029834643006325,
        0.01824471727013588,
        -0.21127943694591522,
        0.13327394425868988,
        -0.02004161663353443,
        -0.10883425176143646,
        -0.07065433263778687,
        0.06410820782184601,
        -0.1317993700504303,
        0.08576445281505585,
        -0.07258997857570648,
        0.12095437943935394,
        0.2434893250465393,
        0.09226538240909576,
        0.01525198481976986,
        0.044385410845279694,
        0.21579331159591675,
        -0.2499132752418518,
        0.06571236997842789,
        -0.10301890224218369,
        -0.08432158082723618,
        0.041905853897333145,
        0.020663408562541008
      ],
      [
        0.05413380637764931,
        0.07451754808425903,
        -0.14179876446723938,
        0.019244525581598282,
        -0.05598536506295204,
        0.07711488008499146,
        -0.17204363644123077,
        0.10177566111087799,
        -0.2085328996181488,
        -0.020627586171030998,
        0.09249171614646912,
        -0.19038939476013184,
        0.020105281844735146,
        -0.010306085459887981,
        -0.18231990933418274,
        0.12669166922569275,
        -0.15233957767486572,
        0.13613921403884888,
        0.060609858483076096,
        -0.1150365024805069,
        0.17310968041419983,
        -0.034366775304079056,
        -0.01399220246821642,
        0.12063835561275482,
        0.0845974013209343,
        0.0452430434525013,
        -0.017218682914972305,
        -0.1346123218536377,
        -0.020487181842327118,
        0.2405634969472885,
        -0.14756211638450623,
        0.1611582487821579
      ],
      [
        0.08352101594209671,
        0.20135073363780975,
        0.1550363153219223,
        -0.0769028440117836,
        -0.091743603348732,
        0.1027921661734581,
        0.049249760806560516,
        -0.10031353682279587,
        -0.12394775450229645,
        0.12048975378274918,
        0.09346658736467361,
        0.10717110335826874,
        0.017701387405395508,
        -0.1104852706193924,
        -0.14106856286525726,
        0.14577537775039673,
        0.06055837497115135,
        -0.03687814995646477,
        -0.06733283400535583,
        0.11961916834115982,
        0.06613315641880035,
        -0.0984908863902092,
        -0.0020668567158281803,
        -0.06908190995454788,
        -0.028544623404741287,
        -0.05268446356058121,
        -0.020628442987799644,
        -0.1401381492614746,
        -0.15213459730148315,
        0.18477128446102142,
        -0.05538657307624817,
        0.1542111188173294
      ],
      [
        0.17672964930534363,
        0.12710221111774445,
        -0.20573566854000092,
        -0.02290579490363598,
        0.20841270685195923,
        0.014912720769643784,
        -0.021481428295373917,
        -0.1579819768667221,
        0.0885651558637619,
        0.12711201608181,
        0.03250829130411148,
        0.030162256211042404,
        -0.13710276782512665,
        -0.13582445681095123,
        -0.06038738042116165,
        0.07552266120910645,
        0.19302576780319214,
        0.07412531971931458,
        0.03825722262263298,
        -0.0033728480339050293,
        -0.10515648871660233,
        -0.07594441622495651,
        -0.14939188957214355,
        -0.018606029450893402,
        0.15724989771842957,
        0.0942220538854599,
        -0.08669830113649368,
        -0.08971581608057022,
        0.11045371741056442,
        0.029501933604478836,
        0.13483208417892456,
        0.01878150925040245
      ],
      [
        0.16657212376594543,
        0.24387100338935852,
        0.10434368252754211,
        0.014475724659860134,
        -0.08253339678049088,
        0.10264856368303299,
        0.05507124215364456,
        0.0800037756562233,
        0.04965583607554436,
        0.006245190743356943,
        0.09730981290340424,
        -0.2057361751794815,
        -0.13328450918197632,
        0.19899746775627136,
        -0.2878226637840271,
        0.15094947814941406,
        -0.1294591873884201,
        0.09117794781923294,
        -0.04574734717607498,
        0.11727127432823181,
        -0.054414086043834686,
        0.08434542268514633,
        0.004881219007074833,
        0.17088167369365692,
        0.10097470134496689,
        0.06469734758138657,
        -0.013575383462011814,
        -0.03155859559774399,
        0.015519289299845695,
        -0.014807576313614845,
        -0.27158117294311523,
        -0.10344800353050232
      ],
      [
        0.05910604074597359,
        -0.043366990983486176,
        -0.14478443562984467,
        0.0835665687918663,
        -0.0022014372516423464,
        -0.1511726975440979,
        0.10752575099468231,
        -0.21719089150428772,
        0.03733807057142258,
        -0.18864792585372925,
        0.17771802842617035,
        0.22357875108718872,
        0.1473439335823059,
        0.27305617928504944,
        0.08472469449043274,
        -0.006780227646231651,
        0.12077154219150543,
        -0.15732358396053314,
        -0.2603594660758972,
        -0.024842247366905212,
        -0.065458744764328,
        -0.08701284974813461,
        0.0736033171415329,
        0.043065644800662994,
        -0.20301340520381927,
        0.048744771629571915,
        -0.12523537874221802,
        -0.1293167769908905,
        -0.11963751167058945,
        -0.20619487762451172,
        0.30292317271232605,
        -0.09320996701717377
      ],
      [
        0.05190631374716759,
        -0.028824204578995705,
        -0.18291166424751282,
        -0.012600373476743698,
        -0.03283979371190071,
        -0.014831031672656536,
        -0.049986112862825394,
        0.05262530967593193,
        0.12132108956575394,
        0.12530405819416046,
        0.1041407659649849,
        0.04449261724948883,
        0.005193817429244518,
        -0.04423055797815323,
        0.14570364356040955,
        -0.03752494230866432,
        -0.1311904937028885,
        -0.1995883285999298,
        -0.25425541400909424,
        0.038814760744571686,
        0.08074001222848892,
        0.06278188526630402,
        0.07135086506605148,
        0.11090376228094101,
        -0.07759495824575424,
        0.15093550086021423,
        0.06932004541158676,
        -0.041603248566389084,
        0.04795278608798981,
        -0.1425195038318634,
        -0.10065218061208725,
        0.02658524550497532
      ],
      [
        -0.0034165079705417156,
        -0.07260854542255402,
        -0.14983700215816498,
        -0.03047478012740612,
        0.14386209845542908,
        0.0028837546706199646,
        0.01718032732605934,
        -0.18789754807949066,
        -0.20102213323116302,
        0.04996379837393761,
        0.024570278823375702,
        -0.1672062873840332,
        0.11982511729001999,
        0.07628192007541656,
        -0.21003210544586182,
        0.14147835969924927,
        -0.044287946075201035,
        0.059230737388134,
        -0.20312033593654633,
        -0.019486932083964348,
        0.015021580271422863,
        0.05090928450226784,
        0.009707547724246979,
        0.13905058801174164,
        -0.09497431665658951,
        0.014748658984899521,
        -0.09904013574123383,
        0.17067407071590424,
        0.20482300221920013,
        0.10200904309749603,
        0.001666216878220439,
        0.00030482758302241564
      ],
      [
        0.12841224670410156,
        0.04165065288543701,
        0.00082101218868047,
        -0.0633760616183281,
        0.1648646593093872,
        -0.11480987817049026,
        -0.08809898793697357,
        -0.18906988203525543,
        -0.005447855219244957,
        -0.06886744499206543,
        0.15721768140792847,
        -0.06518297642469406,
        0.11993269622325897,
        0.08869005739688873,
        -0.07835474610328674,
        -0.09462585300207138,
        -0.041387006640434265,
        -0.20532579720020294,
        -0.04131939262151718,
        0.06050684675574303,
        0.1437862515449524,
        0.07972393184900284,
        0.2620360255241394,
        0.15284034609794617,
        -0.03413192182779312,
        -0.06050848960876465,
        0.017685959115624428,
        0.15230226516723633,
        -0.06238587200641632,
        -0.0012882109731435776,
        -0.19599564373493195,
        -0.1520102322101593
      ],
      [
        0.19595788419246674,
        0.0655236542224884,
        -0.2246399223804474,
        0.01216843444854021,
        0.14521297812461853,
        0.13323792815208435,
        -0.008760102093219757,
        -0.02916065789759159,
        -0.11953392624855042,
        0.04827053099870682,
        0.03503621742129326,
        0.31523892283439636,
        0.28798726201057434,
        0.007361241616308689,
        0.24119538068771362,
        0.05012182891368866,
        0.16502496600151062,
        -0.22630906105041504,
        -0.1487358808517456,
        -0.023022998124361038,
        0.1849661022424698,
        -0.08937083184719086,
        -0.12338144332170486,
        0.12770727276802063,
        -0.14272305369377136,
        -0.16089463233947754,
        0.10727149248123169,
        0.0889483243227005,
        0.04590483009815216,
        -0.06877119839191437,
        0.19750048220157623,
        -0.240518718957901
      ],
      [
        -0.06431660056114197,
        0.03980393335223198,
        -0.18990907073020935,
        -0.21750859916210175,
        0.008242345415055752,
        0.0791020542383194,
        0.010246525518596172,
        -0.09234664589166641,
        -0.10934524983167648,
        -0.137551948428154,
        0.032446589320898056,
        0.04557715356349945,
        0.11543097347021103,
        0.0335664302110672,
        0.2521299719810486,
        0.15612462162971497,
        0.054212167859077454,
        0.11053106933832169,
        -0.10956275463104248,
        0.10207698494195938,
        0.18668173253536224,
        0.16012951731681824,
        0.07972794771194458,
        0.1705116182565689,
        -0.028530696406960487,
        -0.05957149341702461,
        -0.2540149390697479,
        -0.08649106323719025,
        0.16527004539966583,
        0.11607463657855988,
        0.03001788817346096,
        -0.1363409012556076
      ],
      [
        0.039295170456171036,
        0.16269207000732422,
        0.08716749399900436,
        -0.19031922519207,
        -0.07633698731660843,
        -0.06418782472610474,
        -0.1847732812166214,
        0.05549677461385727,
        -0.0676615983247757,
        -0.13243404030799866,
        0.06448759138584137,
        0.03957212716341019,
        0.12959669530391693,
        0.014028498902916908,
        -0.1358506679534912,
        0.04199563339352608,
        -0.027798546478152275,
        -0.07774753868579865,
        0.04391413927078247,
        -0.027320444583892822,
        0.013337350450456142,
        0.1405276209115982,
        0.03582945466041565,
        -0.09054815024137497,
        0.03802027925848961,
        0.048777054995298386,
        -0.11721748113632202,
        -0.01479350682348013,
        -0.09786465764045715,
        0.1625848412513733,
        0.02097075991332531,
        0.06614898890256882
      ],
      [
        0.1388634741306305,
        0.20703133940696716,
        -0.05980904400348663,
        0.045442599803209305,
        -0.0012100953608751297,
        -0.18484358489513397,
        -0.09358017891645432,
        0.024550052359700203,
        0.10562776029109955,
        -0.046526793390512466,
        0.02259688638150692,
        -0.18271344900131226,
        0.16759565472602844,
        -0.017778901383280754,
        0.2131500095129013,
        -0.13030274212360382,
        0.05582417547702789,
        -0.14597678184509277,
        0.07964135706424713,
        -0.1525927186012268,
        -0.12049635499715805,
        -0.007706231903284788,
        0.036185506731271744,
        0.07155962288379669,
        0.15929968655109406,
        0.16189053654670715,
        -0.09888003021478653,
        -0.07539191842079163,
        0.17782491445541382,
        -0.09129463136196136,
        0.022639362141489983,
        -0.15186022222042084
      ],
      [
        0.14015673100948334,
        0.15328732132911682,
        -0.14567214250564575,
        -0.2194153219461441,
        -0.03152715042233467,
        -0.04110853001475334,
        -0.15230704843997955,
        -0.16979582607746124,
        -0.2915554642677307,
        -0.026158057153224945,
        -0.042815323919057846,
        -0.11108680814504623,
        -0.12256741523742676,
        0.15064451098442078,
        -0.23697040975093842,
        -0.09248963743448257,
        0.017490318045020103,
        -0.05634615942835808,
        0.08955610543489456,
        0.03059964068233967,
        0.1085149496793747,
        0.14611446857452393,
        -0.0067730071023106575,
        -0.03210920840501785,
        0.12856081128120422,
        0.15828174352645874,
        -0.08966907113790512,
        0.09532614052295685,
        -0.041121404618024826,
        0.14209097623825073,
        0.024682672694325447,
        -0.04247156158089638
      ],
      [
        -0.07553807646036148,
        0.277305543422699,
        -0.2959134578704834,
        -0.07525834441184998,
        0.17969726026058197,
        -0.21375149488449097,
        -0.2473258078098297,
        0.0258182343095541,
        -0.1652613878250122,
        0.07300970703363419,
        0.01483949739485979,
        -0.205666184425354,
        -0.21296638250350952,
        -0.19563396275043488,
        0.14576199650764465,
        0.16213124990463257,
        0.11838134378194809,
        -0.32069849967956543,
        0.098179891705513,
        0.22816739976406097,
        -0.10225478559732437,
        0.029323723167181015,
        -0.03496576473116875,
        0.25501713156700134,
        0.13975057005882263,
        0.1188776046037674,
        0.022815551608800888,
        -0.013646340928971767,
        -0.18861545622348785,
        0.031954240053892136,
        0.05105608329176903,
        0.06394851207733154
      ],
      [
        -0.12147023528814316,
        -0.0796082615852356,
        -0.25615206360816956,
        -0.16539239883422852,
        0.23097330331802368,
        -0.0018830194603651762,
        0.06324219703674316,
        -0.21732987463474274,
        -0.03734569996595383,
        -0.22106735408306122,
        0.15219086408615112,
        -0.05230046436190605,
        0.12803561985492706,
        0.026760295033454895,
        -0.07440173625946045,
        0.01220592949539423,
        0.156355619430542,
        0.07045244425535202,
        -0.18948297202587128,
        0.001437571132555604,
        -0.04069702699780464,
        -0.0709126889705658,
        -0.020305709913372993,
        0.06451230496168137,
        0.07275809347629547,
        0.03671743720769882,
        0.14016377925872803,
        0.0401456393301487,
        -0.06248391419649124,
        0.018060458824038506,
        0.039246607571840286,
        0.010677698068320751
      ],
      [
        -0.12907424569129944,
        -0.03200578689575195,
        -0.1523291915655136,
        0.11913201957941055,
        0.23654696345329285,
        -0.052738793194293976,
        0.08103016763925552,
        0.07345632463693619,
        0.10871870070695877,
        0.04738807678222656,
        -0.18196021020412445,
        -0.143242746591568,
        0.00764447683468461,
        0.11089696735143661,
        0.18293450772762299,
        -0.05855611339211464,
        0.03629187121987343,
        -0.08545465767383575,
        0.008042524568736553,
        0.1042703166604042,
        0.12469363957643509,
        0.17249691486358643,
        -0.1234898641705513,
        -0.09164003282785416,
        -0.0679689422249794,
        0.0039663598872721195,
        -0.10575972497463226,
        -0.0036709909327328205,
        -0.022771546617150307,
        0.12702533602714539,
        0.03774963319301605,
        -0.15906387567520142
      ],
      [
        0.09045806527137756,
        0.14309385418891907,
        -0.00752788782119751,
        0.034603510051965714,
        -0.06146383658051491,
        -0.13570766150951385,
        0.10655397921800613,
        -0.009813855402171612,
        -0.17574141919612885,
        -0.004858140833675861,
        -0.07561936229467392,
        -0.00448046438395977,
        -0.010656940750777721,
        0.07658690214157104,
        -0.0633045956492424,
        -0.11307170987129211,
        0.07715940475463867,
        -0.1636161208152771,
        -0.06420503556728363,
        -0.038974374532699585,
        0.13146091997623444,
        0.006714409217238426,
        0.20954251289367676,
        0.04146817326545715,
        -0.05427181348204613,
        -0.17733968794345856,
        0.0179273821413517,
        0.10323087126016617,
        0.07106262445449829,
        -0.17060835659503937,
        -0.154392272233963,
        -0.11593100428581238
      ],
      [
        0.1394464075565338,
        0.11268593370914459,
        0.14132662117481232,
        -0.09734606742858887,
        0.04011087864637375,
        -0.02360098995268345,
        -0.012435611337423325,
        -0.0893879383802414,
        0.04316990077495575,
        0.006717243697494268,
        -0.023452214896678925,
        0.15889528393745422,
        0.24459785223007202,
        0.35818740725517273,
        -0.08498065173625946,
        -0.1400471329689026,
        0.177708238363266,
        0.026657285168766975,
        -0.1099516823887825,
        -0.2285204529762268,
        0.05246022716164589,
        0.04103520140051842,
        -0.03507339581847191,
        0.12560676038265228,
        -0.2403857558965683,
        -0.21699681878089905,
        0.15233813226222992,
        -0.10985440015792847,
        -0.17948578298091888,
        0.0737130418419838,
        0.043660081923007965,
        -0.06748997420072556
      ],
      [
        0.03479081764817238,
        0.183702751994133,
        0.15028652548789978,
        -0.0034196204505860806,
        -0.12471634149551392,
        0.09835834801197052,
        -0.16339373588562012,
        0.08614756911993027,
        -0.21240180730819702,
        0.001571247586980462,
        -0.07848919928073883,
        -0.07927699387073517,
        -0.022280637174844742,
        -0.1666220724582672,
        -0.22286534309387207,
        -0.06961323320865631,
        -0.028423218056559563,
        -0.12833952903747559,
        -0.08275450766086578,
        0.029900850728154182,
        -0.2004040628671646,
        0.08578123897314072,
        -0.05919482931494713,
        -0.13232113420963287,
        0.20097683370113373,
        -0.030832603573799133,
        -0.01609819196164608,
        0.1723216027021408,
        -0.10934089869260788,
        0.1662941724061966,
        -0.06387581676244736,
        0.05554867535829544
      ],
      [
        -0.05753105878829956,
        0.11091850697994232,
        0.07758808135986328,
        -0.19664597511291504,
        -0.09132620692253113,
        -0.1328420341014862,
        -0.10208000242710114,
        0.0018942372407764196,
        -0.031926196068525314,
        0.07962018996477127,
        0.09652769565582275,
        -0.1548394113779068,
        0.10272133350372314,
        -0.03773877024650574,
        -0.08268524706363678,
        0.06954775750637054,
        0.08033129572868347,
        -0.14149457216262817,
        -0.1577662080526352,
        0.1743416041135788,
        -0.016828829422593117,
        0.09800080955028534,
        0.03880801051855087,
        -0.08367396891117096,
        -0.12496307492256165,
        0.016092762351036072,
        -0.32578492164611816,
        -0.10939489305019379,
        0.12639592587947845,
        0.06279825419187546,
        0.1709120124578476,
        -0.14607363939285278
      ],
      [
        0.16864797472953796,
        0.0018465821631252766,
        0.07330364733934402,
        -0.21315352618694305,
        -0.1326850950717926,
        -0.0693889930844307,
        -0.16664451360702515,
        -0.06255855411291122,
        -0.15345719456672668,
        -0.18314988911151886,
        0.23207083344459534,
        0.030452536419034004,
        -0.07545839250087738,
        -0.08228527754545212,
        -0.046863894909620285,
        0.0031648806761950254,
        -0.15631921589374542,
        -0.23903076350688934,
        -0.05315738543868065,
        0.07643281668424606,
        0.05934876203536987,
        0.15238434076309204,
        0.0724627748131752,
        -0.02454262226819992,
        0.012109430506825447,
        0.004329846240580082,
        0.01897968165576458,
        0.14300255477428436,
        -0.02737242355942726,
        0.029429614543914795,
        0.09513628482818604,
        0.026716861873865128
      ],
      [
        0.02549157664179802,
        -0.0506928488612175,
        0.1461312472820282,
        -0.0100508788600564,
        -0.022446932271122932,
        -0.007190388161689043,
        0.2885984182357788,
        -0.04147845879197121,
        0.19452963769435883,
        -0.10580052435398102,
        0.09669891744852066,
        0.29173561930656433,
        -0.03653046861290932,
        0.3813145160675049,
        0.006542482413351536,
        -0.21190614998340607,
        -0.09902322292327881,
        0.20591899752616882,
        -0.06016992777585983,
        -0.098660409450531,
        0.1124739944934845,
        0.10030336678028107,
        -0.14615747332572937,
        0.10202337056398392,
        -0.0772646963596344,
        -0.28279629349708557,
        -0.21653953194618225,
        0.09174954146146774,
        -0.10960547626018524,
        0.08370931446552277,
        -0.039985038340091705,
        0.013358725234866142
      ],
      [
        0.04414967820048332,
        0.1664411425590515,
        -0.07693808525800705,
        -0.017541756853461266,
        -0.08255705237388611,
        -0.05598137527704239,
        -0.09412236511707306,
        0.15020596981048584,
        -0.148957297205925,
        -0.20152920484542847,
        -0.06534884124994278,
        -0.2362387478351593,
        -0.0294624175876379,
        -0.08339378982782364,
        -0.07055497169494629,
        0.04933712258934975,
        0.012220693752169609,
        0.00640459917485714,
        0.0762690082192421,
        -0.1554606407880783,
        0.12360971421003342,
        0.02082875929772854,
        0.08877108246088028,
        0.14445452392101288,
        0.016481252387166023,
        -0.12007074058055878,
        -0.1664063185453415,
        0.21193906664848328,
        0.18244986236095428,
        -0.1266222596168518,
        -0.01704995334148407,
        0.10703856498003006
      ],
      [
        0.019184837117791176,
        -0.09725752472877502,
        0.0230391938239336,
        -0.028091946616768837,
        0.09797525405883789,
        -0.09440276026725769,
        -0.121034637093544,
        0.0834769532084465,
        0.11386531591415405,
        -0.1713150143623352,
        -0.16104641556739807,
        0.16503866016864777,
        0.14273563027381897,
        0.15419024229049683,
        0.13113626837730408,
        -0.15667104721069336,
        -0.11696657538414001,
        -0.13046854734420776,
        0.036432553082704544,
        -0.09751904010772705,
        -0.039222363382577896,
        0.008078592829406261,
        0.012421896681189537,
        0.06433231383562088,
        -0.08671380579471588,
        0.010448521003127098,
        -0.07301196455955505,
        0.008831312879920006,
        0.10353466123342514,
        -0.11199316382408142,
        0.09570880234241486,
        -0.10917335003614426
      ],
      [
        -0.10416391491889954,
        0.025663772597908974,
        0.2191685289144516,
        -0.21588581800460815,
        0.09750588983297348,
        0.1282249540090561,
        -0.1596897542476654,
        0.12822580337524414,
        -0.008934915997087955,
        -0.18067613244056702,
        -0.009664734825491905,
        -0.07249745726585388,
        -0.02512449212372303,
        0.16789376735687256,
        -0.09511062502861023,
        0.12112288922071457,
        -0.2147524207830429,
        -0.13275691866874695,
        0.040219102054834366,
        -0.16702666878700256,
        0.011241614818572998,
        0.15685640275478363,
        -0.056038204580545425,
        -0.0680793896317482,
        0.03423072397708893,
        0.018430577591061592,
        -0.1997900754213333,
        -0.08801205456256866,
        -0.07214290648698807,
        -0.1280634105205536,
        -0.1801685392856598,
        0.05639784038066864
      ],
      [
        0.24409590661525726,
        0.25694379210472107,
        -0.1457320749759674,
        -0.14674215018749237,
        -0.09514369070529938,
        0.08624795824289322,
        -0.09349822252988815,
        0.0035957591608166695,
        -0.1611633151769638,
        0.0069859870709478855,
        0.14999333024024963,
        -0.01846269518136978,
        0.025514468550682068,
        -0.011900299228727818,
        -0.19342325627803802,
        0.029713453724980354,
        -0.015182324685156345,
        -0.02080445922911167,
        0.12732535600662231,
        -0.2121993750333786,
        0.18334944546222687,
        0.20607134699821472,
        0.25191083550453186,
        0.17607641220092773,
        -0.03024785779416561,
        -0.04115317016839981,
        -0.3040785789489746,
        -0.038253337144851685,
        0.09963790327310562,
        -0.04924983158707619,
        0.0751364603638649,
        -0.20075607299804688
      ],
      [
        0.03096645511686802,
        -0.013958053663372993,
        -0.2292325496673584,
        -0.047351233661174774,
        0.04561956226825714,
        -0.10944297164678574,
        0.01710357330739498,
        0.05797558277845383,
        -0.06582391262054443,
        0.033894531428813934,
        0.0754271000623703,
        0.01890411041676998,
        -0.03655758872628212,
        -0.1214602142572403,
        -0.187991201877594,
        0.02196628227829933,
        -0.1546933352947235,
        -0.011989631690084934,
        -0.15531101822853088,
        0.18565234541893005,
        -0.14489513635635376,
        0.03160954639315605,
        0.1398809403181076,
        0.18023428320884705,
        0.18183296918869019,
        0.09519078582525253,
        0.10584897547960281,
        0.029765363782644272,
        -0.09466129541397095,
        -0.0035306268837302923,
        -0.12347255647182465,
        -0.013487668707966805
      ]
    ],
    "w_hz_l0": [
      [
        0.15796205401420593,
        0.08417937904596329,
        -0.16273455321788788,
        0.09932152926921844,
        0.043122969567775726,
        0.14412757754325867,
        0.054647527635097504,
        0.07323615252971649,
        0.17174628376960754,
        -0.08090615272521973,
        0.14646580815315247,
        0.2296983301639557,
        0.2027222067117691,
        -0.02383437193930149,
        0.1246199980378151,
        -0.06829874217510223,
        0.010009248740971088,
        0.10949449241161346,
        -0.08908453583717346,
        -0.0037595878820866346,
        0.03872184827923775,
        0.0886676162481308,
        0.09883339703083038,
        0.14744876325130463,
        0.0013116562040522695,
        -0.1589244157075882,
        0.03231777995824814,
        -0.038505833595991135,
        0.028976259753108025,
        -0.2415957897901535,
        -0.00478266179561615,
        -0.04044036567211151
      ],
      [
        -0.01799164153635502,
        0.16858549416065216,
        -0.3394201099872589,
        0.19421866536140442,
        0.1394588202238083,
        -0.3079274892807007,
        -0.25763753056526184,
        -0.1265202760696411,
        -0.23493847250938416,
        -0.016912804916501045,
        0.08347928524017334,
        0.2016739398241043,
        0.10189604759216309,
        -0.03506246954202652,
        0.3773670792579651,
        0.08201022446155548,
        -0.008975149132311344,
        -0.032377153635025024,
        0.04979996010661125,
        0.16869722306728363,
        0.19217656552791595,
        0.0839325338602066,
        0.08544421195983887,
        0.2579673230648041,
        -0.1190139427781105,
        0.1930849403142929,
        -0.04257792979478836,
        0.17973917722702026,
        -0.2180706262588501,
        -0.16510990262031555,
        0.30708685517311096,
        -0.24254003167152405
      ],
      [
        -0.18813398480415344,
        -0.049485620111227036,
        -0.03873669356107712,
        0.02797541953623295,
        -0.005281985737383366,
        0.156463161110878,
        0.18972155451774597,
        -0.0536811426281929,
        0.2814161479473114,
        0.007651304826140404,
        0.10022106766700745,
        0.12624205648899078,
        -0.07892367243766785,
        -0.18915000557899475,
        -0.01128713134676218,
        -0.20797376334667206,
        0.11596718430519104,
        0.10348764061927795,
        0.11408846080303192,
        0.024277009069919586,
        -0.11930253356695175,
        0.04310915619134903,
        -0.166220560669899,
        -0.07271356880664825,
        -0.12769204378128052,
        0.039846308529376984,
        -0.0154926972463727,
        -0.11573530733585358,
        -0.008124420419335365,
        0.11992945522069931,
        0.07265674322843552,
        0.10418198257684708
      ],
      [
        -0.06284313648939133,
        -0.10479120165109634,
        -0.020254168659448624,
        -0.1496933102607727,
        -0.2759261727333069,
        -0.04519902542233467,
        -0.16914114356040955,
        -0.015321595594286919,
        -0.021563170477747917,
        0.038274478167295456,
        -0.23071928322315216,
        -0.13950088620185852,
        -0.0037958782631903887,
        -0.36976736783981323,
        -0.21850144863128662,
        -0.0008218159782700241,
        -0.1216399073600769,
        -0.10054901242256165,
        0.11535640805959702,
        0.10680689662694931,
        -0.08921045064926147,
        0.23561197519302368,
        -0.02989966608583927,
        -0.05985496938228607,
        0.0967772826552391,
        0.17891010642051697,
        -0.012557858601212502,
        0.004627412650734186,
        -0.12657059729099274,
        0.14341643452644348,
        -0.15259188413619995,
        0.021451137959957123
      ],
      [
        -0.1837664097547531,
        -0.1226060539484024,
        0.11041299253702164,
        0.21746662259101868,
        -0.13463497161865234,
        0.037461601197719574,
        -0.1618272066116333,
        0.10072775185108185,
        -0.0849471315741539,
        0.16561008989810944,
        0.12383712083101273,
        -0.01701136864721775,
        0.10924120247364044,
        7.17387956683524e-05,
        0.09957904368638992,
        -0.13993243873119354,
        0.17995935678482056,
        0.20659418404102325,
        -0.10965398699045181,
        0.044616926461458206,
        0.02459123358130455,
        -0.10463599860668182,
        0.07752014696598053,
        -0.0709877461194992,
        -0.0646665170788765,
        -0.12731550633907318,
        0.21039234101772308,
        -0.11562135070562363,
        0.03209838643670082,
        0.043347250670194626,
        0.018255947157740593,
        -0.08412820845842361
      ],
      [
        0.012082675471901894,
        -0.007528705056756735,
        0.14325721561908722,
        -0.016335854306817055,
        0.043112412095069885,
        -0.05652902275323868,
        0.054799117147922516,
        0.08663246780633926,
        0.14629942178726196,
        -0.030037809163331985,
        -0.06773177534341812,
        0.18895995616912842,
        0.005981037393212318,
        0.011480740271508694,
        0.17415450513362885,
        -0.058353595435619354,
        -0.04078118875622749,
        0.11153280735015869,
        -0.018894756212830544,
        -0.031138917431235313,
        -0.006630411371588707,
        -0.008152793161571026,
        0.07556210458278656,
        -0.20416074991226196,
        -0.1694476157426834,
        -0.12067452818155289,
        0.040695127099752426,
        -0.057336363941431046,
        -0.1514529436826706,
        -0.13050298392772675,
        0.08327578008174896,
        0.13732221722602844
      ],
      [
        -0.0038031763397157192,
        -0.10808049887418747,
        0.08967630565166473,
        -0.0954170674085617,
        0.05977809801697731,
        0.06891832500696182,
        0.055134136229753494,
        -0.028643708676099777,
        0.015305683948099613,
        0.03269415348768234,
        0.14350256323814392,
        -0.15788516402244568,
        -0.1401662677526474,
        -0.054727744311094284,
        0.31297555565834045,
        -0.018880153074860573,
        0.07542029768228531,
        -0.10817337781190872,
        0.009710356593132019,
        0.09655517339706421,
        -0.049812935292720795,
        0.03523554280400276,
        -0.07414539903402328,
        -0.11982361972332001,
        0.08924907445907593,
        0.15701507031917572,
        -0.01654619537293911,
        0.13486483693122864,
        0.08716854453086853,
        -0.03380285203456879,
        0.06036270782351494,
        -0.038101617246866226
      ],
      [
        -0.09709469228982925,
        -0.081273153424263,
        0.1486799120903015,
        0.13381093740463257,
        -0.22771777212619781,
        0.019503667950630188,
        0.14028768241405487,
        0.07448988407850266,
        -0.06497197598218918,
        0.08732984960079193,
        -0.05730576813220978,
        0.18299835920333862,
        -0.18350249528884888,
        -0.010728096589446068,
        0.15720848739147186,
        -0.05793595314025879,
        0.010305017232894897,
        0.25238895416259766,
        0.1665675789117813,
        -0.1384110152721405,
        0.04548800364136696,
        -0.0005081241833977401,
        0.02624538168311119,
        -0.020839860662817955,
        -0.13330766558647156,
        0.03701530024409294,
        0.12507237493991852,
        0.06667900085449219,
        -0.11684395372867584,
        0.03702668100595474,
        -0.033406782895326614,
        -0.040582358837127686
      ],
      [
        -0.097580187022686,
        0.17995932698249817,
        -0.15443256497383118,
        0.0925266295671463,
        0.10846567898988724,
        -0.03804266080260277,
        -0.015737317502498627,
        0.05566757544875145,
        0.09874652326107025,
        0.06922238320112228,
        -0.10047803074121475,
        -0.17011553049087524,
        -0.022780174389481544,
        -0.23669517040252686,
        0.26728305220603943,
        0.19417236745357513,
        0.1457434892654419,
        -0.1428406685590744,
        0.026182878762483597,
        0.22814157605171204,
        0.021126311272382736,
        -0.0653420090675354,
        -0.1487923264503479,
        -0.005425355397164822,
        0.028519168496131897,
        -0.02520517073571682,
        0.05909157544374466,
        0.13214737176895142,
        -0.09826240688562393,
        -0.16140460968017578,
        0.03737131878733635,
        0.08613648265600204
      ],
      [
        -0.0540551133453846,
        0.07796396315097809,
        -0.10601286590099335,
        0.0267398189753294,
        -0.08402928709983826,
        0.14879755675792694,
        0.11283950507640839,
        0.04182262718677521,
        0.03003106266260147,
        0.0573933906853199,
        0.028365887701511383,
        -0.23140569031238556,
        0.019571948796510696,
        0.0132619459182024,
        -0.04474037140607834,
        0.0154641754925251,
        -0.08692840486764908,
        0.02108699083328247,
        0.1821238249540329,
        0.02094559744000435,
        -0.10706721246242523,
        0.055359236896038055,
        0.1270284652709961,
        -0.11517932265996933,
        0.03842826187610626,
        -0.1414354145526886,
        -0.019199542701244354,
        -0.1132662370800972,
        -0.045385196805000305,
        -0.14810290932655334,
        -0.25682833790779114,
        0.1748989373445511
      ],
      [
        0.1409085988998413,
        -0.040124256163835526,
        0.0009794600773602724,
        0.038290414959192276,
        -0.02262939140200615,
        0.2074454128742218,
        -0.1464361846446991,
        0.08241527527570724,
        -0.06103047728538513,
        -0.1923118233680725,
        -0.09047931432723999,
        0.12734617292881012,
        0.17978443205356598,
        0.1429377943277359,
        0.18370680510997772,
        -0.06511646509170532,
        0.026203220710158348,
        0.16568227112293243,
        0.2231607735157013,
        0.12018478661775589,
        -0.03913668543100357,
        -0.12556739151477814,
        0.07566134631633759,
        0.07208558917045593,
        -0.2162257730960846,
        -0.008263793773949146,
        0.13849882781505585,
        -0.2409963756799698,
        0.16808158159255981,
        -0.11311058700084686,
        -0.04315459355711937,
        0.0858200192451477
      ],
      [
        0.10277552157640457,
        0.06049319729208946,
        0.007653145119547844,
        0.02347451075911522,
        -0.08122698962688446,
        -0.020406538620591164,
        0.13795576989650726,
        -0.04126260429620743,
        -0.08056258410215378,
        -0.02602706477046013,
        0.07308531552553177,
        0.015224886126816273,
        -0.20905491709709167,
        -0.17090286314487457,
        0.04627525433897972,
        -0.21388547122478485,
        0.08439725637435913,
        0.22386687994003296,
        0.008957352489233017,
        0.14601051807403564,
        -0.12433979660272598,
        0.005288373678922653,
        -0.11259434372186661,
        -0.1564222127199173,
        -0.010053188540041447,
        -0.004304638598114252,
        0.22942358255386353,
        -0.022204039618372917,
        0.1032136082649231,
        0.15768930315971375,
        -0.0826275572180748,
        0.015871144831180573
      ],
      [
        -0.1311061829328537,
        -0.1947290450334549,
        0.15014585852622986,
        0.11715558171272278,
        0.03611649200320244,
        -0.03755198419094086,
        -0.11085763573646545,
        0.08997833728790283,
        -0.0004183360724709928,
        0.04523986950516701,
        0.009594455361366272,
        0.06416720151901245,
        0.07525526732206345,
        -0.22322210669517517,
        0.32393455505371094,
        -0.08866855502128601,
        0.1688079833984375,
        0.23713262379169464,
        0.16954317688941956,
        -0.05228704586625099,
        -0.06125973165035248,
        -0.2336738109588623,
        0.07643230259418488,
        -0.12885519862174988,
        -0.2450777292251587,
        0.061687786132097244,
        0.09100134670734406,
        -0.04860582575201988,
        0.045270856469869614,
        0.13569973409175873,
        0.10928735882043839,
        0.10066744685173035
      ],
      [
        -0.14011043310165405,
        -0.18932490050792694,
        0.14023806154727936,
        0.1751880645751953,
        -0.2639366686344147,
        0.14206409454345703,
        -0.09773189574480057,
        0.057368919253349304,
        0.027591941878199577,
        -0.11719027906656265,
        0.08772897720336914,
        0.1087610051035881,
        0.015111824497580528,
        -0.1218404546380043,
        0.16651050746440887,
        0.0665794238448143,
        -0.1811104565858841,
        0.374605655670166,
        0.17088109254837036,
        -0.07507359981536865,
        0.06792792677879333,
        0.07020953297615051,
        0.12012132257223129,
        -0.04668387398123741,
        0.002214260632172227,
        -0.21078017354011536,
        0.08689071238040924,
        -0.09129567444324493,
        -0.10004723072052002,
        0.017401305958628654,
        -0.0429774671792984,
        0.08781801164150238
      ],
      [
        0.02875560149550438,
        0.03770328685641289,
        -0.13677382469177246,
        0.15021149814128876,
        -0.1601562798023224,
        -0.06982000172138214,
        -0.09885463863611221,
        0.03302811086177826,
        0.03398702293634415,
        0.17271849513053894,
        0.08139533549547195,
        0.101431705057621,
        -0.02190728485584259,
        -0.19837705790996552,
        -0.04559759050607681,
        -0.04991564899682999,
        0.13530844449996948,
        -0.12372590601444244,
        0.04899238049983978,
        0.30733805894851685,
        0.052281636744737625,
        0.017828652635216713,
        -0.14689236879348755,
        0.17519350349903107,
        -0.040461741387844086,
        0.1444859355688095,
        0.07877907156944275,
        -0.048076558858156204,
        0.06246311590075493,
        0.12338706851005554,
        -0.0031438791193068027,
        -0.19988267123699188
      ],
      [
        0.13335572183132172,
        0.027288509532809258,
        -0.03419460356235504,
        0.11215580254793167,
        -0.119053915143013,
        -0.11502423882484436,
        -0.09875549376010895,
        -0.0008868250879459083,
        -0.0881643295288086,
        0.0016878966707736254,
        0.16517996788024902,
        -0.10425011068582535,
        0.15196238458156586,
        0.012212189845740795,
        0.16592197120189667,
        0.012832957319915295,
        -0.043940816074609756,
        -0.13932257890701294,
        -0.116386279463768,
        0.13483093678951263,
        -0.15794193744659424,
        0.03509341552853584,
        0.05892040953040123,
        0.11940819025039673,
        -0.07312969863414764,
        0.025389976799488068,
        0.1621963083744049,
        -0.04914335161447525,
        0.01280952524393797,
        -0.2408418208360672,
        -0.02556975558400154,
        -0.07320187240839005
      ],
      [
        -0.1473415344953537,
        -0.26078951358795166,
        0.052349358797073364,
        -0.00022671882470604032,
        -0.136740580201149,
        -0.03499400243163109,
        -0.05063309147953987,
        -0.10429152101278305,
        0.06523522734642029,
        0.235149085521698,
        0.0784938633441925,
        0.015317073091864586,
        -0.014504595659673214,
        0.056323401629924774,
        -0.02316424809396267,
        0.06186289340257645,
        0.0009677190682850778,
        0.2222234308719635,
        0.10866647213697433,
        0.2089226394891739,
        -0.0005545723834075034,
        0.10114302486181259,
        -0.1704055517911911,
        0.05394399166107178,
        0.06618776172399521,
        0.09412496536970139,
        0.09206420183181763,
        0.04098714888095856,
        -0.08631148189306259,
        -0.07954635471105576,
        0.1566348373889923,
        -0.02922946959733963
      ],
      [
        0.043536290526390076,
        -0.14981380105018616,
        0.0154520059004426,
        -0.06420556455850601,
        -0.10976634174585342,
        0.03210803493857384,
        0.12017907947301865,
        0.0038037302438169718,
        0.16143377125263214,
        0.156375452876091,
        0.10363420844078064,
        -0.060832709074020386,
        -0.07362913340330124,
        -0.19399087131023407,
        0.2676835060119629,
        -0.0653207004070282,
        -0.034139037132263184,
        -0.02405286394059658,
        0.14011019468307495,
        0.041655220091342926,
        0.1665571928024292,
        0.11912386864423752,
        -0.14043843746185303,
        0.09361790865659714,
        0.09244392067193985,
        0.04081500694155693,
        0.2344314008951187,
        -0.13902747631072998,
        -0.040289752185344696,
        -0.21712295711040497,
        0.058167945593595505,
        0.05140836909413338
      ],
      [
        0.01073644869029522,
        -0.1690274327993393,
        0.2880561649799347,
        -0.33724740147590637,
        -0.34639793634414673,
        0.2780628502368927,
        -0.08902940899133682,
        -0.06180938333272934,
        0.165743887424469,
        -0.21117788553237915,
        0.19795432686805725,
        0.16409951448440552,
        0.12854181230068207,
        0.002200894523411989,
        -0.15794691443443298,
        -0.049072347581386566,
        -0.15831391513347626,
        0.08844926208257675,
        -0.014929884113371372,
        -0.19947202503681183,
        0.24903921782970428,
        -0.14882229268550873,
        0.33869174122810364,
        0.03624604642391205,
        -0.1769133359193802,
        -0.25708138942718506,
        -0.0725080668926239,
        -0.05195273831486702,
        0.17698626220226288,
        -0.023612214252352715,
        -0.34693342447280884,
        -0.07172762602567673
      ],
      [
        0.01207204069942236,
        -0.09500288963317871,
        0.037438057363033295,
        0.02569219097495079,
        -0.2720371186733246,
        0.17009936273097992,
        0.009743795730173588,
        -0.050373625010252,
        0.1908867508172989,
        0.2087956666946411,
        -0.0066869789734482765,
        0.12897701561450958,
        -0.03896256536245346,
        -0.08862482011318207,
        0.09043354541063309,
        0.06655657291412354,
        -0.04662742838263512,
        0.03324028104543686,
        0.056725822389125824,
        -0.0046106851659715176,
        -0.06853888183832169,
        -0.04467156529426575,
        0.10541879385709763,
        0.06292316317558289,
        0.008518274873495102,
        0.07087254524230957,
        0.0032472058665007353,
        0.029041636735200882,
        -0.005505793262273073,
        -0.10886810719966888,
        -0.15545809268951416,
        0.03664226457476616
      ],
      [
        0.10030395537614822,
        0.0368746779859066,
        -0.00809116754680872,
        0.17888732254505157,
        -0.12350527942180634,
        -0.005247720051556826,
        -0.025882050395011902,
        -0.10769072920084,
        -0.0349418930709362,
        0.014829128049314022,
        -0.06274121254682541,
        0.19275173544883728,
        -0.03436316177248955,
        0.18352074921131134,
        0.14366963505744934,
        -0.16893893480300903,
        -0.0761917233467102,
        0.04612468183040619,
        -0.1518922746181488,
        -0.14078600704669952,
        0.0320490226149559,
        -0.2215469926595688,
        -0.17131300270557404,
        -0.19730229675769806,
        0.08823809027671814,
        -0.19155561923980713,
        0.034252747893333435,
        0.11790650337934494,
        -0.07263856381177902,
        0.16047678887844086,
        0.0546715073287487,
        -0.02024025097489357
      ],
      [
        -0.05931257829070091,
        0.0659368708729744,
        -0.13588331639766693,
        0.03059435822069645,
        -0.001587633858434856,
        0.09024568647146225,
        -0.15546643733978271,
        0.06500323116779327,
        0.03753035515546799,
        -0.16428086161613464,
        0.08468308299779892,
        -0.07919690757989883,
        -0.06163930147886276,
        -0.23673424124717712,
        0.02451331540942192,
        -0.040678199380636215,
        -0.0781555026769638,
        0.02796889841556549,
        -0.0978979766368866,
        0.08639983087778091,
        0.1738491952419281,
        0.1400269716978073,
        0.05240509286522865,
        -0.048714615404605865,
        0.0015962239122018218,
        0.20888619124889374,
        0.1788046658039093,
        -0.014300731010735035,
        0.010841676965355873,
        -0.08786677569150925,
        0.04149036109447479,
        -0.014680751599371433
      ],
      [
        -0.09925516694784164,
        -0.019359201192855835,
        0.025952640920877457,
        0.14678138494491577,
        -0.038233693689107895,
        -0.025574490427970886,
        -0.019244002178311348,
        0.19176699221134186,
        0.025927314534783363,
        0.26504024863243103,
        -0.12560953199863434,
        -0.09280145168304443,
        -0.017747044563293457,
        -0.15740323066711426,
        -0.24672524631023407,
        -0.17294561862945557,
        -0.1410520225763321,
        -0.08270528167486191,
        0.08655644208192825,
        0.26355478167533875,
        -0.0291401706635952,
        -0.16093575954437256,
        0.06446059793233871,
        -0.057772424072027206,
        0.2172241359949112,
        0.13236570358276367,
        0.193423792719841,
        -0.06486036628484726,
        -0.09963124990463257,
        0.000747301266528666,
        0.039260443300008774,
        0.09103652834892273
      ],
      [
        -0.01718408614397049,
        -0.002128662308678031,
        0.0744093731045723,
        0.008342958986759186,
        0.12639634311199188,
        -0.16722160577774048,
        0.05552342161536217,
        0.11858592927455902,
        -0.09015152603387833,
        0.02453668974339962,
        0.03741873800754547,
        -0.05779264122247696,
        0.18925566971302032,
        -0.06267543137073517,
        0.027476714923977852,
        0.0981147363781929,
        0.09128513187170029,
        0.028814805671572685,
        -0.1617445945739746,
        0.13791942596435547,
        -0.033733583986759186,
        0.05579698085784912,
        -0.19255195558071136,
        -0.15139557421207428,
        -0.23772791028022766,
        -0.0011499951360747218,
        0.02002965658903122,
        -0.08913975954055786,
        -0.10683570057153702,
        -0.1556447595357895,
        0.20580200850963593,
        -0.15050338208675385
      ],
      [
        0.04902377352118492,
        -0.131119042634964,
        -0.05979158729314804,
        0.0620940662920475,
        -0.004138161428272724,
        -0.1125432699918747,
        -0.032370131462812424,
        -0.13660775125026703,
        0.21216720342636108,
        0.16308830678462982,
        0.00790218822658062,
        0.09529170393943787,
        -0.014714977703988552,
        0.002202987438067794,
        0.21743842959403992,
        0.115598164498806,
        0.13995453715324402,
        0.050133116543293,
        0.15564677119255066,
        0.16277262568473816,
        -0.12217919528484344,
        0.09008078277111053,
        0.003159142332151532,
        -0.1824788600206375,
        -0.01530874241143465,
        0.14818644523620605,
        -0.06173479184508324,
        -0.05665190517902374,
        -0.1351873129606247,
        0.15381357073783875,
        0.1155615821480751,
        0.13793960213661194
      ],
      [
        0.05028873309493065,
        -0.17576028406620026,
        -0.09050734341144562,
        -0.022943677380681038,
        -0.008737146854400635,
        0.007922873832285404,
        0.13976353406906128,
        -0.10958230495452881,
        0.08102592080831528,
        -0.030193425714969635,
        -0.020355552434921265,
        -0.07976994663476944,
        -0.12438098341226578,
        -0.01160153467208147,
        0.24573954939842224,
        -0.06763564795255661,
        -0.05270456150174141,
        0.19528281688690186,
        0.17244161665439606,
        0.20538665354251862,
        0.03494064137339592,
        -0.07357326149940491,
        0.01798919402062893,
        0.017750756815075874,
        -0.05774715542793274,
        0.06457871943712234,
        0.24532684683799744,
        -0.2018219232559204,
        0.10912127792835236,
        -0.08130121231079102,
        -0.064081110060215,
        0.05873659998178482
      ],
      [
        -0.16543275117874146,
        -3.102501796092838e-05,
        -0.09540902078151703,
        0.12831194698810577,
        -0.04759375751018524,
        0.1582585871219635,
        -0.07633248716592789,
        0.18630123138427734,
        -0.010562943294644356,
        -0.05301913991570473,
        -0.1774750053882599,
        -0.29650312662124634,
        -0.08159449696540833,
        -0.2494915872812271,
        -0.07018548995256424,
        0.07546793669462204,
        0.08116510510444641,
        0.031809158623218536,
        0.08834365755319595,
        0.19338560104370117,
        -0.04051133245229721,
        0.04444952309131622,
        -0.0983012393116951,
        -0.14616146683692932,
        -0.06038472428917885,
        0.2691674828529358,
        -0.031275227665901184,
        0.15390479564666748,
        -0.006032704375684261,
        -0.13266383111476898,
        -0.04696169123053551,
        0.11947847902774811
      ],
      [
        0.05632201209664345,
        -0.09749548137187958,
        0.042372263967990875,
        0.07255685329437256,
        0.016673948615789413,
        -0.15612922608852386,
        -0.07596512138843536,
        0.003936035092920065,
        0.13819298148155212,
        0.17506258189678192,
        -0.15916451811790466,
        -0.007676265202462673,
        -0.19735285639762878,
        -0.1100001186132431,
        0.11666681617498398,
        -0.1301894187927246,
        -0.016315802931785583,
        -0.012939134612679482,
        0.06311723589897156,
        -0.09877721220254898,
        0.08920499682426453,
        -0.13014139235019684,
        -0.1614537537097931,
        -0.17041820287704468,
        -0.05004970356822014,
        0.21715256571769714,
        0.235440194606781,
        0.10046695917844772,
        0.023825710639357567,
        0.13119804859161377,
        0.04593200236558914,
        -0.13199380040168762
      ],
      [
        -0.07444775849580765,
        -0.054825443774461746,
        0.12189782410860062,
        0.1526413857936859,
        -0.1280975639820099,
        -0.044808279722929,
        0.039776287972927094,
        -0.04853828623890877,
        0.11952865123748779,
        0.15189243853092194,
        0.012800758704543114,
        -0.17622585594654083,
        0.07541737705469131,
        -0.19957955181598663,
        -0.024393798783421516,
        0.055560532957315445,
        0.12514276802539825,
        0.016586819663643837,
        0.013285031542181969,
        -0.08051890134811401,
        0.09589307010173798,
        0.12752458453178406,
        -0.011899871751666069,
        0.1218852624297142,
        0.19346003234386444,
        -0.1132097989320755,
        0.16669327020645142,
        0.07923301309347153,
        0.025271274149417877,
        -0.12218330055475235,
        -0.013023330830037594,
        0.16657252609729767
      ],
      [
        0.15344667434692383,
        -0.17678432166576385,
        -0.1346750408411026,
        0.1364390105009079,
        0.035702627152204514,
        0.05581638589501381,
        -0.0843183621764183,
        -0.07649868726730347,
        0.017635127529501915,
        0.22002337872982025,
        -0.08169417828321457,
        0.19097301363945007,
        0.1250629723072052,
        -0.027181141078472137,
        0.08163028955459595,
        -0.020899977535009384,
        0.018520362675189972,
        -0.10435782372951508,
        0.06566007435321808,
        0.1666514277458191,
        -0.05795034393668175,
        -0.08807568997144699,
        -0.039946381002664566,
        -0.14841261506080627,
        -0.07587997615337372,
        -0.016758589074015617,
        0.2251581996679306,
        -0.19555999338626862,
        0.07909131795167923,
        -0.1563621163368225,
        0.08465911448001862,
        0.0839058980345726
      ],
      [
        -0.1312694251537323,
        -0.051371801644563675,
        -0.1460806280374527,
        0.1424901783466339,
        -0.25917938351631165,
        0.08128257095813751,
        0.024723399430513382,
        -0.06574486941099167,
        0.17518971860408783,
        0.1433820277452469,
        0.03383319824934006,
        0.0009728955337777734,
        0.05618532747030258,
        -0.3089940845966339,
        0.10457391291856766,
        -0.017506347969174385,
        0.04998292773962021,
        0.22760146856307983,
        0.12574106454849243,
        -0.021996041759848595,
        -0.17755338549613953,
        -0.18526902794837952,
        -0.12793482840061188,
        -0.0790155753493309,
        -0.12200772017240524,
        0.14744117856025696,
        0.06949446350336075,
        -0.0653642788529396,
        -0.06721571832895279,
        0.0758732333779335,
        0.057089757174253464,
        0.041073333472013474
      ],
      [
        0.1386534869670868,
        -0.1284855306148529,
        -0.029787758365273476,
        0.14162957668304443,
        0.12648802995681763,
        -0.09753351658582687,
        0.007682894356548786,
        -0.1490183174610138,
        0.06462588161230087,
        -0.00847387034446001,
        0.16922098398208618,
        -0.024014506489038467,
        0.13189350068569183,
        -0.06727933883666992,
        0.1402285248041153,
        0.09146542102098465,
        0.005771333817392588,
        0.16561435163021088,
        -0.08194678276777267,
        -0.0882180854678154,
        0.05013274773955345,
        0.11589381098747253,
        -0.13878965377807617,
        0.07936991751194,
        -0.06563542038202286,
        -0.09742973744869232,
        0.11650636792182922,
        -0.02772691659629345,
        -0.04322122409939766,
        -0.039845552295446396,
        -0.06687195599079132,
        0.004664946347475052
      ]
    ],
    "w_hn_l0": [
      [
        -0.13082477450370789,
        -0.13029885292053223,
        0.11179003119468689,
        0.08035842329263687,
        0.09975145012140274,
        -0.005119608715176582,
        -0.16770429909229279,
        -0.0015281663509085774,
        -0.04000604897737503,
        0.06073303893208504,
        -0.008699409663677216,
        -0.16859033703804016,
        -0.1575213521718979,
        -0.11061839014291763,
        -0.08225598186254501,
        0.00407572602853179,
        -0.13454630970954895,
        0.08624798059463501,
        -0.1278759092092514,
        0.19519242644309998,
        0.05148027464747429,
        0.09238598495721817,
        -0.14692352712154388,
        0.060540080070495605,
        0.18627655506134033,
        0.08064352720975876,
        -0.048553451895713806,
        0.23142500221729279,
        -0.1649615615606308,
        0.00196147826500237,
        -0.014894788153469563,
        0.1298452913761139
      ],
      [
        0.066213458776474,
        0.031860433518886566,
        0.14090658724308014,
        -0.17496448755264282,
        0.08467187732458115,
        -0.04507194831967354,
        -0.020992066711187363,
        0.010404638946056366,
        -0.12838305532932281,
        -0.007460494060069323,
        -0.01609504595398903,
        -0.16736876964569092,
        -0.02905111387372017,
        0.2299066036939621,
        -0.026389535516500473,
        -0.036644935607910156,
        0.1143152192234993,
        0.15913593769073486,
        -0.17448562383651733,
        -0.11670973896980286,
        -0.002451155800372362,
        0.03920945152640343,
        -0.056187838315963745,
        0.10858041048049927,
        0.37892448902130127,
        0.05406609922647476,
        -0.18232852220535278,
        -0.024340413510799408,
        -0.049355216324329376,
        0.21494390070438385,
        -0.17936642467975616,
        0.31786367297172546
      ],
      [
        -0.06912046670913696,
        -0.06343993544578552,
        0.19596393406391144,
        -0.04423828795552254,
        -0.1289627104997635,
        0.2358967661857605,
        0.07850363105535507,
        0.06934250891208649,
        -0.016407061368227005,
        -0.15437884628772736,
        -0.11504458636045456,
        0.2345270961523056,
        0.3010079264640808,
        0.24890169501304626,
        -0.11794106662273407,
        -0.09050870686769485,
        -0.1472555547952652,
        0.1811538189649582,
        0.05216645821928978,
        -0.11017445474863052,
        -0.013073758222162724,
        -0.16526922583580017,
        0.1874273717403412,
        -0.17166565358638763,
        -0.24270392954349518,
        -0.24066725373268127,
        -0.052571021020412445,
        -0.12121359258890152,
        -0.053912773728370667,
        -0.2072346955537796,
        0.1728588193655014,
        0.12895475327968597
      ],
      [
        0.19248056411743164,
        -0.019353490322828293,
        -0.22542598843574524,
        -0.07490114122629166,
        -0.09849894791841507,
        -0.2829653322696686,
        -0.22899121046066284,
        0.04276696592569351,
        -0.0524558387696743,
        0.11228471994400024,
        -0.10199588537216187,
        -0.017996955662965775,
        -0.22801455855369568,
        -0.2721238434314728,
        -0.1115017905831337,
        0.035199884325265884,
        0.19782480597496033,
        -0.1380608230829239,
        0.19737742841243744,
        0.17312781512737274,
        0.04120013862848282,
        0.0387120246887207,
        -0.14295615255832672,
        0.22445236146450043,
        -0.08281026780605316,
        0.02120385877788067,
        0.23666055500507355,
        -0.13932766020298004,
        0.12154441326856613,
        0.0648219883441925,
        0.08023788034915924,
        -0.06527499109506607
      ],
      [
        -0.03177548944950104,
        0.1848829686641693,
        -0.09031020849943161,
        0.06215284764766693,
        0.14403590559959412,
        -0.15702171623706818,
        -0.1457161158323288,
        0.14258858561515808,
        -0.1765413135290146,
        0.21365854144096375,
        -0.23867683112621307,
        -0.06661531329154968,
        -0.20233768224716187,
        -0.14659163355827332,
        0.0196685828268528,
        0.19532282650470734,
        0.13329148292541504,
        -0.2872687876224518,
        -0.09327541291713715,
        0.3555397689342499,
        0.1184835284948349,
        0.10798747837543488,
        -0.0961698442697525,
        0.22962866723537445,
        0.1344648003578186,
        0.3300231993198395,
        0.0022655408829450607,
        -0.027509210631251335,
        0.06210247054696083,
        0.013093224726617336,
        0.0031774055678397417,
        -0.06864166259765625
      ],
      [
        0.09786108881235123,
        0.09565619379281998,
        0.04305483400821686,
        -0.0027082820888608694,
        0.22196991741657257,
        0.035954613238573074,
        0.28695735335350037,
        -0.17510616779327393,
        -0.053555794060230255,
        -0.02396421879529953,
        -0.13513675332069397,
        0.22578981518745422,
        0.06904890388250351,
        -0.01307864673435688,
        -0.025951525196433067,
        -0.16152141988277435,
        -0.06713234633207321,
        -0.037051595747470856,
        -0.057239729911088943,
        -0.10767068713903427,
        -0.05062117055058479,
        0.06678381562232971,
        -0.20996907353401184,
        -0.17048762738704681,
        -0.10659486800432205,
        -0.3409292697906494,
        0.10247882455587387,
        -0.11937898397445679,
        -0.2359725832939148,
        -0.2742561101913452,
        0.2908138036727905,
        -0.17997872829437256
      ],
      [
        -0.04857388883829117,
        0.10853800922632217,
        -0.25091540813446045,
        0.05831858888268471,
        0.12314274907112122,
        -0.08045657724142075,
        -0.10229485481977463,
        -0.15613813698291779,
        0.1599861979484558,
        -0.02730352059006691,
        -0.08119344711303711,
        0.17518003284931183,
        0.2081776112318039,
        -0.02018769644200802,
        0.22408169507980347,
        -0.10691926628351212,
        0.16769854724407196,
        -0.07658751308917999,
        -0.09466768801212311,
        -0.10843466222286224,
        -0.029779601842164993,
        0.07412786781787872,
        -0.06916844099760056,
        0.06314331293106079,
        -0.19270655512809753,
        -0.12442594021558762,
        0.07049848884344101,
        0.00938424188643694,
        -0.057358574122190475,
        -0.1446615606546402,
        0.3023223280906677,
        -0.11397243291139603
      ],
      [
        -0.0033363064285367727,
        -0.15419737994670868,
        0.22890296578407288,
        -0.2114221453666687,
        -0.27540943026542664,
        0.08906108886003494,
        -0.12199816107749939,
        0.016010796651244164,
        -0.09692320972681046,
        0.025898387655615807,
        0.1493021845817566,
        -0.07480022311210632,
        -0.09794314950704575,
        0.1899329274892807,
        -0.20308998227119446,
        -0.13069972395896912,
        0.01839739829301834,
        0.1285555064678192,
        -0.009836562909185886,
        0.010076969861984253,
        0.1810275912284851,
        0.17701730132102966,
        0.13484445214271545,
        -0.08374687284231186,
        0.15498168766498566,
        -0.17637860774993896,
        0.041988544166088104,
        0.01818612404167652,
        -0.1069522574543953,
        -0.05093076825141907,
        -0.05219368264079094,
        -0.10902713984251022
      ],
      [
        0.08284799009561539,
        -0.1003081277012825,
        -0.2593836784362793,
        0.08113439381122589,
        0.1887294352054596,
        -0.0028301342390477657,
        0.19219395518302917,
        -0.16025613248348236,
        0.04874014854431152,
        -0.012988988310098648,
        0.10274209827184677,
        0.22508704662322998,
        0.10101643949747086,
        0.03328659385442734,
        0.10516726970672607,
        0.026618562638759613,
        0.08996987342834473,
        -0.09080209583044052,
        -0.12014669924974442,
        0.019693979993462563,
        0.2079857587814331,
        0.013966654427349567,
        -0.12531381845474243,
        0.01995963603258133,
        -0.20341931283473969,
        -0.0401306189596653,
        -0.029184741899371147,
        0.058824390172958374,
        0.05393734574317932,
        -0.1112292930483818,
        0.27059149742126465,
        -0.06019408628344536
      ],
      [
        0.11278827488422394,
        -0.06878761947154999,
        -0.0023142308928072453,
        -0.036567091941833496,
        0.04348902776837349,
        -0.0302769485861063,
        -0.017185037955641747,
        -0.10834558308124542,
        -0.03397343307733536,
        0.08829274028539658,
        0.022013194859027863,
        -0.17540352046489716,
        -0.06927495449781418,
        0.02305830456316471,
        -0.2033853679895401,
        0.10416628420352936,
        -0.15881089866161346,
        0.2075461745262146,
        0.25878509879112244,
        0.12938496470451355,
        -0.1041586697101593,
        0.21943825483322144,
        -0.0934092253446579,
        -0.08158398419618607,
        0.08119160681962967,
        0.051088642328977585,
        -0.15487538278102875,
        0.052401039749383926,
        0.18311242759227753,
        0.04323914647102356,
        -0.356844037771225,
        0.05558241903781891
      ],
      [
        0.015564300119876862,
        -0.12529829144477844,
        -0.1627431958913803,
        -0.031339142471551895,
        0.19198870658874512,
        0.10551153123378754,
        -0.058164358139038086,
        0.07824049144983292,
        -0.02196255698800087,
        0.02627435512840748,
        0.09566661715507507,
        -0.019338790327310562,
        0.27807509899139404,
        0.06174145266413689,
        0.023287378251552582,
        -0.023460188880562782,
        0.17793643474578857,
        -0.004969597328454256,
        -0.03004852682352066,
        0.13928470015525818,
        -0.0797494649887085,
        -0.08285050839185715,
        0.11858273297548294,
        -0.13410235941410065,
        -0.1385382115840912,
        -0.20134848356246948,
        0.14284497499465942,
        -0.01317035686224699,
        -0.005539739038795233,
        -0.027589669451117516,
        0.11824366450309753,
        -0.15015539526939392
      ],
      [
        -0.009175680577754974,
        -0.08363509923219681,
        -0.3152531385421753,
        0.051177263259887695,
        0.2354966402053833,
        0.03682985529303551,
        -0.10869856923818588,
        -0.15775494277477264,
        -0.14033623039722443,
        0.05272082984447479,
        -0.13688313961029053,
        0.06120433285832405,
        0.09068217128515244,
        -0.15940630435943604,
        0.10169445723295212,
        -0.11326885968446732,
        0.19134032726287842,
        -0.26847144961357117,
        -0.10843342542648315,
        -0.04432227462530136,
        0.05151534453034401,
        -0.18880289793014526,
        -0.15864823758602142,
        0.0005034094792790711,
        -0.24142900109291077,
        -0.10289648920297623,
        0.21878938376903534,
        0.11755181103944778,
        -0.15883523225784302,
        0.1231851652264595,
        0.33612969517707825,
        0.002318231388926506
      ],
      [
        0.17958885431289673,
        0.14710144698619843,
        -0.41529449820518494,
        -0.004147681407630444,
        0.2656811773777008,
        -0.08993206173181534,
        -0.03790678828954697,
        0.004322330001741648,
        0.1265234351158142,
        -0.041087597608566284,
        -0.06592042744159698,
        0.1394391655921936,
        0.09390170872211456,
        -0.07963239401578903,
        0.25026413798332214,
        0.14169976115226746,
        0.17615753412246704,
        -0.36868172883987427,
        0.10224046558141708,
        -0.004240136127918959,
        0.13467924296855927,
        -0.06602337956428528,
        0.10224129259586334,
        0.07947696000337601,
        0.030161982402205467,
        0.03404445946216583,
        0.02472248114645481,
        0.030105551704764366,
        -0.09390773624181747,
        0.07987914234399796,
        0.3969573676586151,
        -0.16998878121376038
      ],
      [
        0.1877344250679016,
        0.018543124198913574,
        -0.2260179966688156,
        0.03945246711373329,
        0.10968118906021118,
        0.21884681284427643,
        0.032900452613830566,
        -0.1528824269771576,
        0.01745956391096115,
        -0.18963608145713806,
        0.15849818289279938,
        0.2878667414188385,
        0.1928728222846985,
        0.16001233458518982,
        0.13424740731716156,
        0.09763376414775848,
        0.2594994008541107,
        -0.15068703889846802,
        -0.20672526955604553,
        0.07545475661754608,
        0.14566481113433838,
        0.02248682826757431,
        -0.16986753046512604,
        0.044139619916677475,
        -0.27443403005599976,
        -0.0765891894698143,
        0.17519046366214752,
        -0.2453143447637558,
        0.022000664845108986,
        -0.21915718913078308,
        0.17049691081047058,
        -0.14449955523014069
      ],
      [
        -0.020055916160345078,
        0.020308490842580795,
        -0.15365934371948242,
        0.02958573028445244,
        0.1746215969324112,
        -0.20058764517307281,
        0.016087731346488,
        0.06053243204951286,
        -0.20775356888771057,
        0.21377098560333252,
        0.0691530853509903,
        -0.01892392709851265,
        -0.07481732964515686,
        -0.3443405330181122,
        -0.03756456449627876,
        0.03871893882751465,
        0.019216127693653107,
        -0.25834617018699646,
        0.15488262474536896,
        0.23397381603717804,
        0.11973483860492706,
        -0.09006255120038986,
        0.041375961154699326,
        -0.06606094539165497,
        -0.023728808388113976,
        0.18271763622760773,
        0.2068759649991989,
        0.18655796349048615,
        -0.12364475429058075,
        0.16539974510669708,
        0.09807703644037247,
        -0.04836022108793259
      ],
      [
        0.0789228081703186,
        -0.09988466650247574,
        0.002631228184327483,
        -0.14740420877933502,
        -0.13229630887508392,
        -0.10448475182056427,
        -0.15550781786441803,
        -0.009811443276703358,
        -0.08525752276182175,
        0.2017429769039154,
        0.07317770272493362,
        0.031002093106508255,
        -0.12390916049480438,
        -0.04551612213253975,
        -0.013225252740085125,
        0.10774119943380356,
        -0.1084369644522667,
        0.1287103295326233,
        -0.09135562926530838,
        -0.008888046257197857,
        -0.14055588841438293,
        0.17506927251815796,
        0.11345615983009338,
        0.10432709008455276,
        0.26149797439575195,
        0.031424906104803085,
        0.07094801217317581,
        0.04851367697119713,
        0.0036935009993612766,
        0.25909194350242615,
        -0.07749783992767334,
        -0.0014957848470658064
      ],
      [
        0.03575237840414047,
        -0.07584332674741745,
        -0.09009775519371033,
        -0.12573108077049255,
        0.16476155817508698,
        -0.0018971398239955306,
        -0.060285601764917374,
        0.20432285964488983,
        -0.19564761221408844,
        0.05909471586346626,
        -0.02543514035642147,
        -0.018753819167613983,
        -0.006454070098698139,
        -0.39380916953086853,
        -0.13498081266880035,
        0.15005455911159515,
        0.11779221147298813,
        -0.11250967532396317,
        -0.07440844178199768,
        0.28085798025131226,
        0.057850390672683716,
        0.04289960861206055,
        -0.03291010856628418,
        -0.09545374661684036,
        0.05606982111930847,
        0.28163161873817444,
        0.034148938953876495,
        0.12553836405277252,
        0.015080057084560394,
        0.19284623861312866,
        0.16061940789222717,
        0.057337209582328796
      ],
      [
        -0.1641228348016739,
        0.019894402474164963,
        0.07981950789690018,
        0.04145899415016174,
        0.12242747098207474,
        0.16830743849277496,
        0.06596016883850098,
        -0.15629687905311584,
        0.10878939181566238,
        0.09718307852745056,
        0.16096951067447662,
        0.08030582964420319,
        0.21717849373817444,
        0.22507645189762115,
        0.1855608969926834,
        -0.03226692974567413,
        0.07446521520614624,
        0.17059701681137085,
        -0.08676654100418091,
        -0.05906247720122337,
        0.114608034491539,
        -0.1625593900680542,
        0.12760646641254425,
        -0.1804751455783844,
        -0.23519949615001678,
        -0.268020898103714,
        0.17025525867938995,
        -0.08748667687177658,
        -0.16628284752368927,
        -0.19122424721717834,
        0.05875755473971367,
        -0.05163826420903206
      ],
      [
        -0.0017218650318682194,
        -0.0933576300740242,
        0.3205397129058838,
        0.1046142429113388,
        0.027028696611523628,
        0.20416495203971863,
        -0.12498701363801956,
        0.09998618066310883,
        -0.015309766866266727,
        0.1735534369945526,
        0.22202825546264648,
        -0.024922091513872147,
        -0.0778408944606781,
        0.021437963470816612,
        -0.10091497749090195,
        0.09346160292625427,
        -0.07293280214071274,
        0.3020356595516205,
        -0.11990948766469955,
        -0.0888318344950676,
        0.15596497058868408,
        0.025626318529248238,
        -0.10470369458198547,
        -0.056133076548576355,
        -0.01959587261080742,
        -0.25242504477500916,
        0.027454957365989685,
        -0.12640799582004547,
        0.13164843618869781,
        0.02749939076602459,
        -0.05504947528243065,
        0.19877147674560547
      ],
      [
        -0.008367817848920822,
        0.12271209806203842,
        0.11944681406021118,
        -0.164272278547287,
        -0.15814141929149628,
        0.06955700367689133,
        0.10949842631816864,
        0.1775130033493042,
        0.07780656963586807,
        0.10752645134925842,
        -0.059152837842702866,
        -0.008496084250509739,
        -0.12357093393802643,
        -0.13710364699363708,
        -0.29925575852394104,
        -0.16547571122646332,
        -0.16772624850273132,
        -0.056577447801828384,
        0.09707649052143097,
        0.14876091480255127,
        -0.04928348585963249,
        0.0284018125385046,
        -0.13386453688144684,
        0.10806369036436081,
        0.2596111595630646,
        0.24983638525009155,
        -0.09404153376817703,
        -0.10058671236038208,
        -0.12457413971424103,
        -0.003462181193754077,
        -0.2378847599029541,
        0.15809813141822815
      ],
      [
        0.07994065433740616,
        0.08286671340465546,
        -0.16527797281742096,
        0.03129926696419716,
        -0.12752823531627655,
        0.10452911257743835,
        -0.05196215584874153,
        0.1248529925942421,
        -0.17439550161361694,
        0.031668275594711304,
        0.07273532450199127,
        0.14511394500732422,
        -0.13042651116847992,
        -0.07555905729532242,
        -0.03228479623794556,
        0.09410382807254791,
        0.18073713779449463,
        -0.1249624639749527,
        -0.1393580585718155,
        0.14681744575500488,
        0.13780052959918976,
        0.00587150314822793,
        0.057655178010463715,
        0.12751735746860504,
        -0.11810100078582764,
        0.14061641693115234,
        0.07354359328746796,
        -0.13611780107021332,
        0.025251857936382294,
        -0.10640513151884079,
        -0.033126283437013626,
        0.1552169919013977
      ],
      [
        -0.08006256818771362,
        0.08285871893167496,
        0.05410272255539894,
        -0.12700255215168,
        0.044595710933208466,
        0.21398630738258362,
        0.05852420628070831,
        -0.054267846047878265,
        -0.03526417538523674,
        0.09462878108024597,
        -0.007706462871283293,
        0.14374402165412903,
        -0.008396926335990429,
        0.2011190801858902,
        -0.14149883389472961,
        0.007042539771646261,
        -0.10493849217891693,
        0.24110473692417145,
        0.022946197539567947,
        -0.1679520159959793,
        0.021114947274327278,
        -0.10359936207532883,
        0.08431451767683029,
        -0.19566163420677185,
        -0.01521235704421997,
        -0.13976708054542542,
        0.08032950013875961,
        0.07245449721813202,
        -0.0653926357626915,
        0.10391335934400558,
        -0.14000555872917175,
        0.12332762032747269
      ],
      [
        0.09897114336490631,
        -0.22544355690479279,
        0.128279909491539,
        0.10040812939405441,
        0.07669482380151749,
        -0.09226509183645248,
        0.1880568563938141,
        -0.10760676115751266,
        -0.004511707462370396,
        -0.1371767371892929,
        0.04928014054894447,
        0.006205333396792412,
        0.112777940928936,
        0.13747352361679077,
        -0.09560701251029968,
        -0.0989057794213295,
        0.13026949763298035,
        0.22308430075645447,
        -0.14330236613750458,
        -0.2621740400791168,
        0.11575592309236526,
        0.07317148894071579,
        0.09855575859546661,
        0.12914776802062988,
        -0.05245533958077431,
        -0.2269262969493866,
        0.07731207460165024,
        0.12398853898048401,
        -0.18822413682937622,
        -0.11085986346006393,
        0.23508241772651672,
        0.027421677485108376
      ],
      [
        -0.06141964718699455,
        0.07684201747179031,
        -0.043726760894060135,
        -0.16380049288272858,
        -0.03236408159136772,
        -0.10717827081680298,
        0.0030542558524757624,
        0.22484442591667175,
        0.07890612632036209,
        0.10125354677438736,
        -0.0879996120929718,
        0.039091240614652634,
        -0.3162137269973755,
        -0.1177920401096344,
        -0.08852175623178482,
        -0.035135820508003235,
        -0.09670519083738327,
        0.1331384927034378,
        -0.17558997869491577,
        0.18983884155750275,
        -0.06957913190126419,
        0.08829808235168457,
        -0.05535239726305008,
        -0.14881299436092377,
        0.24221396446228027,
        0.06326008588075638,
        0.03634857386350632,
        0.008684182539582253,
        0.1329900622367859,
        0.1823430061340332,
        -0.3264874517917633,
        -0.02790531888604164
      ],
      [
        -0.0006252965540625155,
        0.1493225395679474,
        0.2009044587612152,
        -0.20188991725444794,
        -0.24028609693050385,
        0.047780949622392654,
        0.08038588613271713,
        0.03592274710536003,
        -0.00955216120928526,
        -0.16463933885097504,
        -0.05064503476023674,
        0.023823361843824387,
        -0.0650898814201355,
        0.12958325445652008,
        -0.19879236817359924,
        -0.12369804829359055,
        -0.18939606845378876,
        0.09001217782497406,
        -0.137527734041214,
        0.05112795904278755,
        -0.0458395890891552,
        -0.12020345777273178,
        0.17735283076763153,
        -0.026890112087130547,
        0.0748671442270279,
        -0.2028317153453827,
        -0.023308040574193,
        -0.18138520419597626,
        0.11316917091608047,
        0.13298721611499786,
        -0.1552800089120865,
        0.1779552400112152
      ],
      [
        -0.025811899453401566,
        -0.09179374575614929,
        0.3616652488708496,
        -0.1845913976430893,
        -0.2531070411205292,
        0.12485356628894806,
        -0.2146918922662735,
        0.13075485825538635,
        -0.038505155593156815,
        0.11703844368457794,
        -0.007853701710700989,
        -0.2244075983762741,
        -0.315193235874176,
        -0.12976959347724915,
        -0.25736933946609497,
        -0.0682498887181282,
        -0.26318421959877014,
        0.22641108930110931,
        0.16185995936393738,
        0.006526256445795298,
        -0.13497436046600342,
        0.3195335268974304,
        -0.01978224888443947,
        0.0002981075085699558,
        0.2607347369194031,
        0.3522564768791199,
        -0.0678509920835495,
        -0.024284305050969124,
        0.053025901317596436,
        0.04724310338497162,
        -0.35234254598617554,
        0.11983953416347504
      ],
      [
        -0.07895400375127792,
        0.05614360794425011,
        -0.07600473612546921,
        0.1640981286764145,
        -0.14926470816135406,
        -0.1661996841430664,
        0.04613101854920387,
        0.0802578255534172,
        0.023331984877586365,
        0.07875785231590271,
        -0.17037461698055267,
        -0.1267423778772354,
        -0.15521642565727234,
        -0.16003036499023438,
        0.03316188231110573,
        -0.06848853826522827,
        0.14434103667736053,
        -0.10847379267215729,
        0.1626933515071869,
        0.2398962378501892,
        0.014940768480300903,
        0.18326085805892944,
        0.0203804112970829,
        0.034290753304958344,
        0.1325545310974121,
        0.05685959383845329,
        0.11297837644815445,
        0.12412694096565247,
        0.061631955206394196,
        0.1054736077785492,
        0.035875700414180756,
        -0.09649696946144104
      ],
      [
        -0.04295775666832924,
        0.022934690117836,
        0.004430839326232672,
        0.0035745289642363787,
        -0.1737295687198639,
        0.08225896209478378,
        -0.006492079235613346,
        0.17079147696495056,
        -0.2255236804485321,
        -0.04144220054149628,
        -0.0710483193397522,
        -0.13491566479206085,
        -0.2568722367286682,
        -0.1190713420510292,
        -0.16204065084457397,
        -0.08389037847518921,
        -0.11133231967687607,
        0.21560879051685333,
        -0.0458201989531517,
        0.14418764412403107,
        -0.044378019869327545,
        -0.017963888123631477,
        -0.02941383607685566,
        -0.1123170256614685,
        0.06980928778648376,
        0.03151673451066017,
        -0.316782146692276,
        0.17072422802448273,
        0.03807714954018593,
        0.1711014360189438,
        -0.2746679186820984,
        0.2075432687997818
      ],
      [
        -0.20113112032413483,
        -0.08141237497329712,
        0.1793535053730011,
        0.09720801562070847,
        -0.06448972225189209,
        -0.01814863458275795,
        0.24153834581375122,
        0.13587631285190582,
        0.20137201249599457,
        0.14849215745925903,
        -0.10136647522449493,
        -0.011754035949707031,
        0.05774924159049988,
        0.06643202155828476,
        -0.0642925500869751,
        -0.19175602495670319,
        -0.06510230898857117,
        0.21529455482959747,
        -0.009972830303013325,
        -0.1885414570569992,
        -0.1346088945865631,
        0.10979559272527695,
        -0.15096531808376312,
        -0.07359232753515244,
        -0.0803220272064209,
        -0.14962466061115265,
        -0.08840878307819366,
        -0.061696138232946396,
        -0.19265955686569214,
        -0.047089833766222,
        -0.0432283915579319,
        -0.02048257179558277
      ],
      [
        -0.09423498809337616,
        0.10359299927949905,
        0.25405353307724,
        -0.13834001123905182,
        -0.09791223704814911,
        0.09059619158506393,
        -0.014064681716263294,
        0.07160428166389465,
        0.1432620733976364,
        0.06837502121925354,
        0.1779433786869049,
        -0.11486222594976425,
        -0.07342749089002609,
        0.012834745459258556,
        -0.08879373967647552,
        -0.08303961157798767,
        -0.08831100165843964,
        0.21210026741027832,
        0.019941985607147217,
        -0.04160667955875397,
        0.08881929516792297,
        -0.0013935667229816318,
        0.10949449241161346,
        0.05621900036931038,
        0.06976848095655441,
        0.05766609311103821,
        -0.2114371955394745,
        0.12524884939193726,
        0.1487155705690384,
        0.11511296033859253,
        -0.2757585048675537,
        0.22844742238521576
      ],
      [
        0.21029184758663177,
        0.12231810390949249,
        -0.3006041944026947,
        0.1690385341644287,
        0.24625138938426971,
        -0.19546756148338318,
        -0.23126399517059326,
        0.023688500747084618,
        -0.18562425673007965,
        0.23638112843036652,
        -0.2929587662220001,
        -0.08630719035863876,
        -0.23832206428050995,
        -0.3384634554386139,
        0.24945800006389618,
        -0.06841163337230682,
        -0.03324507549405098,
        -0.2741015553474426,
        -0.09153428673744202,
        0.04310334473848343,
        -0.17274126410484314,
        -0.21242152154445648,
        -0.21337270736694336,
        -0.007516606245189905,
        0.07472018897533417,
        0.27624791860580444,
        0.3366551995277405,
        -0.059353359043598175,
        -0.17065942287445068,
        0.20893381536006927,
        0.17141106724739075,
        -0.004187016282230616
      ],
      [
        -0.1000857800245285,
        -0.19454200565814972,
        -0.025477059185504913,
        0.12177077680826187,
        -0.05656857416033745,
        0.1797408163547516,
        0.029913898557424545,
        0.11194605380296707,
        0.17896614968776703,
        -0.1913357824087143,
        0.19054441154003143,
        0.08559875190258026,
        -0.07603038847446442,
        -0.03368363156914711,
        -0.06863155215978622,
        -0.09587176889181137,
        0.07052069157361984,
        0.18059289455413818,
        0.12275373935699463,
        -0.22573599219322205,
        -0.058216072618961334,
        0.03757782652974129,
        0.18286697566509247,
        -0.017970647662878036,
        -0.13576139509677887,
        -0.14041882753372192,
        -0.1536259800195694,
        -0.17299439013004303,
        0.06638471782207489,
        -0.06026707589626312,
        -0.13653355836868286,
        0.032322563230991364
      ]
    ],
    "b_hr_l0": [
      0.12214844673871994,
      0.04002166539430618,
