{
  "meta": {
    "input_size": 1,
    "hidden_size": 64,
    "num_layers": 1,
    "rnn_type": "gru",
    "output_size": 1,
    "dtype": "float32",
    "input_columns": [
      "u0"
    ],
    "output_columns": [
      "y0"
    ],
    "norm": {
      "mean": [
        [
          [
            0.0061549232341349125
          ]
        ]
      ],
      "std": [
        [
          [
            0.022241493687033653
          ]
        ]
      ],
      "axes": [
        0,
        1
      ]
    }
  },
  "weights": {
    "w_ir_l0": [
      [
        0.06588798016309738
      ],
      [
        0.1005416139960289
      ],
      [
        -0.04051493480801582
      ],
      [
        -0.045583683997392654
      ],
      [
        0.08697236329317093
      ],
      [
        -0.07309070229530334
      ],
      [
        -0.12187841534614563
      ],
      [
        0.10115699470043182
      ],
      [
        0.08332809805870056
      ],
      [
        0.037010595202445984
      ],
      [
        0.05341322720050812
      ],
      [
        -0.0010909143602475524
      ],
      [
        0.0708257332444191
      ],
      [
        0.07054013758897781
      ],
      [
        0.028383316472172737
      ],
      [
        -0.19181638956069946
      ],
      [
        -0.027904510498046875
      ],
      [
        -0.12007628381252289
      ],
      [
        -0.15420572459697723
      ],
      [
        -0.08300210535526276
      ],
      [
        0.1326526254415512
      ],
      [
        0.06586603075265884
      ],
      [
        0.1830194592475891
      ],
      [
        0.1887088268995285
      ],
      [
        -0.004155256785452366
      ],
      [
        0.16562765836715698
      ],
      [
        0.03663625940680504
      ],
      [
        -0.1794925332069397
      ],
      [
        0.02434798888862133
      ],
      [
        -0.07201169431209564
      ],
      [
        -0.05439160391688347
      ],
      [
        0.06969591975212097
      ],
      [
        0.012815329246222973
      ],
      [
        0.04197303578257561
      ],
      [
        0.0957445427775383
      ],
      [
        -0.03225172683596611
      ],
      [
        -0.05762166157364845
      ],
      [
        0.08121316134929657
      ],
      [
        0.07751300930976868
      ],
      [
        0.08018641173839569
      ],
      [
        0.028327491134405136
      ],
      [
        -0.016679532825946808
      ],
      [
        0.11128266155719757
      ],
      [
        0.05230971798300743
      ],
      [
        -0.0710967406630516
      ],
      [
        -0.038253672420978546
      ],
      [
        -0.07167387753725052
      ],
      [
        -0.0550445131957531
      ],
      [
        -0.1266980618238449
      ],
      [
        0.02478792332112789
      ],
      [
        -0.02767857350409031
      ],
      [
        -0.09284552186727524
      ],
      [
        0.05596877634525299
      ],
      [
        -0.03726349398493767
      ],
      [
        0.07488957792520523
      ],
      [
        -0.03928876295685768
      ],
      [
        0.15762042999267578
      ],
      [
        0.1772664189338684
      ],
      [
        -0.09348340332508087
      ],
      [
        0.0428457148373127
      ],
      [
        0.0749373733997345
      ],
      [
        -0.03839075565338135
      ],
      [
        -0.17852683365345
      ],
      [
        0.11220989376306534
      ]
    ],
    "w_iz_l0": [
      [
        -0.05618546903133392
      ],
      [
        -0.12110324949026108
      ],
      [
        0.04309897497296333
      ],
      [
        0.06535771489143372
      ],
      [
        -0.0016907460521906614
      ],
      [
        0.13232602179050446
      ],
      [
        -0.08234105259180069
      ],
      [
        0.09891311079263687
      ],
      [
        -0.09858305007219315
      ],
      [
        -0.1651390939950943
      ],
      [
        -0.11426420509815216
      ],
      [
        0.0546659417450428
      ],
      [
        0.08550868928432465
      ],
      [
        -0.16788426041603088
      ],
      [
        0.038743022829294205
      ],
      [
        0.12966445088386536
      ],
      [
        -0.0005107235629111528
      ],
      [
        0.0967392772436142
      ],
      [
        0.01548616960644722
      ],
      [
        0.10443514585494995
      ],
      [
        0.03205060213804245
      ],
      [
        -0.1128021627664566
      ],
      [
        -0.2059721052646637
      ],
      [
        -0.14815841615200043
      ],
      [
        -0.04009251296520233
      ],
      [
        -0.03114894963800907
      ],
      [
        -0.008312327787280083
      ],
      [
        0.2523171901702881
      ],
      [
        0.038770537823438644
      ],
      [
        0.13286615908145905
      ],
      [
        0.11103729158639908
      ],
      [
        -0.21238695085048676
      ],
      [
        0.06461405009031296
      ],
      [
        0.04487934708595276
      ],
      [
        0.026122579351067543
      ],
      [
        0.1077326089143753
      ],
      [
        0.021663833409547806
      ],
      [
        -0.05640093982219696
      ],
      [
        -0.014619377441704273
      ],
      [
        0.018334148451685905
      ],
      [
        -0.055569324642419815
      ],
      [
        0.07959958910942078
      ],
      [
        -0.04301845654845238
      ],
      [
        0.13432259857654572
      ],
      [
        0.1014731377363205
      ],
      [
        -0.0004689393099397421
      ],
      [
        -0.10608018934726715
      ],
      [
        -0.03072294034063816
      ],
      [
        0.22432319819927216
      ],
      [
        0.013445871882140636
      ],
      [
        0.07920809835195541
      ],
      [
        -0.02509194426238537
      ],
      [
        -0.0436747670173645
      ],
      [
        0.04051309451460838
      ],
      [
        0.02831561677157879
      ],
      [
        -0.04425934702157974
      ],
      [
        -0.11434239894151688
      ],
      [
        -0.09079808741807938
      ],
      [
        0.13443922996520996
      ],
      [
        -0.09802700579166412
      ],
      [
        -0.02713693678379059
      ],
      [
        0.012880096212029457
      ],
      [
        -0.003293899353593588
      ],
      [
        0.08422587811946869
      ]
    ],
    "w_in_l0": [
      [
        -0.025637071579694748
      ],
      [
        -0.008191367611289024
      ],
      [
        -0.0357779935002327
      ],
      [
        0.02544611319899559
      ],
      [
        -0.030304942280054092
      ],
      [
        0.0017735244473442435
      ],
      [
        -0.057383544743061066
      ],
      [
        -0.09612777084112167
      ],
      [
        -0.04609474912285805
      ],
      [
        0.010190289467573166
      ],
      [
        0.0084700807929039
      ],
      [
        -0.003426793497055769
      ],
      [
        0.018035247921943665
      ],
      [
        0.05572987347841263
      ],
      [
        -0.010410930030047894
      ],
      [
        0.03671085089445114
      ],
      [
        -0.008954966440796852
      ],
      [
        -0.0603133924305439
      ],
      [
        -0.07809045165777206
      ],
      [
        0.03418915718793869
      ],
      [
        -0.04817461222410202
      ],
      [
        0.009268496185541153
      ],
      [
        0.0710381418466568
      ],
      [
        -0.01586402952671051
      ],
      [
        0.021266546100378036
      ],
      [
        -0.03732332959771156
      ],
      [
        -0.061521075665950775
      ],
      [
        0.0003486874047666788
      ],
      [
        0.027854740619659424
      ],
      [
        -0.03132786229252815
      ],
      [
        0.0009509333176538348
      ],
      [
        -0.008032316341996193
      ],
      [
        0.036598432809114456
      ],
      [
        0.050937049090862274
      ],
      [
        -0.02008196897804737
      ],
      [
        0.05548999086022377
      ],
      [
        0.04209807142615318
      ],
      [
        -0.03736947849392891
      ],
      [
        -0.08302120864391327
      ],
      [
        0.02614975906908512
      ],
      [
        0.05185360088944435
      ],
      [
        -0.013959093019366264
      ],
      [
        0.016778264194726944
      ],
      [
        -0.057084646075963974
      ],
      [
        0.052501436322927475
      ],
      [
        -0.07731449604034424
      ],
      [
        -0.051093850284814835
      ],
      [
        -0.061787500977516174
      ],
      [
        -0.04074101150035858
      ],
      [
        -0.0813862681388855
      ],
      [
        0.05668264627456665
      ],
      [
        0.02622629888355732
      ],
      [
        -0.06235583871603012
      ],
      [
        -0.028544744476675987
      ],
      [
        0.021858060732483864
      ],
      [
        -0.05287596955895424
      ],
      [
        -0.07979197800159454
      ],
      [
        -0.010334680788218975
      ],
      [
        0.016119934618473053
      ],
      [
        -0.019687116146087646
      ],
      [
        0.0051891072653234005
      ],
      [
        -0.007869122549891472
      ],
      [
        -0.04906767979264259
      ],
      [
        0.062112919986248016
      ]
    ],
    "b_ir_l0": [
      0.039340630173683167,
      -0.06299912184476852,
      0.06348029524087906,
      0.17163895070552826,
      0.10974331945180893,
      0.16074404120445251,
      0.01948779635131359,
      0.010891475714743137,
      -0.030781030654907227,
      -0.06046558916568756,
      -0.02238209918141365,
      0.21557675302028656,
      -0.03508404642343521,
      0.016560114920139313,
      0.02583853155374527,
      0.09964233636856079,
      0.07881879806518555,
      -0.010042347013950348,
      0.007206940557807684,
      0.02662023901939392,
      -0.007787019945681095,
      -0.06796398013830185,
      -0.004879421088844538,
      0.1545906811952591,
      -0.14457140862941742,
      0.0938282161951065,
      0.028289081528782845,
      0.10123870521783829,
      0.08475150167942047,
      -0.06096826121211052,
      -0.06660988926887512,
      0.017122143879532814,
      0.028384936973452568,
      0.05116645246744156,
      0.05104673281311989,
      -0.0020736611913889647,
      -0.004494557157158852,
      -0.07951541244983673,
      -0.02195221185684204,
      -0.008715804666280746,
      -0.007047499530017376,
      -0.04381474480032921,
      -0.14410896599292755,
      -0.14117614924907684,
      0.06164422631263733,
      0.23341383039951324,
      -0.04232504218816757,
      -0.056038450449705124,
      0.0010132987517863512,
      0.05338110774755478,
      -0.07459057867527008,
      0.03012571856379509,
      0.020453089848160744,
      0.00832393392920494,
      -0.05014381930232048,
      0.08121570199728012,
      -0.04896873980760574,
      -0.052956510335206985,
      -0.032278068363666534,
      0.0688738152384758,
      0.17293503880500793,
      0.18075856566429138,
      -0.06986380368471146,
      -0.11082147061824799
    ],
    "b_iz_l0": [
      0.005474196746945381,
      0.017842311412096024,
      0.06106118485331535,
      0.0012111043324694037,
      0.04394760727882385,
      -0.020447205752134323,
      0.07979932427406311,
      -0.07411161810159683,
      -0.09451991319656372,
      -0.16666027903556824,
      0.07680594176054001,
      0.05244985595345497,
      -0.034209031611680984,
      0.01622783951461315,
      0.033828239887952805,
      -0.07799216359853745,
      -0.08566398918628693,
      -0.06467296928167343,
      -0.04966667667031288,
      -0.09148654341697693,
      0.0865161120891571,
      -0.05656956508755684,
      0.14261652529239655,
      -0.007680071052163839,
      0.03907473385334015,
      -0.014380086213350296,
      0.02856028638780117,
      0.001797929871827364,
      -0.12311472743749619,
      0.0727243423461914,
      0.013006914407014847,
      0.08505424112081528,
      0.03483378514647484,
      -0.14899936318397522,
      0.004314920399338007,
      -0.0424734503030777,
      0.109038345515728,
      -0.08146840333938599,
      0.03557254746556282,
      0.02072210982441902,
      -0.027872415259480476,
      0.1299622654914856,
      -0.06229224428534508,
      0.011587628163397312,
      -0.1053018644452095,
      -0.04387148097157478,
      0.14240172505378723,
      0.1328291893005371,
      0.016058500856161118,
      0.04734236001968384,
      -0.027312021702528,
      0.05831550806760788,
      -0.012211622670292854,
      0.03138833865523338,
      0.05298125743865967,
      0.11382422596216202,
      0.0787082239985466,
      0.10443173348903656,
      -0.045592304319143295,
      -0.024248991161584854,
      -0.07549963891506195,
      -0.09141892939805984,
      0.1164160966873169,
      -0.01991850510239601
    ],
    "b_in_l0": [
      0.08511924743652344,
      0.09462592005729675,
      0.020499736070632935,
      -0.10395736992359161,
      0.08786175400018692,
      0.06579767912626266,
      0.09104281663894653,
      0.00926185306161642,
      -0.08929090201854706,
      -0.07238572090864182,
      -0.05061337724328041,
      -0.01440353412181139,
      -0.09123619645833969,
      -0.08133846521377563,
      0.054384827613830566,
      0.02988872490823269,
      0.0813501849770546,
      0.09225951135158539,
      0.022107457742094994,
      0.05379172042012215,
      -0.038865216076374054,
      -0.08289089053869247,
      -0.010638727806508541,
      0.003790180664509535,
      -0.04242561012506485,
      -0.046833377331495285,
      -0.08386582881212234,
      -0.09536910802125931,
      -0.0322905108332634,
      -0.04444463923573494,
      -0.05958089604973793,
      0.08438091725111008,
      0.016726108267903328,
      0.06794171035289764,
      -0.036123789846897125,
      0.08603642880916595,
      0.01996721886098385,
      0.02685844711959362,
      0.022290829569101334,
      -0.06563480943441391,
      -0.06887802481651306,
      -0.06816799193620682,
      0.03277235105633736,
      -0.05881839618086815,
      -0.03356555104255676,
      0.05244461074471474,
      0.08054280281066895,
      0.06574064493179321,
      -0.03979680314660072,
      0.05258326977491379,
      -0.08483186364173889,
      -0.07007468491792679,
      0.04373995214700699,
      0.07647864520549774,
      0.0072023761458694935,
      0.03233262524008751,
      -0.005161598324775696,
      -0.09321045130491257,
      0.03542124480009079,
      0.108681321144104,
      -0.010893471539020538,
      -0.01540586818009615,
      -0.061327069997787476,
      0.08254106342792511
    ],
    "w_hr_l0": [
      [
        -0.08863263577222824,
        -0.04334396496415138,
        -0.051163118332624435,
        -0.025377240031957626,
        0.16688504815101624,
        0.0797162801027298,
        0.13083422183990479,
        -0.04181453585624695,
        -0.08838612586259842,
        0.045595183968544006,
        -0.016321564093232155,
        -0.049625370651483536,
        -0.03406304121017456,
        0.29089075326919556,
        -0.01205510925501585,
        0.056965284049510956,
        -0.06049460172653198,
        0.12373139709234238,
        0.054565392434597015,
        0.06481459736824036,
        -0.06159288436174393,
        0.02135201171040535,
        -0.036481451243162155,
        -0.07320494949817657,
        -0.15934085845947266,
        0.008447985164821148,
        -0.06573417037725449,
        -0.05150867998600006,
        0.05901549383997917,
        -0.05956025421619415,
        0.11113782227039337,
        0.16747447848320007,
        0.045656878501176834,
        -0.0841095969080925,
        -0.012971088290214539,
        0.036978356540203094,
        -0.052300356328487396,
        0.08164583891630173,
        -0.10623305290937424,
        0.04500959813594818,
        0.036230895668268204,
        0.036688823252916336,
        0.06953104585409164,
        -0.12843339145183563,
        -0.15832488238811493,
        0.06506737321615219,
        0.00581410713493824,
        0.1508171260356903,
        0.020352700725197792,
        -0.08498656004667282,
        0.08806917816400528,
        -0.12727610766887665,
        -0.11451809853315353,
        -0.038760051131248474,
        0.0633263811469078,
        -0.008227440528571606,
        -0.11161122471094131,
        -0.07348528504371643,
        -0.05543458089232445,
        0.007343539036810398,
        0.03648616001009941,
        -0.06585228443145752,
        -0.0992482453584671,
        0.06003841757774353
      ],
      [
        -0.10238081961870193,
        -0.020497504621744156,
        -0.09266477078199387,
        0.0481833815574646,
        -0.07870740443468094,
        0.13224242627620697,
        -0.03494567051529884,
        0.048492517322301865,
        0.02785109169781208,
        -0.1102641224861145,
        0.11307704448699951,
        -0.11217772960662842,
        -0.024181943386793137,
        -0.0020015756599605083,
        0.09729760885238647,
        0.03324383497238159,
        -0.044372156262397766,
        -0.08863523602485657,
        0.022284870967268944,
        0.05558376386761665,
        0.09295786917209625,
        -0.09525606781244278,
        -0.027704361826181412,
        0.05553465709090233,
        -0.08159438520669937,
        0.025705533102154732,
        -0.053257495164871216,
        0.07493583858013153,
        0.02365179732441902,
        0.02486894652247429,
        0.0003338052483741194,
        0.01605714112520218,
        -0.004681093618273735,
        0.058846041560173035,
        0.09854801744222641,
        0.136749267578125,
        0.056901536881923676,
        -0.03617298603057861,
        0.013695537112653255,
        0.04175480082631111,
        -0.03326835483312607,
        0.11515568941831589,
        0.09061600267887115,
        0.07477053254842758,
        0.08224507421255112,
        -0.0607837550342083,
        0.0433802604675293,
        -0.1216738373041153,
        0.030174490064382553,
        -0.09158231317996979,
        0.11132463067770004,
        0.042448386549949646,
        -0.0778159350156784,
        0.06092396005988121,
        0.029223142191767693,
        -0.06753996014595032,
        0.09951020032167435,
        -0.03298395127058029,
        0.028677450492978096,
        0.060944393277168274,
        -0.05004281550645828,
        0.020693931728601456,
        0.10365325957536697,
        -0.015468515455722809
      ],
      [
        -0.07053287327289581,
        0.1674136221408844,
        -0.07586546242237091,
        -0.19432300329208374,
        0.011674787849187851,
        0.001830168068408966,
        0.0388261154294014,
        0.14435376226902008,
        -0.05031265690922737,
        0.009594370611011982,
        -0.08555375784635544,
        -0.1245306059718132,
        -0.03596734628081322,
        0.022426104173064232,
        0.02359199896454811,
        -0.14279384911060333,
        0.09613146632909775,
        0.08265537023544312,
        0.026198377832770348,
        0.04959622398018837,
        -0.1102341040968895,
        -0.11318065971136093,
        0.04765048623085022,
        -0.11808256804943085,
        -0.15674877166748047,
        -0.034357886761426926,
        -0.11709761619567871,
        -0.14070580899715424,
        0.09337379038333893,
        0.19302409887313843,
        0.04634840786457062,
        0.015817491337656975,
        -0.0977778509259224,
        0.04551436007022858,
        -0.004588257055729628,
        -0.0347304493188858,
        0.15236875414848328,
        0.12365763634443283,
        0.10897856950759888,
        -0.08358495682477951,
        0.0746484026312828,
        -0.04764708876609802,
        0.05939219146966934,
        -0.12327508628368378,
        0.03477723151445389,
        0.10749585181474686,
        -0.013287904672324657,
        0.15035390853881836,
        0.26875677704811096,
        0.07760174572467804,
        0.051700834184885025,
        -0.20468856394290924,
        0.13059331476688385,
        0.015714699402451515,
        0.10861566662788391,
        0.13879366219043732,
        -0.08427207916975021,
        -0.16571015119552612,
        -0.15957459807395935,
        0.09599784761667252,
        -0.061638787388801575,
        -0.016164228320121765,
        -0.009652873501181602,
        0.00875013880431652
      ],
      [
        0.04377306252717972,
        0.11089308559894562,
        0.04124058783054352,
        0.024979576468467712,
        -0.08681195229291916,
        0.13156792521476746,
        0.14692328870296478,
        0.11420127004384995,
        0.038446664810180664,
        -0.021455662325024605,
        -0.1749979853630066,
        0.025450153276324272,
        0.0014649460790678859,
        -0.1145327240228653,
        -0.08934298157691956,
        -0.07348724454641342,
        0.1409349888563156,
        0.11233238130807877,
        0.12022878229618073,
        0.0393124520778656,
        0.08335670828819275,
        0.04079553857445717,
        -0.007910072803497314,
        0.20387953519821167,
        -0.12417622655630112,
        -0.032785091549158096,
        0.09887486696243286,
        -0.13472910225391388,
        0.06737038493156433,
        0.12371934205293655,
        -0.11856111884117126,
        -0.05579081177711487,
        0.05773717910051346,
        -0.00968217570334673,
        -0.03542898967862129,
        -0.012537905015051365,
        -0.07570238411426544,
        -0.006743456237018108,
        0.02006177417933941,
        0.01350485160946846,
        -0.07014591246843338,
        -0.11303111165761948,
        0.03664158657193184,
        -0.017026882618665695,
        -0.0018955288687720895,
        0.14412450790405273,
        0.11633442342281342,
        0.03757436200976372,
        0.022249635308980942,
        -0.0010741400765255094,
        -0.07733575999736786,
        0.06896745413541794,
        -0.125371515750885,
        0.1263706237077713,
        -0.015513915568590164,
        -0.054562848061323166,
        0.035445328801870346,
        -0.07980894297361374,
        -0.06250660866498947,
        -0.1343194842338562,
        0.02244569920003414,
        0.04286303371191025,
        0.06566636264324188,
        -0.048242468386888504
      ],
      [
        0.15195538103580475,
        -0.06721465289592743,
        -0.0851198360323906,
        0.06644988059997559,
        0.021646255627274513,
        -0.05472646281123161,
        0.1454795002937317,
        0.06297755241394043,
        0.058159567415714264,
        -0.012109394185245037,
        -0.0004965316038578749,
        -0.14435069262981415,
        -0.10078837722539902,
        -0.04834974184632301,
        0.0715089961886406,
        -0.22918853163719177,
        0.05139293149113655,
        0.06372614949941635,
        0.08247297257184982,
        0.042799267917871475,
        0.10451921075582504,
        0.07006540894508362,
        -0.013908447697758675,
        -0.1943037211894989,
        0.05346027389168739,
        0.041597578674554825,
        -0.042906273156404495,
        0.059661105275154114,
        -0.030617624521255493,
        -0.04087351635098457,
        0.01383217517286539,
        0.03582931309938431,
        0.009075750596821308,
        -0.0069894553162157536,
        0.1331370770931244,
        0.025582710281014442,
        -0.07491099089384079,
        -0.034665487706661224,
        -0.003413295140489936,
        -0.1473461538553238,
        0.10469204932451248,
        0.002610141411423683,
        0.06306309252977371,
        0.031694769859313965,
        -0.07547537237405777,
        0.0196370892226696,
        -0.09761667251586914,
        -0.030778683722019196,
        0.28838402032852173,
        0.18621401488780975,
        0.0317576564848423,
        -0.07259219884872437,
        -0.023715397343039513,
        -0.04561100900173187,
        0.00844485592097044,
        -0.049298301339149475,
        0.04003223776817322,
        -0.029395295307040215,
        -0.021872280165553093,
        0.1391236037015915,
        -0.05783592537045479,
        0.059881407767534256,
        0.08885527402162552,
        0.09357161819934845
      ],
      [
        -0.05705544725060463,
        0.1404431313276291,
        -0.1548604965209961,
        0.07927748560905457,
        0.030790314078330994,
        0.012889830395579338,
        0.04352950304746628,
        -0.05613422766327858,
        0.02903408370912075,
        -0.1280117928981781,
        0.07101158797740936,
        -0.153398334980011,
        0.016352983191609383,
        -0.06171929091215134,
        0.13976483047008514,
        -0.19309638440608978,
        -0.09931237995624542,
        0.070075124502182,
        0.07535695284605026,
        0.10559473186731339,
        -0.03146430477499962,
        -0.00928503554314375,
        -0.08454778045415878,
        -0.12354414165019989,
        0.06616779416799545,
        0.024945825338363647,
        -0.03360626474022865,
        -0.12722454965114594,
        -0.07264640927314758,
        0.04705679789185524,
        0.04802846908569336,
        0.03916103392839432,
        -0.11668770015239716,
        0.09746011346578598,
        0.12407243251800537,
        -0.11005160957574844,
        0.12085742503404617,
        -0.04782628268003464,
        -0.04853327199816704,
        -0.14005939662456512,
        -0.09831447154283524,
        -0.11584769934415817,
        -0.0738442987203598,
        -0.09718191623687744,
        0.08066604286432266,
        0.07285046577453613,
        0.14261040091514587,
        0.1437569409608841,
        0.12408560514450073,
        0.0022312565706670284,
        0.045179542154073715,
        0.006246491335332394,
        0.014878375455737114,
        -0.02495642378926277,
        -0.0622139647603035,
        -0.01696053519845009,
        -0.06863656640052795,
        0.03534477576613426,
        -0.08824576437473297,
        0.05954139307141304,
        0.03486880660057068,
        -0.11128520965576172,
        -0.07672035694122314,
        0.004659663885831833
      ],
      [
        -0.1436237394809723,
        0.10567020624876022,
        0.07636827975511551,
        0.0037781090941280127,
        0.010610783472657204,
        0.014775333926081657,
        0.006985975429415703,
        -0.0634620189666748,
        -0.10849982500076294,
        -0.0822133868932724,
        -0.08128377795219421,
        0.12220177799463272,
        -0.0880190059542656,
        0.0024320026859641075,
        -0.03516286611557007,
        -0.04691234976053238,
        0.034776635468006134,
        0.03653689846396446,
        0.009732444770634174,
        0.07431492954492569,
        -0.07907585054636002,
        -0.12983310222625732,
        -0.06939654797315598,
        -0.054457880556583405,
        0.1242462545633316,
        -0.12716563045978546,
        0.047648873180150986,
        -0.11322417855262756,
        -0.024505816400051117,
        -0.019524062052369118,
        0.030516047030687332,
        -0.0846380814909935,
        -0.010851476341485977,
        0.013276617974042892,
        0.03809232637286186,
        -0.031934574246406555,
        -0.0837443396449089,
        -0.04675773158669472,
        0.037585075944662094,
        -0.10258590430021286,
        -0.002316245110705495,
        -0.09796932339668274,
        -0.012317207641899586,
        0.03385265916585922,
        -0.041919272392988205,
        0.041009921580553055,
        0.04174809530377388,
        0.06454681605100632,
        0.09947670996189117,
        -0.07540182769298553,
        -0.028637563809752464,
        0.03696360066533089,
        -0.14087605476379395,
        -0.049441251903772354,
        -0.08380884677171707,
        -0.03254080191254616,
        -0.12792249023914337,
        -0.16804420948028564,
        0.00018344236013945192,
        -0.07301019877195358,
        0.001040297793224454,
        0.015456614084541798,
        -0.1362045258283615,
        0.04190077632665634
      ],
      [
        -0.09673262387514114,
        0.09465475380420685,
        -0.02087811753153801,
        0.04692048206925392,
        -0.03497413918375969,
        0.00830843485891819,
        -0.017209185287356377,
        -0.10564851015806198,
        -0.06252925843000412,
        0.11674869060516357,
        0.11735668778419495,
        -0.05786101892590523,
        0.059836287051439285,
        0.17053954303264618,
        -0.1752762496471405,
        0.07693728059530258,
        0.09044429659843445,
        0.005842591170221567,
        -0.09968236088752747,
        -0.07432226836681366,
        0.0731516107916832,
        -0.022591575980186462,
        0.15407437086105347,
        0.05689484626054764,
        -0.025170641019940376,
        -0.019265955314040184,
        0.014334717765450478,
        0.13329605758190155,
        0.13098372519016266,
        0.07415547221899033,
        0.00523718073964119,
        -0.0924486592411995,
        0.05651557072997093,
        0.019388940185308456,
        0.07779645174741745,
        0.054676566272974014,
        0.06065632775425911,
        -0.01475834846496582,
        0.02003445290029049,
        -0.07703788578510284,
        -0.030986061319708824,
        0.0954013392329216,
        0.05956742540001869,
        0.034769702702760696,
        -0.12171227484941483,
        -0.08330486714839935,
        -0.1061139926314354,
        -0.023321835324168205,
        0.04625951871275902,
        -0.06285411864519119,
        -0.08845783770084381,
        0.07783430814743042,
        0.0038575397338718176,
        -0.042891159653663635,
        0.07863450795412064,
        -0.10224054008722305,
        -0.017088374122977257,
        -0.099471315741539,
        0.0728151798248291,
        -0.12305554747581482,
        0.04927951842546463,
        -0.019134830683469772,
        0.03320777416229248,
        -0.08761554956436157
      ],
      [
        -0.07083936780691147,
        -0.05243866145610809,
        0.03913465514779091,
        -0.0007498060585930943,
        -0.0035243998281657696,
        0.04460551589727402,
        -0.05664634704589844,
        0.03962017595767975,
        -0.059934861958026886,
        0.15408216416835785,
        0.12030352652072906,
        0.06833198666572571,
        0.0008646695059724152,
        -0.03083999641239643,
        -0.0011243835324421525,
        -0.07288841903209686,
        -0.08052951842546463,
        -0.0013718652771785855,
        -0.07626783102750778,
        -0.05908958613872528,
        0.002520444104447961,
        0.13838240504264832,
        0.11456283181905746,
        -0.06434676051139832,
        0.09614512324333191,
        0.12297221273183823,
        -0.014920962043106556,
        0.12886942923069,
        -0.0026577464304864407,
        0.07140182703733444,
        -0.05028960481286049,
        -0.021961990743875504,
        0.10267995297908783,
        -0.006404920481145382,
        -0.039874326437711716,
        -0.0651211366057396,
        -0.06553865224123001,
        0.01860162243247032,
        -0.05468220263719559,
        0.022381562739610672,
        -0.04242290183901787,
        -0.01857055351138115,
        0.09290571510791779,
        0.059866081923246384,
        0.0963602066040039,
        0.03914213925600052,
        -0.06644836813211441,
        -0.08363373577594757,
        0.12255247682332993,
        0.07527317106723785,
        0.09566459059715271,
        0.04667321592569351,
        -0.00802232138812542,
        -0.04454687237739563,
        -0.13697895407676697,
        0.08406094461679459,
        0.11120297014713287,
        0.07846531271934509,
        0.14146263897418976,
        -0.12047132849693298,
        -0.010588355362415314,
        -0.013659345917403698,
        -0.028684653341770172,
        -0.06480572372674942
      ],
      [
        -0.10683993995189667,
        -0.003956755623221397,
        -0.11262770742177963,
        -0.05928262695670128,
        0.011531399562954903,
        0.002402446698397398,
        -0.13504749536514282,
        0.047270335257053375,
        -0.10218179225921631,
        -0.06834176927804947,
        0.026993190869688988,
        -0.008822035975754261,
        0.02029421180486679,
        0.06261647492647171,
        0.018895164132118225,
        -0.05811178311705589,
        0.05561758950352669,
        -0.025926504284143448,
        -0.02969491481781006,
        0.012621194124221802,
        -0.04676501825451851,
        -0.03367428481578827,
        -0.07175374031066895,
        -0.09093200415372849,
        0.019078653305768967,
        0.08266334980726242,
        -0.005979552865028381,
        -0.09299149364233017,
        0.09120333939790726,
        0.1102357879281044,
        -0.08806303143501282,
        0.029037417843937874,
        -0.05407785251736641,
        0.14417560398578644,
        0.09103649854660034,
        -0.002958361292257905,
        0.08648395538330078,
        -0.04543852433562279,
        -0.0848139226436615,
        -0.05943283438682556,
        -0.0651758685708046,
        -0.08136869966983795,
        0.07506658881902695,
        -0.09026304632425308,
        -0.001000500051304698,
        -0.010535391978919506,
        -0.09035877138376236,
        -0.04519295692443848,
        0.04546874389052391,
        0.041988492012023926,
        0.04470765218138695,
        0.038247328251600266,
        -0.027698656544089317,
        0.1019589900970459,
        -0.04654502868652344,
        0.09791676700115204,
        0.053068824112415314,
        0.008127785287797451,
        -0.09962797909975052,
        -0.024726035073399544,
        -0.0011134801898151636,
        0.030997266992926598,
        -0.016398034989833832,
        -0.031882524490356445
      ],
      [
        -0.07475540041923523,
        -0.11212927103042603,
        -0.11629729717969894,
        0.13164642453193665,
        0.06007140874862671,
        0.03588752821087837,
        0.014864625409245491,
        -0.1268390268087387,
        -0.06165466085076332,
        -0.07584041357040405,
        -0.004596218932420015,
        -0.08522496372461319,
        0.015563682653009892,
        -0.0354054719209671,
        0.03977125510573387,
        -0.00771786505356431,
        0.0055984691716730595,
        0.020227940753102303,
        0.1572190821170807,
        -0.012549443170428276,
        -0.050396449863910675,
        0.12245333194732666,
        -0.03355199471116066,
        0.01811954192817211,
        -0.05381627753376961,
        0.0557236522436142,
        0.05982591211795807,
        0.00426429184153676,
        -0.057316266000270844,
        -0.10804280638694763,
        0.041008785367012024,
        -0.042660921812057495,
        0.006275183986872435,
        -0.0622306689620018,
        -0.02971239760518074,
        -0.03103846311569214,
        -0.10071296989917755,
        0.06564124673604965,
        0.005378264933824539,
        0.05921054631471634,
        -0.010484171099960804,
        -0.09317049384117126,
        -0.11596767604351044,
        -0.015077751129865646,
        -0.07489960640668869,
        -0.12580442428588867,
        0.07715373486280441,
        -0.0822269544005394,
        0.06059427559375763,
        0.0998581275343895,
        0.020352380350232124,
        0.04486992955207825,
        0.07748986780643463,
        0.07428958266973495,
        -0.10685353726148605,
        0.07869374006986618,
        0.016069138422608376,
        0.07603328675031662,
        -0.18696075677871704,
        0.05742090567946434,
        0.048409294337034225,
        0.02361721359193325,
        0.04889814928174019,
        0.10663376748561859
      ],
      [
        -0.0019339309073984623,
        -0.027716781944036484,
        0.10971791297197342,
        -0.17651794850826263,
        0.1626696139574051,
        0.11174341291189194,
        -0.021806085482239723,
        0.1564222127199173,
        -0.1407085508108139,
        -0.03255220130085945,
        0.00797217059880495,
        -0.09049031883478165,
        0.06097755953669548,
        0.01183558814227581,
        0.13768833875656128,
        -0.19026093184947968,
        0.07404741644859314,
        0.04951542615890503,
        0.08156431466341019,
        0.05605665221810341,
        -0.10780240595340729,
        -0.08100360631942749,
        -0.026674117892980576,
        0.11929210275411606,
        -0.16119574010372162,
        -0.055550090968608856,
        0.11571525037288666,
        0.018838826566934586,
        0.11020774394273758,
        0.1217997670173645,
        -0.08500286191701889,
        0.10649054497480392,
        -0.1721080243587494,
        -0.0926552265882492,
        0.09231962263584137,
        0.014791768044233322,
        -0.05962245538830757,
        0.08977346122264862,
        -0.03756166622042656,
        -0.07026879489421844,
        -0.10118991881608963,
        -0.057823166251182556,
        0.05872161313891411,
        -0.09616175293922424,
        -0.09172941744327545,
        0.12570643424987793,
        -0.04642472788691521,
        0.06082430109381676,
        0.035516440868377686,
        0.07174988090991974,
        -0.08968869596719742,
        -0.1744612455368042,
        0.0777183473110199,
        0.042086996138095856,
        -0.02657274901866913,
        0.09595223516225815,
        -0.1705668419599533,
        -0.19740532338619232,
        -0.07240204513072968,
        -0.17796333134174347,
        0.15091963112354279,
        0.05424201115965843,
        0.025594647973775864,
        -0.04279077798128128
      ],
      [
        0.01845414750277996,
        -0.03916653245687485,
        0.11814656853675842,
        0.07122182101011276,
        -0.031443361192941666,
        -0.11325734108686447,
        -0.05008287727832794,
        0.05236007645726204,
        0.04643173888325691,
        -0.032261818647384644,
        0.06741224229335785,
        0.13627345860004425,
        0.03284227102994919,
        0.026634063571691513,
        0.001376838656142354,
        -0.039952099323272705,
        -0.007853178307414055,
        0.07701870799064636,
        -0.0600249208509922,
        0.09115567803382874,
        0.03802961856126785,
        0.09710583090782166,
        0.05151282250881195,
        0.06403473019599915,
        0.1258174479007721,
        0.13559801876544952,
        0.04335921257734299,
        -0.06401975452899933,
        -0.02615593746304512,
        0.045127563178539276,
        0.020186787471175194,
        -0.0013030892005190253,
        -0.04011944681406021,
        -0.05402165651321411,
        0.030438506975769997,
        -0.03996352478861809,
        -0.04469253122806549,
        0.07069481909275055,
        -0.014866872690618038,
        0.12885266542434692,
        -0.010765907354652882,
        -0.03504687547683716,
        -0.04203500226140022,
        -0.002836276777088642,
        -0.014966250397264957,
        0.019071344286203384,
        -0.05747944489121437,
        -0.06753955781459808,
        0.09231584519147873,
        0.07721319049596786,
        0.040274281054735184,
        0.08671682327985764,
        -0.08440983295440674,
        -0.10866197198629379,
        -0.03333241492509842,
        0.13829314708709717,
        -0.1173437163233757,
        -0.09628617018461227,
        0.03233511373400688,
        -0.0379718653857708,
        0.036037150770425797,
        0.07978560775518417,
        -0.08356115221977234,
        -0.000649190682452172
      ],
      [
        0.16420859098434448,
        -0.016881976276636124,
        -0.14860022068023682,
        0.06840992718935013,
        -0.02518010325729847,
        0.009152594022452831,
        0.06392761319875717,
        0.07272745668888092,
        0.00729294354096055,
        -0.08715492486953735,
        0.07744249701499939,
        -0.2868633270263672,
        0.019042277708649635,
        0.08566071838140488,
        0.1588985174894333,
        0.00388425774872303,
        -0.067591592669487,
        0.005480828694999218,
        0.024183504283428192,
        -0.022452061995863914,
        -0.08971463143825531,
        -0.03411306068301201,
        -0.038767773658037186,
        -0.05662788078188896,
        -0.15330636501312256,
        0.15511766076087952,
        0.06760607659816742,
        -0.06334638595581055,
        0.16050301492214203,
        -0.0030852847266942263,
        0.1554597020149231,
        0.1491045206785202,
        0.03334038332104683,
        0.1971137970685959,
        -0.06367018073797226,
        0.14415203034877777,
        0.1184450015425682,
        -0.1375875025987625,
        0.07810721546411514,
        -0.087641641497612,
        -0.011400154791772366,
        0.07243727147579193,
        0.015345335938036442,
        -0.11180911958217621,
        0.1265588402748108,
        -0.24241478741168976,
        0.020172474905848503,
        0.07415799796581268,
        0.19192805886268616,
        0.06560871750116348,
        -0.07032510638237,
        -0.10989437252283096,
        0.07797098904848099,
        0.08051023632287979,
        -0.07045431435108185,
        -0.010073532350361347,
        0.04892199859023094,
        -0.03652701899409294,
        0.0516788475215435,
        0.09044846147298813,
        0.12307451665401459,
        -0.03876953199505806,
        -0.09767090529203415,
        -0.0658571720123291
      ],
      [
        -0.02740572951734066,
        -0.007571917027235031,
        0.11268820613622665,
        -0.05973098427057266,
        -0.0740722045302391,
        -0.010598067194223404,
        -0.06080877408385277,
        0.023319551721215248,
        0.0644930899143219,
        -0.07453709840774536,
        0.040235068649053574,
        -0.07436028122901917,
        0.06449396163225174,
        0.16656170785427094,
        0.08667942881584167,
        -0.032526955008506775,
        -0.026969878003001213,
        0.13870877027511597,
        -0.055263321846723557,
        0.10062319040298462,
        -0.08444022387266159,
        -0.058396417647600174,
        0.015314765274524689,
        0.06311945617198944,
        -0.02351602166891098,
        0.09280521422624588,
        -0.12574420869350433,
        -0.12638986110687256,
        0.08981042355298996,
        -0.03544412925839424,
        -0.04847434535622597,
        -0.07475509494543076,
        0.0820077434182167,
        0.02888564206659794,
        -0.056808196008205414,
        -0.09793425351381302,
        0.15437184274196625,
        0.06017523631453514,
        0.006827046163380146,
        -0.01830945909023285,
        0.042258016765117645,
        0.08955229073762894,
        -0.04176829755306244,
        0.08368243277072906,
        -0.054438088089227676,
        0.04376482218503952,
        -0.004529630299657583,
        0.048656124621629715,
        -0.06687287986278534,
        0.027777085080742836,
        -0.08569948375225067,
        -0.08292731642723083,
        -0.059389643371105194,
        -0.028399834409356117,
        0.05258238688111305,
        -1.912598054332193e-05,
        -0.12054989486932755,
        -0.049251753836870193,
        -0.020347559824585915,
        -0.12118285149335861,
        -0.025041621178388596,
        -0.041994642466306686,
        -0.05767287686467171,
        -0.07657807320356369
      ],
      [
        -0.020888464525341988,
        0.04985189065337181,
        0.15947853028774261,
        -0.024416429921984673,
        0.0946410670876503,
        -0.01374643575400114,
        -0.014508436433970928,
        -0.07260362058877945,
        -0.06859611719846725,
        0.04257339611649513,
        0.016341589391231537,
        0.1073235273361206,
        -0.0034317276440560818,
        0.033584244549274445,
        -0.09907257556915283,
        -0.12337879091501236,
        0.055719807744026184,
        0.13752061128616333,
        0.13304293155670166,
        0.12306749820709229,
        0.02590286359190941,
        -0.1345961093902588,
        0.06599193811416626,
        -0.028044424951076508,
        -0.015611784532666206,
        0.14230835437774658,
        -0.03960835933685303,
        0.033984795212745667,
        -0.16628789901733398,
        0.15432250499725342,
        0.054524462670087814,
        0.030062207952141762,
        -0.2403005212545395,
        -0.0880139172077179,
        -0.07059679925441742,
        -0.1662329137325287,
        -0.06657390296459198,
        0.10023217648267746,
        0.08492021262645721,
        -0.019666921347379684,
        0.008555643260478973,
        -0.13087444007396698,
        -0.040189456194639206,
        0.10377037525177002,
        0.0031781818252056837,
        0.09017027914524078,
        -0.0045008063316345215,
        -0.053790222853422165,
        0.15569765865802765,
        -0.003028794191777706,
        -0.07543155550956726,
        -0.042586758732795715,
        0.12829206883907318,
        0.01112358272075653,
        -0.11321735382080078,
        0.07274557650089264,
        -0.13900798559188843,
        -0.14048923552036285,
        0.0344499796628952,
        0.05104002356529236,
        -0.14216218888759613,
        0.19655855000019073,
        -0.04308756813406944,
        0.11378727108240128
      ],
      [
        -0.24719104170799255,
        -0.0634448379278183,
        0.0041402168571949005,
        0.03559759259223938,
        -0.05647438392043114,
        0.10494346916675568,
        0.019329743459820747,
        0.07387567311525345,
        0.02029736526310444,
        -0.08714952319860458,
        0.09573742747306824,
        0.12313348799943924,
        0.03820367157459259,
        0.1241074949502945,
        -0.11811575293540955,
        0.04127958044409752,
        0.05299053713679314,
        -0.04077409207820892,
        -0.06711015105247498,
        0.07805380970239639,
        -0.03844812139868736,
        -0.05220325291156769,
        0.02596072107553482,
        0.21155667304992676,
        0.03599556162953377,
        -0.04034890979528427,
        0.014624419622123241,
        -0.044848620891571045,
        -0.015368662774562836,
        0.006950343027710915,
        -0.016460325568914413,
        0.04935136437416077,
        0.05725549906492233,
        -0.09518899023532867,
        -0.11812585592269897,
        -0.0765090212225914,
        -0.0184552650898695,
        -0.12364658713340759,
        0.03232293948531151,
        0.007386465091258287,
        -0.1110357865691185,
        0.004258644767105579,
        0.1291562020778656,
        -0.09156757593154907,
        0.04678690433502197,
        0.12726742029190063,
        -0.04674137756228447,
        -0.11234381794929504,
        -0.07516822963953018,
        -0.04332573711872101,
        -0.025640541687607765,
        -0.06994577497243881,
        -0.036156732589006424,
        -0.09060511738061905,
        0.12104418873786926,
        -0.039532389491796494,
        -0.17857779562473297,
        -0.1210908368229866,
        -0.11367394775152206,
        -0.144558846950531,
        0.020157301798462868,
        -0.09283962100744247,
        0.017222115769982338,
        -0.0542873777449131
      ],
      [
        -0.002344429725781083,
        -0.09580381214618683,
        -0.1414913833141327,
        -0.058054808527231216,
        0.12294347584247589,
        0.02233554795384407,
        0.059189338237047195,
        0.10590116679668427,
        -0.09934520721435547,
        0.08282642811536789,
        0.03627913445234299,
        -0.06613804399967194,
        -0.007883254438638687,
        0.08204685896635056,
        -0.03718050196766853,
        -0.0916362851858139,
        0.0771958976984024,
        0.04075301066040993,
        -0.010913765989243984,
        -0.14790458977222443,
        -0.10515986382961273,
        0.0185967069119215,
        0.05617284029722214,
        -0.03383428230881691,
        0.04597895219922066,
        0.05799086391925812,
        -0.07114101946353912,
        0.1052527204155922,
        -0.032051265239715576,
        0.07939215004444122,
        0.026899924501776695,
        -0.05961327254772186,
        -0.038889382034540176,
        -0.10540182888507843,
        0.08545856922864914,
        -0.11513081192970276,
        0.05141948536038399,
        0.11446675658226013,
        0.10192086547613144,
        -0.09644319117069244,
        0.07784603536128998,
        -0.07590128481388092,
        0.02494567260146141,
        0.043225258588790894,
        -0.11737632006406784,
        -0.08928035199642181,
        0.034780990332365036,
        0.027510274201631546,
        0.09753833711147308,
        0.12113049626350403,
        0.03633661940693855,
        -0.02874252386391163,
        0.05676876753568649,
        -0.0034700296819210052,
        -0.08983680605888367,
        -0.04872555658221245,
        -0.04900260642170906,
        0.10785868018865585,
        -0.058197636157274246,
        0.0029885955154895782,
        0.10329607874155045,
        -0.002124593360349536,
        -0.027876658365130424,
        0.006092901341617107
      ],
      [
        0.11190503090620041,
        -0.005962932016700506,
        -0.14611166715621948,
        0.051870740950107574,
        -0.06366516649723053,
        -0.06368157267570496,
        0.018872207030653954,
        -0.12933316826820374,
        0.011719850823283195,
        0.03518211841583252,
        0.04766162112355232,
        -0.12401755154132843,
        -0.0001486537221353501,
        0.05485793203115463,
        0.04225154221057892,
        0.03468982130289078,
        0.08329469710588455,
        -0.11359751969575882,
        -0.017987249419093132,
        -0.08369754999876022,
        0.11669246107339859,
        -0.10096881538629532,
        -0.07731038331985474,
        -0.03810768574476242,
        -0.07138612866401672,
        0.08383759111166,
        -0.016190938651561737,
        -0.027509616687893867,
        0.12665897607803345,
        -0.13125479221343994,
        -0.057435065507888794,
        0.12039195746183395,
        -0.05279389023780823,
        0.03339872509241104,
        -0.026623506098985672,
        0.05378009006381035,
        0.04499093443155289,
        -0.002548182848840952,
        0.03393624350428581,
        0.08502166718244553,
        0.05964331701397896,
        -0.09180211275815964,
        -0.07845667004585266,
        0.01474025845527649,
        0.09285280853509903,
        0.042648233473300934,
        0.09329092502593994,
        -0.08386188745498657,
        -0.04780249670147896,
        0.005584381986409426,
        0.06626739352941513,
        -0.03962760418653488,
        0.018932165578007698,
        0.01486134435981512,
        0.10326124727725983,
        0.014056948013603687,
        -0.08824402093887329,
        0.030284643173217773,
        -0.11254316568374634,
        0.08279450237751007,
        0.034471794962882996,
        -0.08611930161714554,
        -0.11695230007171631,
        0.0826922282576561
      ],
      [
        -0.04602178931236267,
        0.05665117874741554,
        -0.07978668063879013,
        -0.011274242773652077,
        -0.09889213740825653,
        -0.14046436548233032,
        -0.07128634303808212,
        -0.023119047284126282,
        -0.059067606925964355,
        -0.0991678386926651,
        -0.08007505536079407,
        -0.09860604256391525,
        -0.049552541226148605,
        0.10033521056175232,
        -0.056362397968769073,
        -0.15772679448127747,
        0.05599096044898033,
        0.0069845388643443584,
        -0.08306635916233063,
        0.03966255113482475,
        0.03011825680732727,
        0.009492038749158382,
        -0.11387189477682114,
        -0.050815582275390625,
        -0.027300452813506126,
        0.07411006838083267,
        0.10431206226348877,
        0.07828527688980103,
        -0.09049071371555328,
        0.0053307474590837955,
        0.06835506856441498,
        -0.018137238919734955,
        0.019031543284654617,
        0.07626665383577347,
        -0.09644360095262527,
        -0.1666545420885086,
        0.03322329744696617,
        0.04583584889769554,
        0.10985206812620163,
        0.11583974957466125,
        0.09196929633617401,
        0.1063726395368576,
        -0.08150283992290497,
        -0.04265212267637253,
        -0.05378217250108719,
        0.1237548291683197,
        0.03061048872768879,
        0.10069088637828827,
        -0.049216657876968384,
        0.018627772107720375,
        -0.06781518459320068,
        -0.018854843452572823,
        0.026160739362239838,
        -0.11959532648324966,
        0.03615914657711983,
        0.09913449734449387,
        -0.08260710537433624,
        -0.005954915191978216,
        -0.021254343912005424,
        -0.08278487622737885,
        0.021116841584444046,
        0.15126824378967285,
        -0.04796401038765907,
        -0.018657248467206955
      ],
      [
        0.029399214312434196,
        -0.07671824097633362,
        -0.053377751260995865,
        0.12326139211654663,
        -0.01903262734413147,
        -0.10242044925689697,
        -0.06836536526679993,
        -0.15561962127685547,
        0.1103971004486084,
        0.11348895728588104,
        0.039780762046575546,
        0.07869597524404526,
        -0.09538789093494415,
        0.030658209696412086,
        0.03763044998049736,
        -0.03710488975048065,
        -0.14890822768211365,
        -0.11475591361522675,
        -0.047637343406677246,
        0.05632700026035309,
        0.11691730469465256,
        0.09376019984483719,
        -0.027259547263383865,
        -0.08146245032548904,
        -0.09969492256641388,
        0.07122230529785156,
        0.008751388639211655,
        -0.07107972353696823,
        0.07038792967796326,
        -0.10442083328962326,
        -0.04998842626810074,
        -0.1377308964729309,
        0.007247281260788441,
        0.037207912653684616,
        -0.056618668138980865,
        0.05764811486005783,
        0.08050474524497986,
        0.004538425710052252,
        -0.02243529073894024,
        0.14792071282863617,
        -0.0689806342124939,
        0.012540163472294807,
        0.11457144469022751,
        0.036179520189762115,
        0.14097870886325836,
        0.013415860943496227,
        -0.05754753202199936,
        -0.06268278509378433,
        -0.11174780875444412,
        0.09807195514440536,
        -0.006273759063333273,
        -0.08335303515195847,
        0.10541706532239914,
        -0.027690308168530464,
        0.08762810379266739,
        0.09786354005336761,
        -0.10253304988145828,
        0.039377909153699875,
        0.06605467200279236,
        0.020064398646354675,
        -0.07029667496681213,
        -0.04572579264640808,
        -0.027777647599577904,
        -0.03937608376145363
      ],
      [
        0.05232303589582443,
        -0.10917343944311142,
        -0.11111629009246826,
        0.07488855719566345,
        -0.03404413163661957,
        -0.021276285871863365,
        -0.04633518308401108,
        0.0879477709531784,
        0.060454659163951874,
        0.10794959962368011,
        -0.08358188718557358,
        -0.0866900309920311,
        0.1154998391866684,
        -0.04495738074183464,
        -0.08481153845787048,
        0.11636728048324585,
        -0.05829792842268944,
        -0.018709750846028328,
        0.11557134985923767,
        -0.08506905287504196,
        -0.08322294801473618,
        0.06251110136508942,
        0.0017059191595762968,
        -0.06757902354001999,
        -0.09436441957950592,
        0.08853191137313843,
        0.12711119651794434,
        -0.004772598389536142,
        -0.08315344154834747,
        -0.005302430596202612,
        -0.03181833773851395,
        0.040034204721450806,
        0.12257257103919983,
        -0.0409412644803524,
        0.04819545894861221,
        -0.05848308280110359,
        -0.12508699297904968,
        0.05863520875573158,
        -0.03741417080163956,
        0.055894602090120316,
        0.0554528571665287,
        -0.005979832261800766,
        -0.027487926185131073,
        0.10808029770851135,
        -0.027321090921759605,
        -0.1303926259279251,
        0.045290157198905945,
        0.01084036473184824,
        -0.018451444804668427,
        0.10015688091516495,
        -0.023888761177659035,
        0.10541772842407227,
        0.029871109873056412,
        0.0867275819182396,
        -0.13170883059501648,
        0.0034830220974981785,
        0.1217341423034668,
        -0.0038210994098335505,
        -0.01881919428706169,
        0.05921639874577522,
        -0.07131769508123398,
        0.08023446798324585,
        -0.0892118588089943,
        -0.03392118215560913
      ],
      [
        0.021451935172080994,
        0.14367930591106415,
        -0.017468487843871117,
        0.014812123961746693,
        0.11823694407939911,
        0.05892791226506233,
        -0.005293958820402622,
        0.049408555030822754,
        0.00818770844489336,
        -0.022217296063899994,
        0.1375379115343094,
        0.11804374307394028,
        0.09594995528459549,
        -0.035526882857084274,
        -0.06999079138040543,
        0.0168767049908638,
        0.029707755893468857,
        -0.0984920859336853,
        -0.08736437559127808,
        -0.030665718019008636,
        -0.10335361212491989,
        0.07407566905021667,
        0.01759493164718151,
        -0.01955367811024189,
        -0.08392850309610367,
        -0.08140960335731506,
        -0.04934250935912132,
        -0.12540054321289062,
        0.02197945863008499,
        -0.041891660541296005,
        0.04415871202945709,
        0.10329782217741013,
        0.1075015515089035,
        0.03476574271917343,
        -0.12726116180419922,
        0.11404894292354584,
        -0.04630972445011139,
        -0.13248616456985474,
        0.07225918024778366,
        0.09646262228488922,
        0.11150220036506653,
        -0.08627293258905411,
        0.010558429174125195,
        0.020826224237680435,
        -0.06736842542886734,
        0.02016472816467285,
        -0.10342569649219513,
        0.08273474127054214,
        0.03999832272529602,
        -0.11533746868371964,
        -0.0005197590799070895,
        -0.08565694093704224,
        0.06185503676533699,
        0.09967458993196487,
        -0.04861791431903839,
        -0.0498446561396122,
        -0.1105974018573761,
        -0.017923599109053612,
        -0.06504812836647034,
        0.03230699896812439,
        0.03816237673163414,
        -0.06271852552890778,
        0.04730123281478882,
        0.013103613629937172
      ],
      [
        0.07076799124479294,
        0.10808373242616653,
        0.08538639545440674,
        0.03662265092134476,
        0.05039532482624054,
        0.1828368604183197,
        0.0526546873152256,
        -0.08131708204746246,
        0.018734676763415337,
        -0.09844505786895752,
        0.05193137377500534,
        -0.043692298233509064,
        -0.14458703994750977,
        0.1871269792318344,
        -0.0619056299328804,
        0.008388802409172058,
        0.11788737773895264,
        0.04964786022901535,
        -0.0832265168428421,
        -0.0006442171870730817,
        -0.07090093195438385,
        -0.07880961894989014,
        0.12469186633825302,
        0.08961804956197739,
        -0.11771168559789658,
        -0.06756339967250824,
        -0.12597747147083282,
        -0.059997718781232834,
        0.3082212805747986,
        -0.0641239583492279,
        -0.014137702994048595,
        0.0773569792509079,
        0.07992789894342422,
        0.07565927505493164,
        -0.06835674494504929,
        -0.07337939739227295,
        -0.026790080592036247,
        0.0760871097445488,
        -0.09587401896715164,
        -0.10857032239437103,
        0.0802619606256485,
        -0.00574047677218914,
        0.10707412660121918,
        -0.01201228704303503,
        0.060642607510089874,
        -0.07362278550863266,
        -0.08860143274068832,
        0.12682919204235077,
        0.09164226055145264,
        0.0006690358859486878,
        0.1468668133020401,
        0.053616881370544434,
        -0.041288137435913086,
        0.13299943506717682,
        -0.03361823037266731,
        -0.00912459660321474,
        -0.0627390667796135,
        0.04344641789793968,
        0.02181113325059414,
        -0.010733780451118946,
        0.004567834548652172,
        -0.0474931001663208,
        0.023689940571784973,
        0.09364364296197891
      ],
      [
        -0.12263444066047668,
        0.025748176500201225,
        -0.09442596882581711,
        -0.0466131828725338,
        -0.03233693912625313,
        0.08297839760780334,
        -0.024582792073488235,
        -0.00794300902634859,
        0.13296227157115936,
        0.009351496584713459,
        0.04290066286921501,
        -0.11803722381591797,
        0.08771781623363495,
        0.0959586426615715,
        -0.06506185978651047,
        0.06444358080625534,
        0.01748724840581417,
        -0.010380839928984642,
        0.019744552671909332,
        0.057216014713048935,
        0.044212013483047485,
        0.1071765273809433,
        0.06945271044969559,
        -0.1103510707616806,
        -0.011796590872108936,
        0.10472944378852844,
        -0.11461073160171509,
        0.09866355359554291,
        0.01400837767869234,
        0.035502221435308456,
        0.12799103558063507,
        -0.14177203178405762,
        0.03849687799811363,
        0.0057854377664625645,
        0.05521209537982941,
        -0.024207960814237595,
        0.09122703969478607,
        0.05652725324034691,
        0.053424350917339325,
        0.13390620052814484,
        0.10667125135660172,
        0.00552147114649415,
        -0.03199877217411995,
        0.04027428478002548,
        -0.02279251255095005,
        0.012813035398721695,
        0.0472053661942482,
        -0.13425514101982117,
        0.04958811402320862,
        -0.07205422222614288,
        0.008336177095770836,
        -0.04425831884145737,
        0.017186975106596947,
        -0.1139901876449585,
        -0.030447807163000107,
        -0.10558720678091049,
        0.023827021941542625,
        0.0101972296833992,
        -0.01305707823485136,
        -0.06730544567108154,
        0.037220753729343414,
        -0.001270345295779407,
        0.08351822942495346,
        0.08128678798675537
      ],
      [
        -0.1121341660618782,
        -0.12739330530166626,
        -0.1180197224020958,
        0.09374229609966278,
        -0.10797524452209473,
        -0.018530050292611122,
        0.020898710936307907,
        -0.0271991528570652,
        0.0915563702583313,
        -0.021437758579850197,
        0.0583459846675396,
        0.03619372099637985,
        -0.09437073022127151,
        -0.04224684461951256,
        0.03633071854710579,
        0.10908936709165573,
        -0.06273695826530457,
        -0.10056443512439728,
        0.014800122007727623,
        -0.04485750570893288,
        0.010643051005899906,
        -0.08541575819253922,
        0.11120174080133438,
        0.009495549835264683,
        -0.02083403989672661,
        0.017284557223320007,
        -0.1400456726551056,
        -0.020819013938307762,
        0.11901941150426865,
        -0.095761239528656,
        -0.05619807168841362,
        0.005745799746364355,
        -0.06942202895879745,
        -0.06087313964962959,
        -0.06193831190466881,
        0.10088595002889633,
        0.04656985402107239,
        -0.00010166327410843223,
        -0.11967358738183975,
        -0.098870187997818,
        0.12031197547912598,
        0.09275294095277786,
        0.0830247700214386,
        -0.041124697774648666,
        0.061123207211494446,
        0.07724233716726303,
        -0.15095479786396027,
        -0.04932589828968048,
        -0.12719859182834625,
        0.07962315529584885,
        -0.04287887364625931,
        0.08534156531095505,
        -0.13793735206127167,
        -0.043056998401880264,
        -0.05261668935418129,
        0.09084001928567886,
        -0.12004224210977554,
        0.0776773989200592,
        0.0879303589463234,
        0.09206438809633255,
        0.12170439958572388,
        0.04825158044695854,
        -0.0980413556098938,
        0.10138241201639175
      ],
      [
        0.07419702410697937,
        -0.0986313670873642,
        -0.13023245334625244,
        -0.028509682044386864,
        0.0964350774884224,
        -0.0846419408917427,
        -0.08223430812358856,
        -0.012907537631690502,
        0.0716095045208931,
        0.06440651416778564,
        0.007029158063232899,
        0.016528882086277008,
        0.016701219603419304,
        0.03278148174285889,
        0.11782140284776688,
        -0.037306398153305054,
        -0.1042616069316864,
        -0.018838340416550636,
        0.08948424458503723,
        0.10207746922969818,
        -0.12988324463367462,
        0.039253413677215576,
        0.06316731125116348,
        0.05665561556816101,
        -0.013588092289865017,
        -0.12821245193481445,
        -0.1001056656241417,
        0.0677565187215805,
        -0.025106966495513916,
        -0.12965670228004456,
        -0.05795326828956604,
        0.04800593480467796,
        0.09686034917831421,
        -0.07505027204751968,
        0.06560088694095612,
        -0.08515336364507675,
        0.07970995455980301,
        0.053203705698251724,
        0.11423799395561218,
        0.10048269480466843,
        -0.059082821011543274,
        0.0011999489506706595,
        0.12618276476860046,
        -0.10251862555742264,
        -0.026376258581876755,
        -0.008554995059967041,
        -0.10132362693548203,
        -0.1289222538471222,
        -0.11184817552566528,
        0.05357913672924042,
        -0.035673338919878006,
        0.024541892111301422,
        -0.0897582545876503,
        -0.10383913666009903,
        -0.07130538672208786,
        -0.07185842096805573,
        -0.04343624413013458,
        0.0037506844382733107,
        -0.03735962510108948,
        -0.03609413281083107,
        -8.483685087412596e-05,
        -0.055176991969347,
        -0.10636614263057709,
        0.09595190733671188
      ],
      [
        0.10967082530260086,
        0.03564850240945816,
        0.1032663881778717,
        0.00395705783739686,
        0.0012154681608080864,
        0.06713362038135529,
        0.06192834675312042,
        -0.02598520740866661,
        -0.10174721479415894,
        -0.038050923496484756,
        -0.10190574824810028,
        0.0029362414497882128,
        -0.06792017072439194,
        -0.09305185079574585,
        0.10242995619773865,
        -0.04470943659543991,
        0.06735202670097351,
        -0.09817144274711609,
        -0.03751524165272713,
        0.09729259461164474,
        0.014317261055111885,
        -0.10054588317871094,
        -0.11931529641151428,
        -0.03998102992773056,
        -0.0874537006020546,
        0.0283731147646904,
        0.10673103481531143,
        0.0008192938985303044,
        -0.09231287240982056,
        0.008004573173820972,
        -0.10468655824661255,
        -0.09113222360610962,
        -0.11525709182024002,
        0.07589592039585114,
        -0.00297007174231112,
        -0.01460360363125801,
        0.04805875942111015,
        -0.084928497672081,
        0.09390299022197723,
        -0.10177881270647049,
        0.10987689346075058,
        -0.016776470467448235,
        0.01542164757847786,
        0.033214595168828964,
        -0.030166925862431526,
        0.00903229508548975,
        0.03157856687903404,
        -0.027185967192053795,
        -0.07872960716485977,
        0.08025699108839035,
        0.04408463090658188,
        0.10422546416521072,
        -0.09779323637485504,
        -0.11119106411933899,
        0.09391774237155914,
        0.043913111090660095,
        0.07204413414001465,
        0.09271843731403351,
        -0.013306831941008568,
        -0.10215740650892258,
        0.11372419446706772,
        0.09913177043199539,
        0.021619390696287155,
        -0.03649059683084488
      ],
      [
        0.0663125216960907,
        0.06366926431655884,
        -0.2640964686870575,
        0.08499224483966827,
        0.08943523466587067,
        0.15013116598129272,
        0.06555519998073578,
        0.06331033259630203,
        0.028169794008135796,
        0.10030078887939453,
        -0.0476854145526886,
        -0.17339526116847992,
        0.07002682983875275,
        0.04463110491633415,
        0.021260693669319153,
        -0.21104532480239868,
        -0.05975755304098129,
        -0.06586819887161255,
        0.1665186882019043,
        0.05234426632523537,
        0.031078053638339043,
        0.0907876119017601,
        0.05311787128448486,
        -0.22821645438671112,
        -0.04349706694483757,
        0.025389952585101128,
        0.06745394319295883,
        0.06630627810955048,
        0.10642442852258682,
        0.10435173660516739,
        0.1459212303161621,
        -0.02800241857767105,
        0.03972461447119713,
        0.17275653779506683,
        0.1867673099040985,
        -0.07413610070943832,
        0.14952675998210907,
        0.051685214042663574,
        0.1820051223039627,
        0.07263185828924179,
        -0.016368841752409935,
        -0.030235715210437775,
        0.014486018568277359,
        -0.022184262052178383,
        -0.06381765753030777,
        -0.2582712471485138,
        -0.0315684899687767,
        0.0066796052269637585,
        0.17511004209518433,
        0.0671333372592926,
        -0.03416541591286659,
        0.05889400094747543,
        0.1881643384695053,
        0.04642829671502113,
        -0.08105757087469101,
        0.00888781901448965,
        0.10228639841079712,
        -0.0032156892120838165,
        -0.17973701655864716,
        0.14049218595027924,
        -0.21186110377311707,
        -0.08593616634607315,
        -0.11375132948160172,
        -0.07602860778570175
      ],
      [
        -0.01601211167871952,
        0.030019212514162064,
        0.14142924547195435,
        -0.005886844824999571,
        0.0492267906665802,
        -0.03767776116728783,
        0.03688541799783707,
        0.17841964960098267,
        0.004216414410620928,
        -0.0027531401719897985,
        0.0343208946287632,
        0.14648623764514923,
        -0.09601138532161713,
        0.04023658111691475,
        -0.05306551605463028,
        0.11801458895206451,
        0.07027040421962738,
        -0.02932175248861313,
        -0.06961589306592941,
        0.0992087870836258,
        0.041424959897994995,
        -0.1505974680185318,
        -0.04312708228826523,
        0.03166276589035988,
        0.02722514048218727,
        0.05375761166214943,
        0.061542022973299026,
        -0.011773249134421349,
        -0.11894343793392181,
        0.07941440492868423,
        0.06900779157876968,
        0.08616692572832108,
        -0.05674860253930092,
        -0.08687752485275269,
        -0.0801207646727562,
        0.0725838914513588,
        0.07303304225206375,
        -0.06652277708053589,
        -0.1334565281867981,
        -0.010946668684482574,
        -0.09501555562019348,
        -0.13898144662380219,
        -0.04358258470892906,
        0.054583046585321426,
        -0.035975128412246704,
        0.17566797137260437,
        -0.09791399538516998,
        0.08935145288705826,
        0.09989940375089645,
        0.039006300270557404,
        0.07300945371389389,
        0.10126938670873642,
        0.0748477429151535,
        -0.09987425804138184,
        -0.008607238531112671,
        0.15532034635543823,
        0.0881626307964325,
        -0.06718301773071289,
        0.10173628479242325,
        -0.08361931890249252,
        0.1037888303399086,
        0.03212282434105873,
        -0.052915044128894806,
        0.09599628299474716
      ],
      [
        0.06484711170196533,
        0.06672388315200806,
        0.09396578371524811,
        -0.14726664125919342,
        -0.08260292559862137,
        0.06735965609550476,
        0.1389065831899643,
        -0.08092012256383896,
        0.11844220757484436,
        0.0014021486276760697,
        0.0640430748462677,
        0.03832519054412842,
        0.12175749987363815,
        0.07954597473144531,
        -0.015245575457811356,
        -0.030782245099544525,
        0.0021826147567480803,
        -0.039781033992767334,
        0.014216034673154354,
        0.07821888476610184,
        0.16260196268558502,
        0.04731251299381256,
        -0.057491086423397064,
        -0.031409285962581635,
        0.007595146540552378,
        -0.05566320940852165,
        -0.04451132193207741,
        -0.10312823206186295,
        -0.08017805218696594,
        0.05132425203919411,
        0.038157086819410324,
        0.017873335629701614,
        -0.022672448307275772,
        0.054232798516750336,
        -0.07174701988697052,
        -0.22268451750278473,
        -0.09743326157331467,
        0.062399763613939285,
        0.11316573619842529,
        0.09255639463663101,
        0.05537576228380203,
        -0.11906299740076065,
        -0.08441314846277237,
        -0.0700235515832901,
        -0.04583317041397095,
        0.007186498958617449,
        0.034333810210227966,
        -0.049881599843502045,
        0.07248259335756302,
        -0.053733713924884796,
        -0.05068694055080414,
        -0.010279929265379906,
        0.009380338713526726,
        -0.1269814521074295,
        -0.03441715985536575,
        -0.050840262323617935,
        -0.10002168267965317,
        0.0659726932644844,
        -0.11696936935186386,
        0.17894259095191956,
        -0.0922568216919899,
        0.05451307073235512,
        0.05005738511681557,
        0.056063245981931686
      ],
      [
        -0.09200599789619446,
        -0.0066628786735236645,
        0.06682058423757553,
        0.06434803456068039,
        -0.07903368026018143,
        0.005354106891900301,
        -0.09869804233312607,
        -0.06935203075408936,
        0.14819176495075226,
        -0.060603491961956024,
        0.011216755956411362,
        -0.11699478328227997,
        0.11686258018016815,
        -0.008527121506631374,
        -0.06941676884889603,
        -0.03936779499053955,
        -0.09973235428333282,
        -0.009578957222402096,
        0.037430886179208755,
        0.06735479086637497,
        -0.05773340165615082,
        -0.011263260617852211,
        0.03390469402074814,
        -0.034218642860651016,
        0.05482308194041252,
        -0.101595439016819,
        -0.08720975369215012,
        -0.0419091060757637,
        -0.07712455838918686,
        0.015927933156490326,
        0.08908944576978683,
        0.003103494644165039,
        0.09277372062206268,
        0.12654824554920197,
        -0.07179421931505203,
        -0.12389557808637619,
        0.027831850573420525,
        -0.14014174044132233,
        -0.07597897946834564,
        0.037046074867248535,
        -0.06209169700741768,
        0.09686919301748276,
        0.07823540270328522,
        0.10743745416402817,
        0.06463807821273804,
        0.01367964781820774,
        -0.07111421972513199,
        -0.126102015376091,
        0.010806599631905556,
        -0.013238496147096157,
        -0.028343861922621727,
        0.028286613523960114,
        0.011991414241492748,
        0.11161167174577713,
        -0.06859330832958221,
        -0.1413564682006836,
        0.026524115353822708,
        -0.06213546171784401,
        -0.07066904753446579,
        -0.0009762809495441616,
        -0.014982018619775772,
        0.08297715336084366,
        -0.03341883420944214,
        0.015163413248956203
      ],
      [
        -0.16783250868320465,
        0.09557750076055527,
        0.2104896456003189,
        -0.12220831215381622,
        -0.0982242226600647,
        -0.14595836400985718,
        0.045913323760032654,
        0.10661870241165161,
        -0.07204072177410126,
        0.08255995064973831,
        -0.17087490856647491,
        0.24093686044216156,
        -0.08759888261556625,
        0.02335481159389019,
        -0.18646274507045746,
        0.2092137634754181,
        0.08860553056001663,
        0.01854860596358776,
        -0.1608508825302124,
        0.07996086031198502,
        0.04914565756917,
        -0.040217746049165726,
        -0.021055079996585846,
        0.07644180953502655,
        0.02043728344142437,
        -0.022964894771575928,
        0.054157085716724396,
        -0.061898790299892426,
        0.07973113656044006,
        0.09063959121704102,
        -0.05982554703950882,
        0.06731844693422318,
        -0.05346749350428581,
        -0.2220301479101181,
        -0.11682667583227158,
        -0.12839461863040924,
        0.006697729229927063,
        -0.15180769562721252,
        0.0374598503112793,
        0.07391339540481567,
        0.035223886370658875,
        0.022197209298610687,
        0.07811859995126724,
        -0.027100255712866783,
        -0.11319621652364731,
        0.15420271456241608,
        0.09687084704637527,
        0.015236192382872105,
        -0.08114218711853027,
        -0.09331364929676056,
        0.0531226322054863,
        0.16304229199886322,
        0.04583562910556793,
        -0.03750184178352356,
        0.033840082585811615,
        0.11839316785335541,
        -0.05046852305531502,
        -0.051489703357219696,
        -0.0066797565668821335,
        -0.23909327387809753,
        0.15110771358013153,
        -0.021648529917001724,
        -0.010375596582889557,
        0.12002518028020859
      ],
      [
        -0.12700705230236053,
        0.11379443109035492,
        -0.0398700125515461,
        -0.17418713867664337,
        0.1385413110256195,
        0.03855258971452713,
        0.03809233382344246,
        0.1290379911661148,
        -0.09888646751642227,
        -0.1008826345205307,
        -0.11680377274751663,
        0.11374370008707047,
        -0.009848950430750847,
        0.06990117579698563,
        -0.0018039802089333534,
        0.07036468386650085,
        0.075060173869133,
        0.15700115263462067,
        -0.08085997402667999,
        -0.11256323009729385,
        -0.13276469707489014,
        -0.11718567460775375,
        0.005131497513502836,
        0.13838155567646027,
        -0.00532121816650033,
        -0.02658148854970932,
        -0.0672118216753006,
        -0.01964801549911499,
        -0.01969045028090477,
        0.059027064591646194,
        0.09694652259349823,
        0.06474920362234116,
        0.016379592940211296,
        0.02479715086519718,
        -0.008959874510765076,
        0.03827766329050064,
        0.01962355338037014,
        0.12067338824272156,
        -0.03800928220152855,
        0.017752980813384056,
        0.012162433937191963,
        0.08909048140048981,
        -0.0634363517165184,
        -0.007719795685261488,
        -0.06925549358129501,
        0.04704107344150543,
        0.0365842767059803,
        -0.026229672133922577,
        -0.008426336571574211,
        -0.0007775982958264649,
        0.062058225274086,
        -0.03618626669049263,
        -0.10408615320920944,
        0.04817335680127144,
        0.03663408383727074,
        0.10076187551021576,
        -0.15514831244945526,
        -0.15085525810718536,
        0.0017404705286026,
        0.0004886638489551842,
        -0.039200764149427414,
        0.06028037145733833,
        -0.04023846238851547,
        -0.07562118023633957
      ],
      [
        -0.06923994421958923,
        -0.11311209201812744,
        -0.1031527891755104,
        0.024844462051987648,
        -0.09444956481456757,
        0.07846924662590027,
        -0.03736456111073494,
        -0.11686918139457703,
        -0.04604916647076607,
        -0.02053634449839592,
        0.043400682508945465,
        -0.09402211755514145,
        0.12115169316530228,
        0.03345873951911926,
        0.04300367832183838,
        -0.07353430986404419,
        0.09372949600219727,
        -0.1020805686712265,
        0.00715527031570673,
        -0.10852519422769547,
        0.05837298557162285,
        0.019464625045657158,
        -0.10097720474004745,
        -0.04317952319979668,
        -0.038920529186725616,
        0.10334394872188568,
        -0.03500072658061981,
        -0.026640968397259712,
        0.02241128869354725,
        0.014444014057517052,
        -0.029066119343042374,
        -0.08156926929950714,
        -0.03297066688537598,
        -0.02951711043715477,
        -0.024385303258895874,
        -0.11222422868013382,
        -0.03700271621346474,
        -0.04590798169374466,
        0.1321467161178589,
        -0.039368752390146255,
        0.0652250424027443,
        -0.0810152217745781,
        0.10840923339128494,
        0.06015743687748909,
        0.131586953997612,
        -0.13499487936496735,
        -0.06741221994161606,
        -0.05588720738887787,
        0.08163122087717056,
        0.09927134960889816,
        -0.0775219276547432,
        0.11883766204118729,
        0.015809735283255577,
        -0.04024575650691986,
        0.07113577425479889,
        0.1070033460855484,
        0.12741702795028687,
        -0.03796873241662979,
        0.023897627368569374,
        -0.020710408687591553,
        -0.11857806146144867,
        -0.07237770408391953,
        0.019224269315600395,
        -0.07558473944664001
      ],
      [
        -0.1047401875257492,
        0.02477187104523182,
        0.03151295334100723,
        -0.15893866121768951,
        0.11790216714143753,
        -0.05397212132811546,
        0.1632089763879776,
        0.06433127820491791,
        -0.09613647311925888,
        0.047205500304698944,
        -0.11763470619916916,
        -0.03939627856016159,
        -0.05110466107726097,
        0.10682302713394165,
        -0.13602787256240845,
        0.045500703155994415,
        0.09285321086645126,
        -0.053992122411727905,
        0.07435370981693268,
        -0.006335377227514982,
        -0.06427794694900513,
        -0.1541643887758255,
        -0.025302739813923836,
        0.13952553272247314,
        0.03429246321320534,
        -0.1360476166009903,
        0.021124402061104774,
        0.1059422492980957,
        0.16238106787204742,
        0.10057330876588821,
        -0.16340424120426178,
        0.11845328658819199,
        0.030282963067293167,
        0.07032164931297302,
        0.06951301544904709,
        -0.09825483709573746,
        0.0031982576474547386,
        0.058956440538167953,
        -0.08048288524150848,
        0.03487856313586235,
        -0.10353200137615204,
        0.05412726849317551,
        0.04617636650800705,
        -0.0448467992246151,
        -0.05209076404571533,
        -0.0445357970893383,
        -0.10189823061227798,
        -0.039999354630708694,
        0.08151206374168396,
        0.026331327855587006,
        0.09275846183300018,
        -0.027270130813121796,
        0.010791354812681675,
        0.10980921238660812,
        0.15985746681690216,
        0.11874573677778244,
        -0.006378202699124813,
        -0.1304832100868225,
        0.08876938372850418,
        0.006836654618382454,
        0.10430944710969925,
        -0.060133058577775955,
        0.008960028178989887,
        0.14228177070617676
      ],
      [
        0.1409519910812378,
        0.05986371636390686,
        -0.06583742052316666,
        -0.013983300887048244,
        0.10567810386419296,
        0.0390716977417469,
        -0.01679607294499874,
        -0.058112964034080505,
        -0.05189527943730354,
        -0.01844179630279541,
        -0.12039797753095627,
        -0.06391732394695282,
        -0.0023178544361144304,
        0.05562800541520119,
        0.12974759936332703,
        -0.09495905041694641,
        0.054258763790130615,
        -0.0625373125076294,
        0.01599355787038803,
        -0.10557392239570618,
        0.00983813963830471,
        0.1274913102388382,
        -0.10437379777431488,
        -0.018619611859321594,
        0.07307994365692139,
        -0.030757592990994453,
        0.0499555841088295,
        0.012159493751823902,
        0.07196434587240219,
        0.07350248098373413,
        0.13200727105140686,
        -0.07800933718681335,
        -0.12316641956567764,
        0.030818723142147064,
        0.13027624785900116,
        0.00832044705748558,
        -0.13385285437107086,
        0.0663037896156311,
        0.08752159029245377,
        0.026083137840032578,
        -0.0072234030812978745,
        -0.03229153901338577,
        -0.09922435879707336,
        0.08147697150707245,
        0.1107649877667427,
        0.007510957773774862,
        -0.07201407849788666,
        -0.07582133263349533,
        0.22790028154850006,
        0.08523000031709671,
        0.013696557842195034,
        0.0367964431643486,
        -0.04610463231801987,
        -0.03363937884569168,
        -0.06378179043531418,
        -0.06952095776796341,
        0.029064981266856194,
        0.11860919743776321,
        -0.18534792959690094,
        0.002160104922950268,
        -0.09474613517522812,
        0.05272184684872627,
        -0.10095127671957016,
        -0.1539987325668335
      ],
      [
        -0.0654798075556755,
        -0.08229960501194,
        -0.0892956331372261,
        0.07315072417259216,
        -0.03595084697008133,
        -0.0788230374455452,
        0.05598700791597366,
        0.057053092867136,
        0.056545939296483994,
        0.05629139021039009,
        -0.07924697548151016,
        0.07464659214019775,
        0.04035178944468498,
        0.12313415110111237,
        -0.08669479191303253,
        0.024182775989174843,
        -0.08843175321817398,
        0.007778267841786146,
        -0.0372665710747242,
        -0.029109986498951912,
        -0.11663124710321426,
        -0.018208572641015053,
        0.11155398935079575,
        0.10750434547662735,
        -0.005555214826017618,
        0.019061582162976265,
        -0.08896028250455856,
        -0.056125152856111526,
        -0.04699549823999405,
        -0.0639963150024414,
        0.04031427949666977,
        -0.12846316397190094,
        -0.10642518848180771,
        -0.11031031608581543,
        0.06808967888355255,
        0.07604914158582687,
        -0.04980240762233734,
        -0.08587544411420822,
        -0.012405641376972198,
        -0.060983359813690186,
        -0.08580472320318222,
        -0.11204890161752701,
        -0.09106194972991943,
        0.04864785075187683,
        0.004517852328717709,
        0.09864398092031479,
        -0.11224967241287231,
        -0.03591255843639374,
        0.12190303951501846,
        -0.14315535128116608,
        0.058599505573511124,
        0.08114956319332123,
        -0.01523145753890276,
        0.03590146452188492,
        -0.10903622210025787,
        -0.07466238737106323,
        -0.04805506393313408,
        -0.06232447922229767,
        -0.12582819163799286,
        -0.09969635307788849,
        0.06917250156402588,
        -0.09136942028999329,
        0.02708433009684086,
        -0.05236544832587242
      ],
      [
        -0.1027911975979805,
        -0.01785014010965824,
        -0.05121190473437309,
        -0.06831363588571548,
        0.02616971917450428,
        -0.08943923562765121,
        -0.12059289216995239,
        0.07384581118822098,
        -0.11516475677490234,
        -0.09959950298070908,
        -0.02878491021692753,
        -0.07848720252513885,
        -0.08931881934404373,
        -0.021895991638302803,
        -0.09695439040660858,
        0.003253223607316613,
        0.03788427636027336,
        0.050386667251586914,
        -0.05313245207071304,
        0.058834780007600784,
        -0.06393587589263916,
        -0.09533002227544785,
        0.023161275312304497,
        0.043761540204286575,
        -0.018104860559105873,
        0.034200381487607956,
        -0.01567453145980835,
        -0.012133479118347168,
        0.1566547006368637,
        0.0478656068444252,
        -0.07053032517433167,
        -0.05634768307209015,
        0.03891568258404732,
        0.06576830893754959,
        -0.06762202084064484,
        0.0004458744660951197,
        0.10979171097278595,
        -0.09301336109638214,
        0.09994658082723618,
        0.11387217044830322,
        -0.08017311990261078,
        -0.08720676600933075,
        -0.010776667855679989,
        0.006072583608329296,
        -0.029302047565579414,
        0.009120812639594078,
        -0.1099592000246048,
        -0.10085748881101608,
        -0.07570414245128632,
        -0.040270525962114334,
        -0.038016412407159805,
        0.06905408203601837,
        0.052109863609075546,
        0.09929017722606659,
        0.023650802671909332,
        -0.10369390994310379,
        -0.026371551677584648,
        0.08610982447862625,
        0.005400955211371183,
        -0.05711884796619415,
        0.0689389705657959,
        -0.11496587842702866,
        -0.017198428511619568,
        0.03722202777862549
      ],
      [
        0.05450078845024109,
        -0.1479150801897049,
        -0.07751253247261047,
        -0.02727610431611538,
        -0.0303038340061903,
        -0.12117745727300644,
        0.039788614958524704,
        -0.08145572245121002,
        -0.022378435358405113,
        0.12422819435596466,
        -0.058341775089502335,
        -0.08410056680440903,
        0.0623861663043499,
        -0.05678961053490639,
        0.009723810479044914,
        -0.11011655628681183,
        -0.08738904446363449,
        -0.015215457417070866,
        0.07278567552566528,
        -0.01989741064608097,
        -0.024740878492593765,
        -0.05593949183821678,
        -0.1168147623538971,
        0.019174465909600258,
        0.008766025304794312,
        0.06826402992010117,
        -0.008626624010503292,
        0.08844977617263794,
        -0.06856565177440643,
        0.029652850702404976,
        0.09619738906621933,
        0.032930124551057816,
        -0.1014752984046936,
        -0.1065838634967804,
        -0.1067468523979187,
        0.07178375124931335,
        -0.08577574044466019,
        0.10216392576694489,
        -0.01267479918897152,
        0.0683417022228241,
        -0.0963682159781456,
        -0.08333618193864822,
        -0.08593667298555374,
        -0.05063464865088463,
        -0.029455773532390594,
        -0.0379180833697319,
        0.004948199260979891,
        0.07256493717432022,
        -0.02415892295539379,
        -0.05297737568616867,
        0.07593138515949249,
        -0.023533251136541367,
        0.08095324039459229,
        -0.03849266096949577,
        -0.07115336507558823,
        0.01396184228360653,
        -0.03807194530963898,
        0.02015073597431183,
        -0.012514002621173859,
        -0.0661458969116211,
        -0.11029499769210815,
        -0.0010584162082523108,
        0.06114254891872406,
        -0.10624054074287415
      ],
      [
        0.025337401777505875,
        0.06342651695013046,
        -0.06534840911626816,
        -0.08091708272695541,
        -0.03141545131802559,
        -0.06976066529750824,
        0.024692237377166748,
        0.04819770157337189,
        0.02498241886496544,
        -0.016293887048959732,
        0.021467089653015137,
        -0.10632440447807312,
        -0.06620127707719803,
        0.11444523930549622,
        -0.03128937631845474,
        0.05016618221998215,
        -0.0821346715092659,
        0.016914041712880135,
        0.07798263430595398,
        0.08213133364915848,
        -0.050853125751018524,
        0.07958264648914337,
        0.023244600743055344,
        -0.08209921419620514,
        0.050399746745824814,
        -0.006965947337448597,
        0.09877029061317444,
        0.03341946378350258,
        -0.010092229582369328,
        0.09345366805791855,
        0.08180952072143555,
        -0.013165021315217018,
        0.08174549788236618,
        0.03354215994477272,
        -0.04013831913471222,
        -0.1326874941587448,
        0.022132664918899536,
        0.008542312309145927,
        0.09424284100532532,
        -0.13883155584335327,
        0.014658549800515175,
        0.03518074005842209,
        -0.04658454656600952,
        0.025733472779393196,
        -0.10181959718465805,
        0.01608983241021633,
        -0.037417877465486526,
        0.0793122872710228,
        -0.017173083499073982,
        -0.0606321282684803,
        -0.09174413979053497,
        -0.07382078468799591,
        0.00982754211872816,
        0.06946759670972824,
        0.004018181469291449,
        0.09114696085453033,
        -0.1618092656135559,
        -0.1017964631319046,
        0.06976483762264252,
        0.07206884026527405,
        0.07886174321174622,
        0.09036009013652802,
        0.09062637388706207,
        -0.06878316402435303
      ],
      [
        -0.024934453889727592,
        -0.10988763719797134,
        0.023141086101531982,
        -0.0582515224814415,
        0.11466793715953827,
        0.12339746206998825,
        0.06657658517360687,
        0.08702147006988525,
        -0.040806934237480164,
        0.060282908380031586,
        0.006308131385594606,
        0.06256245076656342,
        0.01903493143618107,
        -0.030513141304254532,
        -0.08596155047416687,
        0.04283236712217331,
        0.1080785021185875,
        0.08866200596094131,
        -0.1028575673699379,
        -0.05652596801519394,
        0.05107177793979645,
        0.0031868196092545986,
        -0.062273357063531876,
        0.09696220606565475,
        0.08734896779060364,
        0.004640612285584211,
        0.0764799565076828,
        -0.02795948088169098,
        0.0022162646055221558,
        -0.1337055265903473,
        -0.09443829208612442,
        0.032794415950775146,
        -0.12224135547876358,
        0.07686033844947815,
        -0.08759456872940063,
        -0.07438365370035172,
        -0.010166510008275509,
        -0.08128366619348526,
        0.10873477905988693,
        -0.025870023295283318,
        -0.06902812421321869,
        -0.1049395501613617,
        -0.10526524484157562,
        0.08053819835186005,
        0.016325436532497406,
        0.0037673930637538433,
        0.024255454540252686,
        -0.032426126301288605,
        0.09422282129526138,
        -0.02463965117931366,
        0.0066914744675159454,
        -0.07873527705669403,
        0.019676845520734787,
        -0.11262333393096924,
        0.08244507014751434,
        -0.14164459705352783,
        -0.06806892901659012,
        0.06438668817281723,
        -0.043293774127960205,
        -0.05511623993515968,
        -0.13374195992946625,
        0.0732787624001503,
        -0.10382485389709473,
        0.11419404298067093
      ],
      [
        -0.10625260323286057,
        -0.10102945566177368,
        0.053325578570365906,
        -0.07982271164655685,
        -0.14849893748760223,
        -0.15407982468605042,
        -0.06956584751605988,
        0.018320545554161072,
        0.06695505976676941,
        -0.03677241504192352,
        -0.07305175065994263,
        0.009751157835125923,
        -0.017976053059101105,
        0.06425538659095764,
        -0.03996185585856438,
        -0.06933332979679108,
        0.03825780004262924,
        -0.04719968140125275,
        0.02449309267103672,
        0.08676904439926147,
        -0.0724795013666153,
        -0.013033338822424412,
        -0.06696654111146927,
        0.13224412500858307,
        -0.0688435435295105,
        -0.10267136991024017,
        -0.06779281049966812,
        0.04286321997642517,
        -0.0671551302075386,
        -0.03310922905802727,
        -0.10674019157886505,
        0.017772933468222618,
        -0.04108484089374542,
        -0.005960425827652216,
        0.13968464732170105,
        0.07077136635780334,
        0.04727785661816597,
        -0.0642043873667717,
        -0.0509604774415493,
        0.03509565442800522,
        -0.044629212468862534,
        0.13122449815273285,
        0.012672542594373226,
        -0.07065776735544205,
        -0.09608624875545502,
        -0.11066851019859314,
        -0.10911368578672409,
        0.004422175697982311,
        -0.11990008503198624,
        -0.06113810837268829,
        -0.014687664806842804,
        0.13170473277568817,
        -0.001671745558269322,
        -0.13075000047683716,
        0.027068812400102615,
        -0.041931819170713425,
        0.09140918403863907,
        -0.02903388999402523,
        -0.08892987668514252,
        -0.09902703016996384,
        0.005745961796492338,
        -0.04323633760213852,
        -0.0005059395916759968,
        -0.0034471843391656876
      ],
      [
        -0.047113291919231415,
        -0.1020309329032898,
        -0.0674108937382698,
        -0.04086998105049133,
        0.05787244811654091,
        -0.048224642872810364,
        -0.07759100943803787,
        -0.11049749702215195,
        -0.0723816379904747,
        0.09249972552061081,
        -0.10941450297832489,
        0.0030051032081246376,
        -0.08703173696994781,
        -0.09851406514644623,
        0.03745124489068985,
        0.08994007855653763,
        0.006596547085791826,
        -0.09690138697624207,
        0.02953161858022213,
        -0.002025558380410075,
        -0.08684715628623962,
        0.06435275822877884,
        -0.029808685183525085,
        -0.09308971464633942,
        -0.09282046556472778,
        0.11195579171180725,
        0.023299911990761757,
        -0.026760080829262733,
        -0.011686490848660469,
        -0.0953085720539093,
        -0.034666676074266434,
        0.044428545981645584,
        -0.030981527641415596,
        -0.13059787452220917,
        0.10775841772556305,
        -0.10104846954345703,
        0.07682813704013824,
        0.042793214321136475,
        -0.021362999454140663,
        -0.08126585185527802,
        0.11584032326936722,
        -0.010276656597852707,
        -0.0034945299848914146,
        -0.11634521186351776,
        -0.07468453794717789,
        -0.002347138710319996,
        -0.06850006431341171,
        0.11053787171840668,
        0.0951397493481636,
        0.02496851421892643,
        0.06289872527122498,
        0.04465505853295326,
        0.016962328925728798,
        -0.047692932188510895,
        -0.08174875378608704,
        -0.06307416409254074,
        0.000984617741778493,
        -0.09710195660591125,
        -0.11233209073543549,
        -0.10464174300432205,
        -0.0979359894990921,
        0.02596869505941868,
        -0.008717795833945274,
        0.06397785246372223
      ],
      [
        -0.03560924530029297,
        -0.12768922746181488,
        0.07904686033725739,
        -0.10505912452936172,
        -0.060662947595119476,
        0.05100870877504349,
        -0.009669379331171513,
        0.08994319289922714,
        -0.01711706817150116,
        0.046106066554784775,
        0.08388929814100266,
        -0.07123477756977081,
        -0.0584588497877121,
        0.130634605884552,
        0.025238558650016785,
        -0.08129356801509857,
        -0.020236795768141747,
        -0.11889684945344925,
        0.13273656368255615,
        0.018837885931134224,
        0.13347786664962769,
        0.09942969679832458,
        0.10724116861820221,
        0.12639325857162476,
        -0.050594426691532135,
        0.008479063399136066,
        -0.08188917487859726,
        -0.0491391196846962,
        0.0024106320925056934,
        -0.036654282361269,
        0.020964758470654488,
        0.054508209228515625,
