{
  "meta": {
    "input_size": 1,
    "hidden_size": 32,
    "num_layers": 3,
    "rnn_type": "lstm",
    "output_size": 1,
    "dtype": "float32",
    "input_columns": [
      "u0"
    ],
    "output_columns": [
      "y0"
    ],
    "norm": {
      "mean": [
        [
          [
            0.0061549232341349125
          ]
        ]
      ],
      "std": [
        [
          [
            0.022241493687033653
          ]
        ]
      ],
      "axes": [
        0,
        1
      ]
    }
  },
  "weights": {
    "w_ii_l0": [
      [
        -0.10626110434532166
      ],
      [
        0.16332586109638214
      ],
      [
        0.009906826540827751
      ],
      [
        0.04906003922224045
      ],
      [
        0.07957565039396286
      ],
      [
        -0.07010764628648758
      ],
      [
        -0.12120597064495087
      ],
      [
        0.11451167613267899
      ],
      [
        -0.07977300137281418
      ],
      [
        -0.14833839237689972
      ],
      [
        -0.14659178256988525
      ],
      [
        -0.2045644372701645
      ],
      [
        0.1940532624721527
      ],
      [
        0.13287381827831268
      ],
      [
        0.023561816662549973
      ],
      [
        -0.06363147497177124
      ],
      [
        -0.21646450459957123
      ],
      [
        0.15368616580963135
      ],
      [
        0.2038513869047165
      ],
      [
        0.28474316000938416
      ],
      [
        0.028613867238163948
      ],
      [
        -0.24087953567504883
      ],
      [
        0.04181021451950073
      ],
      [
        0.06785040348768234
      ],
      [
        -0.06416177749633789
      ],
      [
        -0.054004453122615814
      ],
      [
        -0.04571832716464996
      ],
      [
        -0.18528281152248383
      ],
      [
        -0.0917494148015976
      ],
      [
        -0.012759103439748287
      ],
      [
        -0.01517073530703783
      ],
      [
        0.32502076029777527
      ]
    ],
    "w_if_l0": [
      [
        -0.18574097752571106
      ],
      [
        -0.07562815397977829
      ],
      [
        -0.03974204137921333
      ],
      [
        -0.12272370606660843
      ],
      [
        -0.10068927705287933
      ],
      [
        0.07674854248762131
      ],
      [
        -0.172408789396286
      ],
      [
        -0.008431745693087578
      ],
      [
        0.0966188982129097
      ],
      [
        0.15254530310630798
      ],
      [
        -0.025889044627547264
      ],
      [
        0.11693062633275986
      ],
      [
        0.06645870208740234
      ],
      [
        -0.12145398557186127
      ],
      [
        -0.08346172422170639
      ],
      [
        -0.010464298538863659
      ],
      [
        0.09014721214771271
      ],
      [
        -0.09432683885097504
      ],
      [
        0.15328359603881836
      ],
      [
        0.06437979638576508
      ],
      [
        -0.10102377086877823
      ],
      [
        0.018641041591763496
      ],
      [
        0.046963226050138474
      ],
      [
        0.03849618881940842
      ],
      [
        0.10927522927522659
      ],
      [
        0.046608660370111465
      ],
      [
        0.10336935520172119
      ],
      [
        0.1596156358718872
      ],
      [
        0.013949689455330372
      ],
      [
        -0.03805367648601532
      ],
      [
        0.09904133528470993
      ],
      [
        0.04296683520078659
      ]
    ],
    "w_ig_l0": [
      [
        0.08431641757488251
      ],
      [
        -0.1106623187661171
      ],
      [
        0.08024148643016815
      ],
      [
        0.07902940362691879
      ],
      [
        -0.09216993302106857
      ],
      [
        0.08302279561758041
      ],
      [
        -0.018996357917785645
      ],
      [
        -0.02728239633142948
      ],
      [
        -0.10474761575460434
      ],
      [
        0.013077293522655964
      ],
      [
        0.0270419679582119
      ],
      [
        -0.08874598145484924
      ],
      [
        -0.09701748937368393
      ],
      [
        0.04817163571715355
      ],
      [
        0.021447109058499336
      ],
      [
        -0.058736950159072876
      ],
      [
        -0.0719839408993721
      ],
      [
        -0.07547976821660995
      ],
      [
        -0.05239509418606758
      ],
      [
        -0.0663541629910469
      ],
      [
        0.11671814322471619
      ],
      [
        0.07137947529554367
      ],
      [
        0.14952707290649414
      ],
      [
        -0.006095490418374538
      ],
      [
        0.042315125465393066
      ],
      [
        -0.08022234588861465
      ],
      [
        -0.03703700006008148
      ],
      [
        -0.005197026766836643
      ],
      [
        0.03708769008517265
      ],
      [
        0.032099250704050064
      ],
      [
        0.11791707575321198
      ],
      [
        -0.06009168550372124
      ]
    ],
    "w_io_l0": [
      [
        -0.2401232123374939
      ],
      [
        -0.14148814976215363
      ],
      [
        0.009302308782935143
      ],
      [
        -0.12575256824493408
      ],
      [
        -0.10158032178878784
      ],
      [
        0.012209486216306686
      ],
      [
        -0.23132102191448212
      ],
      [
        0.1169954389333725
      ],
      [
        -0.17079465091228485
      ],
      [
        -0.13590353727340698
      ],
      [
        -0.016158239915966988
      ],
      [
        0.0014467999571934342
      ],
      [
        0.19373156130313873
      ],
      [
        0.2303880900144577
      ],
      [
        -0.028519246727228165
      ],
      [
        -0.035219043493270874
      ],
      [
        0.0014218848664313555
      ],
      [
        0.11501619964838028
      ],
      [
        0.16208378970623016
      ],
      [
        0.16074231266975403
      ],
      [
        -0.05411949008703232
      ],
      [
        -0.1924138367176056
      ],
      [
        0.1482185572385788
      ],
      [
        -0.054106660187244415
      ],
      [
        -0.022085050120949745
      ],
      [
        -0.035995226353406906
      ],
      [
        0.019152550026774406
      ],
      [
        0.007859884761273861
      ],
      [
        -0.053205184638500214
      ],
      [
        0.1046999841928482
      ],
      [
        -0.02170889638364315
      ],
      [
        0.17420876026153564
      ]
    ],
    "b_ii_l0": [
      0.07697981595993042,
      0.13982079923152924,
      -0.04713393747806549,
      0.1639244258403778,
      0.06648064404726028,
      -0.107878677546978,
      -0.049783121794462204,
      -0.032087892293930054,
      0.0894845649600029,
      -0.13994991779327393,
      0.33552220463752747,
      0.06438445299863815,
      0.1385652869939804,
      0.07140883058309555,
      -0.03723176196217537,
      0.14664573967456818,
      -0.012168027460575104,
      -0.0668797716498375,
      0.0018575513968244195,
      0.04989207535982132,
      0.0048971353098750114,
      0.015352478250861168,
      0.25253966450691223,
      -0.05295436829328537,
      0.23901988565921783,
      -0.024139512330293655,
      0.20564906299114227,
      0.19904208183288574,
      0.04757224768400192,
      0.00940648652613163,
      0.00796299148350954,
      0.017785020172595978
    ],
    "b_if_l0": [
      -0.17970260977745056,
      -0.03536675497889519,
      0.14258070290088654,
      0.18680530786514282,
      -0.07242880761623383,
      0.1469898372888565,
      0.05330747365951538,
      -0.10825831443071365,
      -0.02127407118678093,
      -0.17034929990768433,
      0.09105741232633591,
      0.06262611597776413,
      -0.09949192404747009,
      -0.1465502679347992,
      -0.02222849428653717,
      -0.035627301782369614,
      0.23722365498542786,
      0.008071859367191792,
      0.02658030204474926,
      -0.10881012678146362,
      -0.055259283632040024,
      0.0998922735452652,
      -0.09700482338666916,
      -0.09793047606945038,
      0.05605573579668999,
      0.07283366471529007,
      0.1778656542301178,
      -0.10227814316749573,
      -0.06108025461435318,
      0.08786407858133316,
      0.11710838973522186,
      0.18483738601207733
    ],
    "b_ig_l0": [
      0.1824282854795456,
      -0.051967255771160126,
      9.274514923163224e-06,
      0.1316375583410263,
      0.09829362481832504,
      0.06308896839618683,
      -0.027325011789798737,
      -0.09093248844146729,
      -0.12990839779376984,
      0.10012289136648178,
      0.012072250247001648,
      0.04137822985649109,
      -0.08834647387266159,
      -0.023436037823557854,
      -0.037419017404317856,
      -0.008964058011770248,
      -0.10622154921293259,
      -0.019258961081504822,
      0.11082898825407028,
      -0.040883466601371765,
      0.08073925226926804,
      0.021355729550123215,
      -0.09634162485599518,
      0.011016217060387135,
      0.04309931397438049,
      -0.051604654639959335,
      -0.06872372329235077,
      0.0267794132232666,
      0.02292731963098049,
      -0.047688454389572144,
      -0.15200026333332062,
      -0.1190907433629036
    ],
    "b_io_l0": [
      -0.18410862982273102,
      0.16396480798721313,
      0.17087778449058533,
      -0.024174395948648453,
      0.2136821746826172,
      0.04369862377643585,
      -0.14145657420158386,
      0.07173720747232437,
      0.08309929072856903,
      0.0214128065854311,
      0.2714657783508301,
      0.10831332206726074,
      0.05308428406715393,
      -0.09496448934078217,
      0.201072096824646,
      -0.07626232504844666,
      0.12988151609897614,
      0.13346628844738007,
      -0.18158511817455292,
      0.16527321934700012,
      0.13842231035232544,
      -0.012455623596906662,
      0.118258535861969,
      0.1586867868900299,
      0.26401790976524353,
      0.17345792055130005,
      0.24832534790039062,
      0.16917534172534943,
      -0.0006414536037482321,
      -0.10265592485666275,
      0.04078898951411247,
      0.0501074343919754
    ],
    "w_hi_l0": [
      [
        -0.20236992835998535,
        -0.08980705589056015,
        0.08639317750930786,
        0.14746011793613434,
        -0.04154657945036888,
        0.014454245567321777,
        -0.26765263080596924,
        0.06598671525716782,
        -0.005840522702783346,
        -0.24447815120220184,
        0.0746958926320076,
        -0.18803901970386505,
        0.07066712528467178,
        0.3237209916114807,
        0.22433365881443024,
        0.06298422068357468,
        -0.39477938413619995,
        -0.3699740171432495,
        -0.0818706750869751,
        0.10954851657152176,
        0.04044656082987785,
        0.11483034491539001,
        0.13650818169116974,
        0.028118567541241646,
        -0.3308188021183014,
        0.2490924745798111,
        0.03645158186554909,
        -0.16719120740890503,
        -0.2988016605377197,
        -0.07818952947854996,
        0.05394190177321434,
        -0.22147783637046814
      ],
      [
        -0.06849242746829987,
        0.017592167481780052,
        -0.06863722950220108,
        0.0905516967177391,
        0.02421550638973713,
        0.13560856878757477,
        -0.01856924593448639,
        -0.020630067214369774,
        0.06443175673484802,
        0.04134242981672287,
        0.1042148619890213,
        0.07284071296453476,
        0.026480507105588913,
        -0.05629531666636467,
        -0.08717948198318481,
        -0.13011685013771057,
        -0.09135866165161133,
        0.10793158411979675,
        0.11919819563627243,
        0.1643703430891037,
        -0.11891216039657593,
        -0.2125556319952011,
        0.1895330548286438,
        0.043789222836494446,
        0.15759573876857758,
        0.1007414385676384,
        0.04903752729296684,
        -0.04426746815443039,
        -0.16259825229644775,
        0.14883436262607574,
        -0.03164668753743172,
        -0.21937859058380127
      ],
      [
        0.0163981132209301,
        -0.15779180824756622,
        0.09911629557609558,
        0.16698506474494934,
        -0.08109917491674423,
        0.11254779249429703,
        -0.04047219082713127,
        -0.040110379457473755,
        0.07331302762031555,
        0.052089154720306396,
        -0.011221650056540966,
        0.106488436460495,
        -0.22755517065525055,
        0.03532548248767853,
        0.10418865829706192,
        0.10084156692028046,
        -0.04806075245141983,
        0.05040949955582619,
        -0.10983017086982727,
        -0.1394176334142685,
        -0.007783613633364439,
        -0.17100150883197784,
        -0.007715687621384859,
        0.033514488488435745,
        0.15819351375102997,
        -0.10597945749759674,
        -0.12613269686698914,
        -0.08452670276165009,
        0.09045200049877167,
        -0.005050561390817165,
        0.04511429741978645,
        -0.25875985622406006
      ],
      [
        0.01170746237039566,
        -0.0604013130068779,
        -0.013606247492134571,
        0.1384909600019455,
        0.040710240602493286,
        0.08131042122840881,
        0.14501750469207764,
        0.02256968803703785,
        0.0795365571975708,
        0.1322840452194214,
        -0.03351926431059837,
        0.09305296093225479,
        -0.2865736484527588,
        0.06787783652544022,
        -0.12670327723026276,
        -0.039071351289749146,
        0.17641109228134155,
        -0.0610160231590271,
        0.08111585676670074,
        -0.13559941947460175,
        -0.08582069724798203,
        -0.24974392354488373,
        0.3333355188369751,
        -0.07189542055130005,
        0.20104876160621643,
        0.04502928629517555,
        0.031546782702207565,
        0.009394779801368713,
        0.1344728320837021,
        0.10782651603221893,
        0.10902979224920273,
        0.011901620775461197
      ],
      [
        -0.012216702103614807,
        -0.002807274227961898,
        0.14797404408454895,
        -0.18780609965324402,
        0.12971021234989166,
        0.0888606533408165,
        0.2479303479194641,
        -0.15859846770763397,
        -0.12850163877010345,
        0.005114888772368431,
        -0.1179225966334343,
        0.1525198072195053,
        -0.014547862112522125,
        0.2000240832567215,
        0.076289601624012,
        0.12236519157886505,
        0.1004205048084259,
        -0.15267664194107056,
        0.001201400882564485,
        -0.1869823932647705,
        -0.09665583819150925,
        -0.054160747677087784,
        0.0019080555066466331,
        -0.00564615847542882,
        -0.054048456251621246,
        0.1548844873905182,
        0.1755286604166031,
        0.11933805793523788,
        -0.048905860632658005,
        0.18640609085559845,
        -0.14654172956943512,
        0.007255145814269781
      ],
      [
        0.09213244915008545,
        0.06282825767993927,
        0.006691094022244215,
        0.1569182425737381,
        0.05899680778384209,
        -0.0821371078491211,
        0.08061514794826508,
        -0.09713432937860489,
        -0.036503925919532776,
        0.11550218611955643,
        -0.08388762921094894,
        0.1314387321472168,
        -0.17717023193836212,
        0.2376258820295334,
        0.13724316656589508,
        0.1261775940656662,
        0.15820300579071045,
        0.08436812460422516,
        -0.005769978277385235,
        0.04522618651390076,
        0.009104005992412567,
        -0.01782156154513359,
        0.05279236286878586,
        -0.23252202570438385,
        0.031049666926264763,
        0.17590223252773285,
        0.15335427224636078,
        0.023470444604754448,
        -0.07375471293926239,
        -0.07219216227531433,
        0.05154700204730034,
        -0.16256453096866608
      ],
      [
        -0.41140398383140564,
        -0.02998329885303974,
        -0.0006587873212993145,
        0.29944759607315063,
        0.22918033599853516,
        0.19520249962806702,
        0.17730110883712769,
        -0.09894301742315292,
        0.14810246229171753,
        -0.09291017055511475,
        0.2560872435569763,
        -0.1716061234474182,
        0.024898668751120567,
        0.14717037975788116,
        0.12166695296764374,
        -0.17657534778118134,
        -0.05853426456451416,
        -0.015380486845970154,
        0.03921699523925781,
        0.11997509747743607,
        -0.03789251670241356,
        -0.27010682225227356,
        -0.0838954895734787,
        -0.1380338966846466,
        -0.23768988251686096,
        0.1169760674238205,
        0.04043782129883766,
        -0.10429853200912476,
        -0.0751500278711319,
        0.07138760387897491,
        -0.0437639057636261,
        -0.3115769922733307
      ],
      [
        -0.11860287934541702,
        -0.03634483739733696,
        -0.011803063564002514,
        0.04394743964076042,
        0.1813855767250061,
        -0.06386195868253708,
        -0.1378338634967804,
        0.017996879294514656,
        -0.08210469782352448,
        -0.13653501868247986,
        0.22306379675865173,
        0.10209964215755463,
        -0.2459021359682083,
        0.34007376432418823,
        0.14661628007888794,
        -0.07524631917476654,
        -0.2210737019777298,
        -0.219198077917099,
        -0.00012078744475729764,
        0.004845573566854,
        -0.11417818069458008,
        -0.1199817955493927,
        0.03106829524040222,
        -0.21387238800525665,
        -0.17219647765159607,
        0.07446231693029404,
        -0.052650369703769684,
        -0.0346599817276001,
        -0.026082003489136696,
        -0.15053367614746094,
        0.1060061976313591,
        -0.1470220983028412
      ],
      [
        -0.3018686771392822,
        -0.04126724228262901,
        -0.2147573083639145,
        0.29725581407546997,
        -0.03625413030385971,
        -0.07171779870986938,
        0.17459392547607422,
        -0.21540266275405884,
        0.21041031181812286,
        0.014963079243898392,
        0.12209929525852203,
        -0.040312688797712326,
        0.08152441680431366,
        0.3624226152896881,
        -0.062020670622587204,
        0.06646730750799179,
        -0.10905122011899948,
        -0.02125604823231697,
        -0.048809390515089035,
        0.24108441174030304,
        0.06458115577697754,
        -0.020438021048903465,
        -0.01842181384563446,
        -0.013220801018178463,
        -0.030978098511695862,
        0.10320572555065155,
        0.1261446624994278,
        -0.09084442257881165,
        -0.22857417166233063,
        0.07973829656839371,
        0.0321192666888237,
        -0.3143453001976013
      ],
      [
        -0.03773299604654312,
        0.3030259609222412,
        -0.14007118344306946,
        0.06850685924291611,
        0.08305132389068604,
        -0.060529742389917374,
        0.11871848255395889,
        0.08366526663303375,
        0.06644107401371002,
        0.03790911287069321,
        -0.10719612240791321,
        -0.11864659935235977,
        0.1437465250492096,
        -0.06163544952869415,
        -0.007812212221324444,
        -0.0969337448477745,
        0.11847631633281708,
        0.06341518461704254,
        -0.09905794262886047,
        -0.034128326922655106,
        -0.18479646742343903,
        -0.16239117085933685,
        -0.08338875323534012,
        0.04862800985574722,
        -0.20282390713691711,
        0.0378187820315361,
        0.17524687945842743,
        0.056375857442617416,
        -0.17305749654769897,
        -0.15350507199764252,
        0.07645874470472336,
        -0.030249709263443947
      ],
      [
        -0.11370721459388733,
        -0.17107413709163666,
        -0.220741406083107,
        0.18612909317016602,
        0.030021753162145615,
        0.10757621377706528,
        0.3594183027744293,
        -0.2013658881187439,
        0.15132109820842743,
        0.09025736898183823,
        -0.0795130580663681,
        -0.040796469897031784,
        -0.21065232157707214,
        0.09010659903287888,
        -0.10103565454483032,
        0.062449902296066284,
        -0.043149154633283615,
        -0.11684487015008926,
        0.07504364848136902,
        0.10020364075899124,
        -0.09005677700042725,
        -0.20926034450531006,
        0.1029776930809021,
        0.09603886306285858,
        0.15707476437091827,
        -0.042051006108522415,
        0.07887814193964005,
        0.18284834921360016,
        -0.03855393826961517,
        -0.017031975090503693,
        0.09922537207603455,
        -0.16205331683158875
      ],
      [
        -0.21351931989192963,
        -0.0540032833814621,
        -0.23606085777282715,
        -0.24586863815784454,
        0.20149098336696625,
        0.22737258672714233,
        0.2428244650363922,
        0.04027451202273369,
        0.2452155500650406,
        0.06845506280660629,
        -0.06019260734319687,
        0.1614697128534317,
        -0.11279579997062683,
        0.2450914829969406,
        0.02752109430730343,
        -0.1735786497592926,
        0.023414088413119316,
        0.1162855476140976,
        0.06970817595720291,
        0.0091012017801404,
        -0.25210824608802795,
        -0.03688301518559456,
        0.03209637105464935,
        0.03591163456439972,
        0.013780559413135052,
        0.17480328679084778,
        0.1762481927871704,
        0.16099268198013306,
        -0.08381187915802002,
        0.21432900428771973,
        -0.015304669737815857,
        -0.21910570561885834
      ],
      [
        0.06616880744695663,
        0.017416851595044136,
        0.2943629324436188,
        -0.28074100613594055,
        -0.2499743551015854,
        -0.055958978831768036,
        0.047127388417720795,
        0.04372654855251312,
        -0.09440327435731888,
        0.17480061948299408,
        -0.20026035606861115,
        0.25582051277160645,
        -0.0835053026676178,
        -0.13676387071609497,
        -0.1416318714618683,
        -0.04057418182492256,
        0.2445182055234909,
        0.1575278341770172,
        -0.05911461263895035,
        0.07223671674728394,
        0.0649448037147522,
        -0.14027981460094452,
        0.1593116819858551,
        0.10979699343442917,
        0.05291871726512909,
        0.021706467494368553,
        -0.04315122589468956,
        0.23778289556503296,
        0.29331523180007935,
        0.11194122582674026,
        -0.19435080885887146,
        0.1848319172859192
      ],
      [
        0.1788376122713089,
        -0.12782928347587585,
        0.377472847700119,
        -0.13308800756931305,
        -0.1493026614189148,
        -0.08536501973867416,
        -0.12110506743192673,
        0.12690962851047516,
        -0.26199185848236084,
        -0.1492978036403656,
        0.14168362319469452,
        0.09805234521627426,
        -0.20364172756671906,
        0.039687056094408035,
        -0.12746155261993408,
        0.10622166842222214,
        -0.08587286621332169,
        0.15574511885643005,
        0.021692268550395966,
        0.15991468727588654,
        0.4167760908603668,
        0.20679925382137299,
        0.49788618087768555,
        0.1844717115163803,
        0.422696590423584,
        -0.20684947073459625,
        -0.24997873604297638,
        0.17150025069713593,
        0.16173413395881653,
        -0.15858319401741028,
        -0.06973988562822342,
        -0.0786346048116684
      ],
      [
        -0.16743673384189606,
        0.08050747215747833,
        0.012031108140945435,
        0.009944534860551357,
        0.002503742231056094,
        0.12960684299468994,
        0.22023774683475494,
        -0.07923991233110428,
        0.12604983150959015,
        0.19617141783237457,
        0.15636786818504333,
        -0.08856450021266937,
        -0.23395347595214844,
        0.11870073527097702,
        -0.16319729387760162,
        -0.05233903229236603,
        -0.06442776322364807,
        0.06136639416217804,
        0.19485875964164734,
        0.2018900066614151,
        0.1770419329404831,
        -0.14960764348506927,
        0.09039637446403503,
        -0.05277179554104805,
        0.11601415276527405,
        -0.038410160690546036,
        -0.036479055881500244,
        0.032773591578006744,
        0.13286830484867096,
        -0.02400943636894226,
        -0.17290574312210083,
        -0.12899558246135712
      ],
      [
        -0.2487325370311737,
        -0.09683585166931152,
        -0.18812236189842224,
        -0.1460748016834259,
        0.055235832929611206,
        0.0433669313788414,
        0.1828405112028122,
        -0.1281992644071579,
        0.23248738050460815,
        0.11474225670099258,
        0.06345335394144058,
        0.08459656685590744,
        -0.005899170879274607,
        0.12758447229862213,
        0.20935885608196259,
        0.18678349256515503,
        -0.11375413089990616,
        -0.08268579095602036,
        -0.013294552452862263,
        0.0015072693349793553,
        0.0011200455483049154,
        -0.022843366488814354,
        -0.09133225679397583,
        -0.1377892941236496,
        -0.18468202650547028,
        0.20584921538829803,
        -0.08742202818393707,
        0.027161115780472755,
        0.07502768933773041,
        -0.11919083446264267,
        0.1288628727197647,
        -0.2919257581233978
      ],
      [
        -0.07766807824373245,
        0.09277862310409546,
        -0.17398232221603394,
        -0.09470109641551971,
        -0.10221896320581436,
        -0.0740785077214241,
        0.18472665548324585,
        -0.10030345618724823,
        0.24641478061676025,
        0.21748009324073792,
        0.19254855811595917,
        0.024026406928896904,
        -0.02178444340825081,
        -0.07435617595911026,
        -0.06930845975875854,
        0.1147165447473526,
        -0.1652858406305313,
        0.11790896207094193,
        -0.07068123668432236,
        -0.08430002629756927,
        0.04884461686015129,
        -0.13291794061660767,
        0.22822444140911102,
        -0.07339131087064743,
        -0.02834373526275158,
        -0.03557523712515831,
        -0.01850178651511669,
        -0.006485232152044773,
        -0.12629711627960205,
        -0.05051654204726219,
        0.14376704394817352,
        -0.10670685768127441
      ],
      [
        -0.1537839025259018,
        -0.04252789542078972,
        0.13421550393104553,
        0.2262507528066635,
        -0.15396693348884583,
        0.1252160221338272,
        0.18122121691703796,
        -0.1839706152677536,
        0.036515939980745316,
        0.07598789781332016,
        -0.021353157237172127,
        -0.18277782201766968,
        -0.0879681184887886,
        0.06760837137699127,
        -0.01928674802184105,
        -0.1214284598827362,
        0.05441310629248619,
        0.003426162526011467,
        -0.14501610398292542,
        0.05810133367776871,
        -0.09124314785003662,
        0.0932941734790802,
        0.06174033135175705,
        0.1068090870976448,
        0.13787148892879486,
        0.036500103771686554,
        0.0475032702088356,
        -0.019448142498731613,
        -0.17620117962360382,
        -0.006591760087758303,
        -0.06211765855550766,
        -0.12840884923934937
      ],
      [
        -0.022595243528485298,
        -0.08815139532089233,
        -0.1671069860458374,
        0.03230500593781471,
        0.10251980274915695,
        -0.13836227357387543,
        -0.07398488372564316,
        -0.013804890215396881,
        0.09625557065010071,
        -0.08877098560333252,
        -0.17160257697105408,
        -0.004168091341853142,
        0.12045177817344666,
        0.08810020983219147,
        -0.00878319051116705,
        0.18793626129627228,
        -0.024605613201856613,
        0.11787692457437515,
        -0.04260292649269104,
        -0.09938537329435349,
        0.17033861577510834,
        0.03252106159925461,
        0.01767766661942005,
        0.1089821457862854,
        0.09062620252370834,
        -0.14353230595588684,
        0.12758761644363403,
        0.13195152580738068,
        0.16331934928894043,
        -0.05471622943878174,
        -0.1460244059562683,
        -0.12003706395626068
      ],
      [
        -0.17014776170253754,
        0.009549531154334545,
        -0.059047989547252655,
        -0.2284824252128601,
        -0.006848628167062998,
        -0.19230349361896515,
        -0.06425098329782486,
        0.053130652755498886,
        -0.07784927636384964,
        0.179874449968338,
        0.07865889370441437,
        0.2901046872138977,
        0.044229358434677124,
        -0.08064642548561096,
        0.1277008056640625,
        0.14328932762145996,
        0.10738017410039902,
        -0.12613889575004578,
        -0.17031316459178925,
        0.05059497430920601,
        0.07108385860919952,
        -0.09128136932849884,
        0.20190562307834625,
        0.026401523500680923,
        0.09523999691009521,
        0.10460890829563141,
        -0.10650600492954254,
        -0.11574657261371613,
        0.12530206143856049,
        0.027519574388861656,
        -0.16070300340652466,
        0.04308728501200676
      ],
      [
        0.03526628017425537,
        -0.1158989667892456,
        0.06827840209007263,
        0.1553468257188797,
        0.03821065276861191,
        0.11350711435079575,
        0.02486276999115944,
        0.06174837052822113,
        0.01950964145362377,
        -0.08816138654947281,
        0.07374116778373718,
        0.10311442613601685,
        -0.09944233298301697,
        0.20058681070804596,
        0.05776210129261017,
        -0.09718447178602219,
        -0.15031185746192932,
        0.01426598709076643,
        0.1389329433441162,
        -0.028429491445422173,
        0.1352824866771698,
        -0.0906326100230217,
        0.030946513637900352,
        0.030495472252368927,
        -0.0888560488820076,
        0.27244511246681213,
        -0.15277041494846344,
        -0.11384708434343338,
        -0.026090016588568687,
        -0.09759525209665298,
        -0.014967171475291252,
        -0.14595520496368408
      ],
      [
        -0.22386115789413452,
        -0.18643537163734436,
        -0.2316906452178955,
        0.2817296087741852,
        0.03286137804389,
        0.0511648990213871,
        -0.09683327376842499,
        0.11254435777664185,
        -0.010095236822962761,
        0.05380780249834061,
        0.2557585537433624,
        -0.03863934800028801,
        -0.1725519597530365,
        -0.014677107334136963,
        -0.04501091316342354,
        -0.03125011920928955,
        -0.1802733838558197,
        -0.039947859942913055,
        0.042092327028512955,
        0.20000550150871277,
        0.013913871720433235,
        -0.1243913397192955,
        0.025937292724847794,
        -0.2276780754327774,
        -0.13287892937660217,
        0.16345110535621643,
        0.10095047950744629,
        -0.2212173044681549,
        -0.1497359275817871,
        -0.13472767174243927,
        -0.034355808049440384,
        -0.09517846256494522
      ],
      [
        -0.1395261287689209,
        0.05266030132770538,
        0.007751443423330784,
        -0.27319109439849854,
        -0.0972992330789566,
        0.13163964450359344,
        -0.09344226121902466,
        0.18402573466300964,
        0.06812369078397751,
        0.1696424037218094,
        -0.1414048820734024,
        0.10261813551187515,
        -0.07641515135765076,
        0.021917695179581642,
        -0.11575924605131149,
        0.012172773480415344,
        0.2761465311050415,
        0.0881032943725586,
        -0.07256010919809341,
        -0.17846091091632843,
        0.12348081171512604,
        0.02882251888513565,
        0.26642706990242004,
        -0.10739801824092865,
        0.2472718507051468,
        -0.14707332849502563,
        -0.05791889876127243,
        0.28826040029525757,
        0.23299121856689453,
        0.2358124852180481,
        -0.05759667232632637,
        -0.06846265494823456
      ],
      [
        0.034710776060819626,
        -0.13281650841236115,
        0.004381903447210789,
        -0.010500168427824974,
        -0.16312287747859955,
        -0.13693076372146606,
        0.19068658351898193,
        -0.16700300574302673,
        -0.13575266301631927,
        0.047833338379859924,
        0.05104739964008331,
        -0.13372249901294708,
        -0.2747420370578766,
        0.22395221889019012,
        -0.18504992127418518,
        -0.009072604589164257,
        -0.2247897833585739,
        0.09242908656597137,
        0.1269613355398178,
        0.21608078479766846,
        0.1172034740447998,
        -0.10998906940221786,
        0.09804528951644897,
        0.10978632420301437,
        0.12519752979278564,
        0.1589878648519516,
        0.08120489865541458,
        -0.06090427562594414,
        -0.009192652069032192,
        0.16455677151679993,
        -0.11910080909729004,
        -0.17665015161037445
      ],
      [
        -0.198982834815979,
        0.07824454456567764,
        0.06241309270262718,
        -0.1832093745470047,
        -0.10308080166578293,
        0.09335847944021225,
        0.046393733471632004,
        -0.039087120443582535,
        0.04877076297998428,
        0.018118485808372498,
        -0.25201407074928284,
        0.1495133340358734,
        -0.22135350108146667,
        -0.0042675998993217945,
        0.09826616942882538,
        -0.14602920413017273,
        0.19426773488521576,
        0.061214104294776917,
        -0.08906089514493942,
        -0.051041800528764725,
        0.07894524931907654,
        -0.2055622637271881,
        -0.0680905357003212,
        0.12483199685811996,
        0.07104092091321945,
        0.08754945546388626,
        -0.051245808601379395,
        0.011602356098592281,
        -0.026018965989351273,
        0.15603354573249817,
        -0.16906417906284332,
        -0.018850065767765045
      ],
      [
        0.025285892188549042,
        -0.016603762283921242,
        -0.02461564727127552,
        0.04925578087568283,
        0.13566094636917114,
        -0.027977610006928444,
        0.08414071053266525,
        0.01377854123711586,
        0.19494788348674774,
        -0.09262386709451675,
        0.13295014202594757,
        -0.03033449500799179,
        -0.018313735723495483,
        0.15788789093494415,
        0.04608311131596565,
        -0.02877289243042469,
        0.022944975644350052,
        -0.055049918591976166,
        0.020153582096099854,
        -0.14399753510951996,
        0.1578916758298874,
        -0.06652960181236267,
        0.05386998876929283,
        -0.015120839700102806,
        0.05850256234407425,
        0.08514556288719177,
        0.19053597748279572,
        0.016190186142921448,
        0.18287789821624756,
        0.04315575212240219,
        -0.01918809488415718,
        -0.09926371276378632
      ],
      [
        -0.2314562052488327,
        0.06324922293424606,
        -0.13050535321235657,
        0.07704408466815948,
        0.07856055349111557,
        0.026258328929543495,
        -0.07059627026319504,
        -0.17257912456989288,
        -0.005609116517007351,
        0.03042951226234436,
        0.08919423818588257,
        0.05617794021964073,
        -0.25680771470069885,
        0.22663186490535736,
        0.0929340198636055,
        -0.03026876226067543,
        -0.10814850777387619,
        0.0551278330385685,
        0.07703284174203873,
        0.027872949838638306,
        -0.10218269377946854,
        0.054745882749557495,
        0.003608433762565255,
        0.012358570471405983,
        0.012329132296144962,
        -0.13114860653877258,
        0.16104274988174438,
        0.13203680515289307,
        0.14279502630233765,
        -0.027881868183612823,
        0.11804124712944031,
        -0.24118860065937042
      ],
      [
        -0.10762042552232742,
        0.07529270648956299,
        -0.24135734140872955,
        0.11117547005414963,
        -0.008131676353514194,
        0.133387953042984,
        0.04254578426480293,
        0.019442817196249962,
        0.31211057305336,
        0.1436692625284195,
        0.02162305824458599,
        -0.21886099874973297,
        -0.12984593212604523,
        0.07433737814426422,
        0.08092696219682693,
        0.02538900263607502,
        0.09526320546865463,
        -0.006019674241542816,
        0.05327512323856354,
        -0.18397891521453857,
        0.06447900086641312,
        -0.13542792201042175,
        0.045851677656173706,
        0.10361656546592712,
        0.04520153999328613,
        0.19014786183834076,
        0.1704961210489273,
        -0.1426011025905609,
        -0.017799848690629005,
        0.01690755970776081,
        -0.15545718371868134,
        0.0626552477478981
      ],
      [
        0.06968937069177628,
        0.011985937133431435,
        -0.14512410759925842,
        -0.11856246739625931,
        -0.012798049487173557,
        0.08206471055746078,
        -0.04952184855937958,
        0.12459154427051544,
        0.06656712293624878,
        -0.11782267689704895,
        -0.18386046588420868,
        0.1655121147632599,
        -0.2366195172071457,
        0.22535088658332825,
        -0.05427068471908569,
        0.07656265050172806,
        0.24530772864818573,
        -0.04574510455131531,
        0.12066327780485153,
        -0.09026280045509338,
        -0.0409444235265255,
        -0.06156235933303833,
        0.06816305965185165,
        0.0040324837900698185,
        -0.09636156260967255,
        0.0631999745965004,
        0.23330073058605194,
        -0.005274976138025522,
        -0.015663422644138336,
        0.1347190886735916,
        0.053526245057582855,
        -0.13340258598327637
      ],
      [
        0.10436265170574188,
        0.08828936517238617,
        -0.15015649795532227,
        0.22830304503440857,
        -0.056034818291664124,
        0.03147072717547417,
        -0.08041514456272125,
        0.03311464563012123,
        0.1587611436843872,
        -0.13144834339618683,
        -0.005454220809042454,
        -0.13920798897743225,
        0.035276737064123154,
        0.1241486668586731,
        -0.008764435537159443,
        0.06106867268681526,
        0.06829176098108292,
        0.0828525498509407,
        -0.021241463720798492,
        -0.09855767339468002,
        0.15418605506420135,
        0.0817352682352066,
        -0.15668097138404846,
        -0.2452070564031601,
        -0.0227398369461298,
        0.19443529844284058,
        0.10209763050079346,
        0.05999813601374626,
        0.0892057791352272,
        -0.027393348515033722,
        0.13850952684879303,
        0.034016333520412445
      ],
      [
        0.019311320036649704,
        -0.11356004327535629,
        -0.09508199989795685,
        -0.10981547087430954,
        0.023863166570663452,
        0.17535275220870972,
        0.13330143690109253,
        -0.01856412924826145,
        -0.14286015927791595,
        0.029741715639829636,
        -0.04455948993563652,
        0.05513037368655205,
        -0.1457330584526062,
        -0.037552762776613235,
        0.021411234512925148,
        0.10917472094297409,
        0.03997080773115158,
        -0.12753058969974518,
        0.021015500649809837,
        0.024922728538513184,
        0.13019303977489471,
        0.1019916906952858,
        -0.11065282672643661,
        -0.07336941361427307,
        0.07003461569547653,
        -0.07881763577461243,
        0.0300750769674778,
        0.058400627225637436,
        0.11051584780216217,
        0.03422839194536209,
        -0.010751149617135525,
        0.0926053449511528
      ],
      [
        0.39629030227661133,
        -0.03776856139302254,
        0.19288331270217896,
        0.15888264775276184,
        -0.5226917266845703,
        -0.10277265310287476,
        -0.035060908645391464,
        0.28762951493263245,
        -0.37413257360458374,
        0.10815742611885071,
        0.021391339600086212,
        0.07449159771203995,
        -0.49246376752853394,
        0.04535176604986191,
        -0.3981581926345825,
        0.2953563928604126,
        -0.08800139278173447,
        0.09366600215435028,
        0.03610469028353691,
        0.36209386587142944,
        0.3800535798072815,
        0.125329852104187,
        0.358293741941452,
        0.19773893058300018,
        0.34328800439834595,
        -0.044215116649866104,
        -0.16919809579849243,
        0.05930013582110405,
        -0.05018502101302147,
        -0.023214390501379967,
        0.06057586148381233,
        -0.09294577687978745
      ]
    ],
    "w_hf_l0": [
      [
        -0.1301194578409195,
        0.10473324358463287,
        -0.03425784409046173,
        0.006569358520209789,
        0.01215606089681387,
        -0.06011471152305603,
        0.0548979826271534,
        -0.10031642764806747,
        0.13516607880592346,
        -0.12421879172325134,
        -0.09358318150043488,
        -0.11763577908277512,
        0.24626843631267548,
        -0.05693163350224495,
        -0.10401570051908493,
        0.11564984172582626,
        0.15209510922431946,
        0.00568283349275589,
        -0.024903150275349617,
        -0.042336683720350266,
        -0.021377556025981903,
        -0.09099364280700684,
        -0.24422450363636017,
        0.06643647700548172,
        -0.27342933416366577,
        0.25419872999191284,
        -0.059384871274232864,
        -0.1454925239086151,
        -0.08826055377721786,
        -0.07432053238153458,
        0.15470442175865173,
        -0.051326099783182144
      ],
      [
        0.17446522414684296,
        -0.06518532335758209,
        0.057312726974487305,
        0.16397930681705475,
        -0.1459469348192215,
        0.10681410878896713,
        -0.2080431580543518,
        0.032204046845436096,
        0.10900814086198807,
        -0.06569375842809677,
        -0.06173798069357872,
        0.018252266570925713,
        0.11422455310821533,
        -0.10834494978189468,
        -0.23978465795516968,
        0.16788510978221893,
        0.00850745476782322,
        -0.0034571269061416388,
        0.12208976596593857,
        -0.02201537974178791,
        -0.03425096347928047,
        -0.03370887041091919,
        0.027504632249474525,
        0.21803201735019684,
        0.17530040442943573,
        0.02358817681670189,
        -0.16613052785396576,
        -0.1499861627817154,
        -0.04965326562523842,
        0.11973889917135239,
        0.0953981876373291,
        0.11115370690822601
      ],
      [
        -0.010496568866074085,
        -0.13455654680728912,
        0.02021050825715065,
        0.13416291773319244,
        -0.09848307073116302,
        0.14371263980865479,
        0.0015221124049276114,
        0.09900594502687454,
        -0.2381289005279541,
        -0.05929263308644295,
        0.237060546875,
        0.02452460490167141,
        0.16250872611999512,
        -0.05913963541388512,
        -0.08567216247320175,
        0.0929107591509819,
        -0.0863601416349411,
        -0.07418546825647354,
        -0.10530854761600494,
        -0.11505958437919617,
        0.012314059771597385,
        -0.013239598833024502,
        0.01753157004714012,
        -0.15520793199539185,
        -0.06605292856693268,
        0.02584712579846382,
        -0.13508649170398712,
        0.0948658287525177,
        0.055821094661951065,
        0.10869969427585602,
        0.02919960953295231,
        -0.07551202178001404
      ],
      [
        -0.029337948188185692,
        -0.10539103299379349,
        0.061597082763910294,
        0.0569063201546669,
        -0.052147187292575836,
        -0.06467584520578384,
        0.032641079276800156,
        0.016342896968126297,
        -0.023734839633107185,
        -0.127980038523674,
        -0.02070431597530842,
        -0.2657819986343384,
        0.011452565900981426,
        0.03410256654024124,
        0.09507423639297485,
        0.14846642315387726,
        -0.0862581878900528,
        -0.024410709738731384,
        0.01562681794166565,
        -0.2174513041973114,
        0.1383243054151535,
        -0.07510161399841309,
        -0.10951193422079086,
        0.038564231246709824,
        -0.18471868336200714,
        0.19028089940547943,
        0.06217419356107712,
        0.05541850998997688,
        -0.08519843220710754,
        0.11419249325990677,
        0.08218870311975479,
        0.19750434160232544
      ],
      [
        -0.09386230260133743,
        -0.17746806144714355,
        0.20166143774986267,
        -0.04863162711262703,
        0.028617650270462036,
        -0.04797787219285965,
        -0.14591176807880402,
        0.026846565306186676,
        -0.2045259177684784,
        0.06350468099117279,
        -0.16579420864582062,
        -0.12587840855121613,
        -0.07174084335565567,
        -0.09279610216617584,
        -0.07186678797006607,
        0.09457270801067352,
        0.16925247013568878,
        0.08513902127742767,
        -0.017620893195271492,
        -0.03548968583345413,
        -0.057082854211330414,
        0.05156036838889122,
        -0.06036027893424034,
        0.06397605687379837,
        -0.044430896639823914,
        -0.21005481481552124,
        -0.07774890959262848,
        -0.029478415846824646,
        0.05112389847636223,
        0.07382437586784363,
        -0.09609774500131607,
        -0.006071186158806086
      ],
      [
        0.07681337743997574,
        -0.031037209555506706,
        -0.005629995372146368,
        0.20751696825027466,
        0.07363149523735046,
        0.039758920669555664,
        -0.022919787093997,
        0.16413971781730652,
        -0.05052737519145012,
        -0.12080870568752289,
        -0.03274618089199066,
        -0.17823533713817596,
        0.1425776332616806,
        0.01835867203772068,
        -0.13721898198127747,
        -0.12547703087329865,
        0.03584909811615944,
        -0.18923550844192505,
        -0.1689770519733429,
        -0.13660864531993866,
        0.055932167917490005,
        -0.06670067459344864,
        -0.18848544359207153,
        -0.20999856293201447,
        0.08480874449014664,
        0.10524371266365051,
        -0.14670906960964203,
        -0.0703466534614563,
        0.12626899778842926,
        -0.09719239920377731,
        -0.13618023693561554,
        -0.05525814741849899
      ],
      [
        0.027097187936306,
        0.09110598266124725,
        -0.21605516970157623,
        -0.05870097875595093,
        0.12431944906711578,
        0.0034190998412668705,
        -0.050382114946842194,
        -0.03964928910136223,
        0.17506833374500275,
        -0.12771335244178772,
        0.05877460911870003,
        -0.14245891571044922,
        0.23801182210445404,
        0.09134725481271744,
        0.04728773608803749,
        0.11676850914955139,
        -0.08555933833122253,
        -0.16987518966197968,
        -0.0709121972322464,
        0.028389202430844307,
        0.045499030500650406,
        -0.05757404491305351,
        -0.18988288938999176,
        -0.18861401081085205,
        -0.01768096536397934,
        0.013895508833229542,
        0.2137749344110489,
        0.07035911828279495,
        -0.060332898050546646,
        0.1366937905550003,
        0.07825509458780289,
        0.13283398747444153
      ],
      [
        0.09357375651597977,
        -0.030474737286567688,
        -0.024604881182312965,
        0.13773025572299957,
        0.0883060023188591,
        0.13613784313201904,
        -0.1250484734773636,
        0.09122202545404434,
        0.18220774829387665,
        -0.1672411859035492,
        0.19965820014476776,
        -0.19533312320709229,
        0.14342400431632996,
        -0.0024590115062892437,
        0.1413559913635254,
        0.057733915746212006,
        -0.22148703038692474,
        -0.14582251012325287,
        -0.15392982959747314,
        -0.0021486675832420588,
        0.01853192038834095,
        0.07323997467756271,
        -0.07480936497449875,
        -0.14890357851982117,
        -0.21989694237709045,
        -0.08152071386575699,
        0.045450359582901,
        -0.08701685070991516,
        0.056620072573423386,
        -0.019660713151097298,
        0.059487294405698776,
        0.14650732278823853
      ],
      [
        -0.12411461770534515,
        -0.07879365980625153,
        0.014290116727352142,
        0.06873470544815063,
        0.16301175951957703,
        0.08584530651569366,
        -0.17208226025104523,
        -0.018927432596683502,
        0.051048681139945984,
        0.005981714464724064,
        -0.04317471757531166,
        0.05900902301073074,
        0.05495332181453705,
        -0.2702338397502899,
        0.0681704580783844,
        -0.1498112976551056,
        0.1658564656972885,
        0.01976928301155567,
        -0.047017425298690796,
        -0.11801205575466156,
        0.02858070470392704,
        -0.21097411215305328,
        -0.22736985981464386,
        0.1251855194568634,
        0.0055078468285501,
        0.1140211671590805,
        0.22705233097076416,
        0.023073334246873856,
        -0.19348332285881042,
        0.1907815784215927,
        -0.24213391542434692,
        0.1414215862751007
      ],
      [
        0.05550018325448036,
        0.267458438873291,
        0.025045223534107208,
        0.15100088715553284,
        0.16433408856391907,
        -0.09640977531671524,
        0.09170088171958923,
        0.08482395112514496,
        0.04951947182416916,
        -0.09570005536079407,
        -0.10037221014499664,
        -0.14403469860553741,
        0.008616567589342594,
        0.02432609722018242,
        0.027712324634194374,
        -0.11209408193826675,
        0.2185843139886856,
        -0.20154494047164917,
        -0.15350423753261566,
        -0.14500366151332855,
        -0.10791176557540894,
        0.01729630120098591,
        -0.02927117981016636,
        0.13283604383468628,
        -0.12407303601503372,
        0.1377447098493576,
        0.08716419339179993,
        -0.07792916148900986,
        0.1112842708826065,
        -0.07867380976676941,
        -0.05286962166428566,
        0.1129688173532486
      ],
      [
        -0.05245118960738182,
        -0.23513443768024445,
        0.0063630035147070885,
        0.14349237084388733,
        0.13115337491035461,
        0.12202443182468414,
        0.09843651205301285,
        0.03190434351563454,
        -0.1674777865409851,
        -0.03889203071594238,
        0.0674542486667633,
        -0.0023524106945842505,
        -0.1486637443304062,
        -0.2725599408149719,
        0.057413842529058456,
        -0.0716448500752449,
        0.10107162594795227,
        -0.005359628237783909,
        -0.017010457813739777,
        -0.1686924695968628,
        0.022309355437755585,
        -0.11930996179580688,
        0.18646089732646942,
        0.12267524003982544,
        -0.2216016948223114,
        0.16800536215305328,
        0.05772273615002632,
        0.08291225880384445,
        -0.0553106851875782,
        0.0006707543507218361,
        -0.11721748113632202,
        0.4125509560108185
      ],
      [
        0.25394076108932495,
        0.17849129438400269,
        0.10120508819818497,
        -0.01950281672179699,
        -0.05564522370696068,
        0.18634185194969177,
        0.1539939045906067,
        0.0031904710922390223,
        0.10663080960512161,
        -0.09976702928543091,
        -0.0582813024520874,
        -0.16812531650066376,
        0.19535499811172485,
        0.02647213451564312,
        -0.08743834495544434,
        -0.2579556107521057,
        0.10014402866363525,
        0.10317033529281616,
        0.18171043694019318,
        -0.04201897606253624,
        -0.15270419418811798,
        0.1154785081744194,
        -0.13717970252037048,
        0.04621371626853943,
        -0.14381849765777588,
        -0.10957376658916473,
        0.09400773048400879,
        -0.09663470834493637,
        -0.03642403334379196,
        0.0857217013835907,
        -0.12033499777317047,
        0.0870235487818718
      ],
      [
        0.18935905396938324,
        0.09291906654834747,
        0.2663833200931549,
        -0.14512066543102264,
        -0.04602637514472008,
        0.14768850803375244,
        -0.15136146545410156,
        0.23120611906051636,
        0.012432283721864223,
        0.18731814622879028,
        0.11272162199020386,
        -0.12237908691167831,
        -0.17300301790237427,
        -0.30586349964141846,
        -0.24345651268959045,
        -0.05375850573182106,
        0.1962575912475586,
        -0.029032958671450615,
        0.12970779836177826,
        0.06813642382621765,
        0.025028757750988007,
        0.002453309018164873,
        0.061579298228025436,
        0.27379682660102844,
        0.033058736473321915,
        -0.11347472667694092,
        -0.1429693102836609,
        -0.05698985606431961,
        0.15762215852737427,
        0.09053236991167068,
        0.042279817163944244,
        0.24298524856567383
      ],
      [
        0.056120920926332474,
        0.020308969542384148,
        0.11346162110567093,
        0.05031759664416313,
        -0.0739358514547348,
        -0.1651315540075302,
        0.05738464370369911,
        0.07761023938655853,
        -0.1461624950170517,
        0.0505809485912323,
        0.21962802112102509,
        -0.08781659603118896,
        -0.28731852769851685,
        0.11155989021062851,
        0.03319476544857025,
        0.09759213775396347,
        -0.20219029486179352,
        0.06568200141191483,
        0.10983894765377045,
        0.0767236053943634,
        0.2646065354347229,
        0.20645996928215027,
        0.28302156925201416,
        0.07363133877515793,
        -0.01295335404574871,
        0.14686039090156555,
        0.005469092633575201,
        -0.07461250573396683,
        -0.0825556218624115,
        0.08716623485088348,
        -0.023633159697055817,
        -0.11248720437288284
      ],
      [
        0.034478675574064255,
        -0.11978904902935028,
        0.07285285741090775,
        0.061281733214855194,
        -0.010013578459620476,
        -0.11519758403301239,
        0.056953564286231995,
        0.22146539390087128,
        0.028184574097394943,
        -0.09806445986032486,
        0.11216197162866592,
        -0.08077806979417801,
        -0.061718977987766266,
        -0.0984109416604042,
        -0.11500424891710281,
        0.060642924159765244,
        -0.045770712196826935,
        0.04527188092470169,
        0.09661727398633957,
        -0.17729251086711884,
        -0.11061923205852509,
        0.14696256816387177,
        -0.19508129358291626,
        -0.03512095287442207,
        -0.251030832529068,
        0.08913422375917435,
        0.18960312008857727,
        -0.051441069692373276,
        0.05545175075531006,
        0.08898225426673889,
        0.006683193147182465,
        0.1580560952425003
      ],
      [
        -0.0679955706000328,
        -0.0708785355091095,
        -0.05488278716802597,
        -0.145912304520607,
        -0.058945316821336746,
        0.06404069811105728,
        0.06915292888879776,
        0.01017341110855341,
        0.13234758377075195,
        -0.05284678936004639,
        0.14784935116767883,
        -0.18036071956157684,
        -0.04750640690326691,
        -0.13294756412506104,
        0.1505112498998642,
        0.12051194161176682,
        0.007256701122969389,
        -0.026813844218850136,
        0.07120021432638168,
        -0.24565868079662323,
        -0.14065343141555786,
        0.046279944479465485,
        0.005261504556983709,
        0.10240598767995834,
        0.043369777500629425,
        0.17775359749794006,
        0.07336144894361496,
        0.09234258532524109,
        -0.17498040199279785,
        0.028260326012969017,
        -0.058742374181747437,
        0.19152697920799255
      ],
      [
        0.034136686474084854,
        0.009342876262962818,
        0.09884124249219894,
        0.11641482263803482,
        -0.14943882822990417,
        0.04124061018228531,
        -0.01629704423248768,
        -0.03141888603568077,
        0.012705332599580288,
        -0.1546722948551178,
        -0.0069877589121460915,
        -0.2976040542125702,
        0.041544992476701736,
        -0.2750580310821533,
        0.009925886057317257,
        0.09407857805490494,
        0.09097076207399368,
        0.08784704655408859,
        0.03653653711080551,
        -0.005412581376731396,
        -0.20378069579601288,
        -0.15419241786003113,
        -0.174627885222435,
        0.11736910045146942,
        -0.04297478869557381,
        -0.027386637404561043,
        0.27693793177604675,
        0.08818510174751282,
        -0.14561700820922852,
        -0.03693843632936478,
        0.08797658234834671,
        0.30922216176986694
      ],
      [
        0.22558513283729553,
        0.10201793164014816,
        0.11709760874509811,
        0.23698705434799194,
        0.12643641233444214,
        -0.12215837091207504,
        -0.03236338123679161,
        -0.10857110470533371,
        0.06638827174901962,
        -0.16875427961349487,
        -0.007032639347016811,
        -0.08868677914142609,
        -0.052885472774505615,
        -0.21985730528831482,
        -0.07952716946601868,
        -0.059414636343717575,
        0.03460691124200821,
        0.13760773837566376,
        0.09162496775388718,
        -0.06441526114940643,
        -0.13170672953128815,
        -0.14742058515548706,
        0.03995814919471741,
        0.14967729151248932,
        -0.23180796205997467,
        0.19918577373027802,
        0.1067403182387352,
        -0.05294564738869667,
        0.04110611230134964,
        -0.09812688082456589,
        0.06118707358837128,
        0.07860583811998367
      ],
      [
        0.15723513066768646,
        0.12470308691263199,
        -0.1904303878545761,
        -0.0113040367141366,
        0.19907070696353912,
        -0.0965082198381424,
        0.10341450572013855,
        0.14961497485637665,
        -0.03245919197797775,
        -0.1624133586883545,
        0.03923454508185387,
        0.10777702182531357,
        0.00427194032818079,
        0.01465985644608736,
        0.0179741270840168,
        -0.07264949381351471,
        -0.06034371629357338,
        -0.11789365112781525,
        -0.14555135369300842,
        -0.04880459979176521,
        -0.003362353891134262,
        -0.1609373539686203,
        -0.14257141947746277,
        -0.17855335772037506,
        -0.03361821919679642,
        0.057185810059309006,
        0.08024591207504272,
        0.049158621579408646,
        0.0880860760807991,
        -0.09361853450536728,
        0.013507316820323467,
        -0.14241699874401093
      ],
      [
        -0.08026277273893356,
        0.03185073658823967,
        0.026263197883963585,
        0.012541281059384346,
        -0.11365579068660736,
        -0.0045050689950585365,
        -0.16273215413093567,
        0.07267778366804123,
        -0.15343469381332397,
        0.06565467268228531,
        -0.007179148029536009,
        0.12745818495750427,
        0.18931330740451813,
        -0.0038088387809693813,
        -0.060375481843948364,
        0.04738149791955948,
        -0.04022713005542755,
        -0.02630438096821308,
        -0.12699149549007416,
        0.009771283715963364,
        0.19724920392036438,
        0.18232907354831696,
        -0.04290604591369629,
        0.12385039031505585,
        -0.04582172632217407,
        -0.1424754410982132,
        -0.015620637685060501,
        -0.18829940259456635,
        0.12428160756826401,
        0.04768206551671028,
        0.1567540466785431,
        0.18134726583957672
      ],
      [
        -0.13902965188026428,
        -0.17105822265148163,
        -0.016847088932991028,
        -0.09568304568529129,
        0.1358180046081543,
        -0.15768468379974365,
        -0.1990988403558731,
        0.020054711028933525,
        0.22179265320301056,
        -0.1196720078587532,
        -0.08211935311555862,
        -0.11810667812824249,
        -0.0612008236348629,
        -0.2550595700740814,
        -0.042447660118341446,
        0.014528496190905571,
        0.06012871488928795,
        -0.003502708626911044,
        -0.009746607393026352,
        -0.19477549195289612,
        0.015262041240930557,
        0.045302219688892365,
        -0.11111457645893097,
        0.04710039496421814,
        -0.1492316871881485,
        0.12867183983325958,
        -0.06915692985057831,
        -0.1779194325208664,
        0.05498192831873894,
        -0.012208702974021435,
        0.03797110915184021,
        0.20968642830848694
      ],
      [
        -0.07472692430019379,
        0.03093835525214672,
        -0.006513977888971567,
        0.02352866344153881,
        0.14142468571662903,
        -0.0951397716999054,
        -0.1629437655210495,
        -0.10479813069105148,
        0.08013906329870224,
        0.01985550858080387,
        0.20298103988170624,
        0.07391966134309769,
        -0.08662667125463486,
        -0.07668079435825348,
        -0.10064883530139923,
        0.10049070417881012,
        0.056370656937360764,
        -0.1720007210969925,
        -0.01312717329710722,
        -0.11348692327737808,
        -0.20568738877773285,
        -0.010762834921479225,
        -0.16275012493133545,
        -0.12087244540452957,
        -0.0024147573858499527,
        -0.08982932567596436,
        -0.13437852263450623,
        0.02192160300910473,
        0.04645024240016937,
        0.0679423063993454,
        -0.14628028869628906,
        0.14540846645832062
      ],
      [
        -0.10304795950651169,
        -0.08547981828451157,
        0.019259879365563393,
        0.08549369871616364,
        -0.1941402107477188,
        0.1089039146900177,
        -0.03274328261613846,
        0.13563138246536255,
        -0.1260019689798355,
        0.08361845463514328,
        -0.014820126816630363,
        0.05322955548763275,
        0.023027125746011734,
        -0.19351302087306976,
        -0.21004673838615417,
        -0.011725208722054958,
        0.016869373619556427,
        0.12658794224262238,
        0.16618232429027557,
        -0.02269110456109047,
        0.044050008058547974,
        0.07111425697803497,
        0.12197592854499817,
        0.025002144277095795,
        0.1252214014530182,
        -0.23158623278141022,
        0.09082313627004623,
        -0.05762595683336258,
        0.08028370141983032,
        -0.11257098615169525,
        -0.06924945116043091,
        0.35415148735046387
      ],
      [
        0.1638815551996231,
        -0.08212989568710327,
        0.11912324279546738,
        0.16502563655376434,
        0.14652827382087708,
        -0.15587157011032104,
        0.007003906648606062,
        0.15889650583267212,
        -0.14044713973999023,
        0.14767290651798248,
        -0.001679456327110529,
        0.07692612707614899,
        0.16173718869686127,
        -0.18415111303329468,
        0.09134240448474884,
        -0.12110147625207901,
        -0.1699768751859665,
        0.024280425161123276,
        0.13807448744773865,
        -0.19385340809822083,
        0.13517090678215027,
        0.14095112681388855,
        -0.19137267768383026,
        0.12118362635374069,
        -0.11517135798931122,
        -0.09398511052131653,
        0.18845322728157043,
        0.028070522472262383,
        -0.1771685630083084,
        -0.10248677432537079,
        -0.050539903342723846,
        0.062063902616500854
      ],
      [
        0.1097407191991806,
        0.03190771862864494,
        -0.019004058092832565,
        -0.03872445598244667,
        -0.09224919974803925,
        0.14275988936424255,
        0.16139349341392517,
        -0.027190785855054855,
        -0.15310755372047424,
        0.1025182232260704,
        -0.2081054300069809,
        0.028067322447896004,
        0.2351713478565216,
        -0.3121564984321594,
        -0.018798010423779488,
        0.05369066819548607,
        0.035259976983070374,
        0.09300263971090317,
        0.050857558846473694,
        -0.224349245429039,
        0.0561445951461792,
        0.12520934641361237,
        -0.16202957928180695,
        -0.00454308558255434,
        -0.16115784645080566,
        -0.1619662195444107,
        0.05006388947367668,
        0.01914992369711399,
        0.17139387130737305,
        0.16167636215686798,
        -0.029030626639723778,
        0.28548306226730347
      ],
      [
        0.1729695051908493,
        0.06232978403568268,
        -0.14940662682056427,
        -0.16424915194511414,
        -0.17286451160907745,
        0.04364856332540512,
        0.13030526041984558,
        0.11093297600746155,
        -0.16453613340854645,
        0.006946069188416004,
        -0.01276159007102251,
        -0.1356741189956665,
        -0.006643337197601795,
        0.01947602443397045,
        0.09577406197786331,
        0.0689815878868103,
        0.20069649815559387,
        0.19153977930545807,
        0.05923277139663696,
        -0.0019502363866195083,
        0.012139411643147469,
        0.18246084451675415,
        -0.1235068142414093,
        -0.1337788999080658,
        -0.162109836935997,
        0.015801850706338882,
        0.14543801546096802,
        0.05803139880299568,
        0.1308232992887497,
        4.2105406464543194e-05,
        0.01695389300584793,
        0.16801568865776062
      ],
      [
        0.03101176582276821,
        -0.03428754210472107,
        0.01150983665138483,
        0.11619063466787338,
        0.11504989862442017,
        -0.12575925886631012,
        0.11299654096364975,
        0.15111492574214935,
        0.1919081211090088,
        -0.15034230053424835,
        0.011210972443223,
        0.024040408432483673,
        -0.042836833745241165,
        0.03067939728498459,
        0.04215781018137932,
        -0.16181659698486328,
        -0.29543474316596985,
        0.08443710207939148,
        -0.07759063690900803,
        -0.061968982219696045,
        -0.07250142097473145,
        -0.06955350190401077,
        -0.04075092449784279,
        0.11522924900054932,
        -0.26201388239860535,
        -8.37666175357299e-06,
        0.20470689237117767,
        0.003657520515844226,
        -0.12533842027187347,
        0.14068767428398132,
        -0.14705869555473328,
        0.15018856525421143
      ],
      [
        0.18084025382995605,
        0.18453574180603027,
        0.02903483621776104,
        -0.05488723888993263,
        -0.028145715594291687,
        -0.0034442360047250986,
        -0.11708799749612808,
        -0.002094549359753728,
        0.14184099435806274,
        0.04136646166443825,
        0.11894243955612183,
        -0.040310654789209366,
        0.16910099983215332,
        -0.13809922337532043,
        0.12036148458719254,
        0.017659369856119156,
        0.016296129673719406,
        0.046188972890377045,
        0.0924515351653099,
        0.05349776893854141,
        -0.23472952842712402,
        0.06905604153871536,
        -0.09972059726715088,
        -0.04110252112150192,
        -0.04352803900837898,
        0.08368583023548126,
        0.1623471975326538,
        -0.005034564528614283,
        0.023561440408229828,
        -0.11545946449041367,
        -0.2046903371810913,
        0.27109044790267944
      ],
      [
        0.14866112172603607,
        -0.04229480400681496,
        0.14584524929523468,
        -0.015752160921692848,
        -0.05280706658959389,
        0.11911275237798691,
        -0.114357590675354,
        -0.1087760254740715,
        0.024281088262796402,
        0.16334256529808044,
        0.1039494201540947,
        -0.13665175437927246,
        0.10846079140901566,
        -0.15298958122730255,
        -0.08013742417097092,
        0.06953427940607071,
        -0.05418451130390167,
        0.0068856230936944485,
        -0.008959859609603882,
        0.03363223746418953,
        -0.036088425666093826,
        0.1790458858013153,
        -0.14450980722904205,
        0.029779385775327682,
        -0.07010108232498169,
        0.12631632387638092,
        -0.0700061172246933,
        -0.040488351136446,
        0.009306458756327629,
        0.09225974977016449,
        -0.13380655646324158,
        0.16329877078533173
      ],
      [
        -0.04243176057934761,
        0.03628747910261154,
        0.10782847553491592,
        0.04584068804979324,
        -0.013352550566196442,
        -0.08494513481855392,
        -0.06901558488607407,
        -0.00035827356623485684,
        -0.08862974494695663,
        -0.032186876982450485,
        -0.047017354518175125,
        -0.16776932775974274,
        0.07923556864261627,
        -0.06097019463777542,
        0.2336290031671524,
        -0.13019073009490967,
        0.029796486720442772,
        -0.10985749214887619,
        -0.0376497283577919,
        -0.08581086993217468,
        -0.006682896986603737,
        0.0416143536567688,
        -0.10693761706352234,
        0.04910966381430626,
        0.04235672578215599,
        -0.005797682795673609,
        0.05111253634095192,
        0.05364219471812248,
        -0.18058927357196808,
        -0.039262838661670685,
        -0.060240425169467926,
        0.05649687722325325
      ],
      [
        -0.14185836911201477,
        0.14799512922763824,
        -0.14854788780212402,
        -0.020426088944077492,
        0.10743780434131622,
        0.16258616745471954,
        -0.13071602582931519,
        -0.01730235479772091,
        -0.12564696371555328,
        -0.13755515217781067,
        0.19787906110286713,
        0.0731658786535263,
        0.09358983486890793,
        -0.06986866891384125,
        -0.08727046847343445,
        -0.17757785320281982,
        0.007532947231084108,
        -0.11485662311315536,
        -0.0634712502360344,
        -0.0836809054017067,
        -0.09006859362125397,
        -0.01265675202012062,
        0.10606569796800613,
        -0.15797939896583557,
        -0.060127563774585724,
        0.09729594737291336,
        0.07301351428031921,
        -0.06760426610708237,
        -0.09789084643125534,
        -0.010375418700277805,
        0.05325869098305702,
        0.19007395207881927
      ],
      [
        0.1933704912662506,
        -0.29305723309516907,
        -0.04950123280286789,
        0.19054362177848816,
        0.022743934765458107,
        -0.12816961109638214,
        -0.20006181299686432,
        -0.03879516199231148,
        0.05635280907154083,
        -0.08603855967521667,
        0.16577868163585663,
        0.15332666039466858,
        -0.16417233645915985,
        0.07451233267784119,
        0.04716619849205017,
        0.18776975572109222,
        -0.047880034893751144,
        -0.19916118681430817,
        -0.017918599769473076,
        0.04730978235602379,
        0.12254850566387177,
        0.11213461309671402,
        0.21114563941955566,
        0.09463798999786377,
        -0.19957014918327332,
        0.05862157419323921,
        -0.08229228854179382,
        -0.08319271355867386,
        -0.03424772992730141,
        -0.05911886319518089,
        0.13180376589298248,
        0.06519269943237305
      ]
    ],
    "w_hg_l0": [
      [
        -0.14714275300502777,
        -0.023121340200304985,
        -0.09771019965410233,
        -0.18387970328330994,
        -0.034341976046562195,
        0.04997274652123451,
        -0.041318170726299286,
        0.0010753556853160262,
        -0.0628802627325058,
        -0.013285265304148197,
        -0.29632917046546936,
        0.17128954827785492,
        0.09148717671632767,
        -0.347792387008667,
        -0.08165816217660904,
        0.048105884343385696,
        0.04530038684606552,
        0.2450495809316635,
        0.15997450053691864,
        0.09510121494531631,
        0.13846267759799957,
        -0.05058078467845917,
        0.03263493999838829,
        0.016330841928720474,
        -0.006357463542371988,
        0.0317804180085659,
        0.1758383810520172,
        0.0998101457953453,
        -0.06341368705034256,
        -0.041532792150974274,
        -0.03556350991129875,
        0.20488031208515167
      ],
      [
        -0.09174682199954987,
        -0.08091467618942261,
        -0.25318747758865356,
        0.27870455384254456,
        0.26475903391838074,
        0.08605886250734329,
        0.1653273105621338,
        -0.2802274823188782,
        0.1013837680220604,
        -0.09791504591703415,
        0.234291210770607,
        -0.03777973726391792,
        0.2559157609939575,
        0.15567715466022491,
        0.09257159382104874,
        0.05517230182886124,
        0.021640686318278313,
        0.0637255534529686,
        -0.12282513827085495,
        -0.18017266690731049,
        -0.19023406505584717,
        -0.08211401104927063,
        -0.19883830845355988,
        -0.2696664035320282,
        -0.08205513656139374,
        0.13198871910572052,
        0.0773555114865303,
        0.04900145158171654,
        -0.060386478900909424,
        0.08420170843601227,
        -0.16193349659442902,
        -0.25866997241973877
      ],
      [
        0.00768881943076849,
        0.03438331559300423,
        0.13017264008522034,
        -0.1419580727815628,
        -0.040655940771102905,
        0.038567233830690384,
        0.23622876405715942,
        -0.043067801743745804,
        0.037576824426651,
        -0.08977548778057098,
        -0.23325270414352417,
        -0.14009682834148407,
        0.08154162764549255,
        0.08481019735336304,
        -0.23583783209323883,
        -0.21663661301136017,
        0.24668647348880768,
        0.03224681317806244,
        -0.09664325416088104,
        -0.15708965063095093,
        -0.057906173169612885,
        -0.005844161380082369,
        -0.05653993785381317,
        0.2182680070400238,
        0.20615623891353607,
        -0.2135421484708786,
        0.14889787137508392,
        0.12888047099113464,
        0.24447739124298096,
        -0.04392017796635628,
        -0.08629713207483292,
        0.12322510033845901
      ],
      [
        -0.033299993723630905,
        -0.20595704019069672,
        0.27258118987083435,
        -0.10198596864938736,
        0.05423080176115036,
        -0.2494073361158371,
        -0.15929950773715973,
        0.19179509580135345,
        -0.2106986939907074,
        -0.20437969267368317,
        0.05888999253511429,
        0.08863656222820282,
        -0.054000210016965866,
        -0.004405410960316658,
        -0.3025708794593811,
        0.18329185247421265,
        -0.10547734797000885,
        0.07621833682060242,
        -0.14767341315746307,
        0.1537550687789917,
        0.0203991886228323,
        0.15957915782928467,
        0.09862594306468964,
        0.062279075384140015,
        0.2009715586900711,
        -0.03486619517207146,
        -0.20892830193042755,
        -0.19280081987380981,
        -0.053872250020504,
        -0.0270059984177351,
        0.20509366691112518,
        -0.08994296938180923
      ],
      [
        0.04664653167128563,
        -0.20017285645008087,
        0.013268218375742435,
        0.037778835743665695,
        -0.01423589326441288,
        -0.17665711045265198,
        -0.19512951374053955,
        0.07527068257331848,
        0.021336309611797333,
        -0.1965232491493225,
        0.23654498159885406,
        -0.17062652111053467,
        -0.10010401904582977,
        0.2731398344039917,
        0.1064230352640152,
        0.17655804753303528,
        -0.3151184022426605,
        0.005320852622389793,
        -0.0625518411397934,
        0.16945920884609222,
        -0.1136963963508606,
        -0.05143566429615021,
        -0.14554856717586517,
        0.047188643366098404,
        -0.1435811072587967,
        0.10314132273197174,
        -0.014881634153425694,
        -0.21224789321422577,
        -0.11475969851016998,
        -0.23202931880950928,
        -0.09045212715864182,
        -0.15651246905326843
      ],
      [
        -0.03487603738903999,
        -0.13916558027267456,
        -0.10756365209817886,
        0.05739189684391022,
        0.0402299240231514,
        -0.034768905490636826,
        0.14857828617095947,
        -0.0905684307217598,
        0.07800626754760742,
        -0.07607754319906235,
        -0.027414634823799133,
        -0.15095637738704681,
        -0.012991302646696568,
        0.06196906790137291,
        -0.051605064421892166,
        0.01616249606013298,
        -0.09470124542713165,
        -0.0037285543512552977,
        0.10591400414705276,
        0.19664530456066132,
        -0.2505636215209961,
        -0.213948592543602,
        -0.06772060692310333,
        -0.1775684654712677,
        -0.1725529432296753,
        0.09750892221927643,
        -0.003261975944042206,
        -0.09692417830228806,
        -0.023030055686831474,
        -0.09286479651927948,
        0.06505101919174194,
        -0.2753361761569977
      ],
      [
        -0.13809338212013245,
        -0.014515145681798458,
        -0.03361835330724716,
        -0.0018864166922867298,
        0.20728451013565063,
        0.17270761728286743,
        0.0931013897061348,
        -0.043240878731012344,
        0.09628905355930328,
        -0.08852752298116684,
        0.05908054858446121,
        -0.2378474920988083,
        -0.11300703883171082,
        0.26096948981285095,
        0.280682235956192,
        -0.09811017662286758,
        -0.10426284372806549,
        -0.1262912005186081,
        0.0073087397031486034,
        -0.11205390840768814,
        -0.21623943746089935,
        -0.18659213185310364,
        -0.2102947235107422,
        -0.20930679142475128,
        -0.21957258880138397,
        -0.008247725665569305,
        -0.017828868702054024,
        -0.14486479759216309,
        0.11628197878599167,
        -0.10127950459718704,
        -0.10006146132946014,
        0.007594681810587645
      ],
      [
        0.1638316661119461,
        -0.12536358833312988,
        -0.06776487827301025,
        -0.24969340860843658,
        0.08158666640520096,
        0.07062380015850067,
        -0.08213718235492706,
        0.11364421248435974,
        -0.25956350564956665,
        0.18837414681911469,
        -0.011853578500449657,
        0.036476749926805496,
        0.16574726998806,
        -0.21957407891750336,
        -0.25508207082748413,
        -0.18222706019878387,
        -0.054828155785799026,
        0.11881934106349945,
        0.024715516716241837,
        -0.07792184501886368,
        0.10690402239561081,
        0.01985403709113598,
        0.01955304481089115,
        -0.035047225654125214,
        0.14206571877002716,
        -0.13243995606899261,
        0.1590883433818817,
        0.11946607381105423,
        0.1926117241382599,
        -0.08340609818696976,
        -0.2168859839439392,
        0.16169697046279907
      ],
      [
        -0.17522740364074707,
        0.022175487130880356,
        0.05366317927837372,
        0.027790337800979614,
        0.05853841081261635,
        0.012488778680562973,
        -0.06952131539583206,
        -0.0025934367440640926,
        -0.04941222071647644,
        -0.14028511941432953,
        0.3026757538318634,
        -0.20681411027908325,
        -0.07093720138072968,
        0.15414223074913025,
        0.06961310654878616,
        -0.10597623884677887,
        -0.027135398238897324,
        -0.1566801369190216,
        2.165815567423124e-05,
        -0.0727042630314827,
        -0.16679035127162933,
        0.026808522641658783,
        -0.1958083212375641,
        -0.24863991141319275,
        -0.0402972437441349,
        0.27195435762405396,
        -0.11078750342130661,
        -0.13728174567222595,
        -0.07733634114265442,
        -0.08067414909601212,
        0.2466864138841629,
        -0.15821993350982666
      ],
      [
        -0.08155335485935211,
        0.189274400472641,
        -0.11753718554973602,
        -0.05076705291867256,
        0.10056431591510773,
        0.018838530406355858,
        0.1822328269481659,
        -0.21135754883289337,
        0.23866115510463715,
        0.11816799640655518,
        -0.24522221088409424,
        -0.21517355740070343,
        0.032918691635131836,
        -0.13817274570465088,
        0.04739357903599739,
        0.10412310808897018,
        -0.061393432319164276,
        0.07655169069766998,
        -0.12294094264507294,
        0.016343651339411736,
        -0.283820241689682,
        0.002128221793100238,
        -0.1916118711233139,
        -0.07117744535207748,
        -0.025928717106580734,
        -0.1181802749633789,
        0.12766990065574646,
        -0.11218894273042679,
        0.050713181495666504,
        0.07374931871891022,
        -0.07035819441080093,
        0.010197220370173454
      ],
      [
        0.24937883019447327,
        -0.2999052405357361,
        0.08000700920820236,
        -0.08287487924098969,
        -0.23147527873516083,
        -0.11687301099300385,
        -0.1924995630979538,
        0.050336938351392746,
        -0.291852742433548,
        -0.053357020020484924,
        0.0011559455888345838,
        0.050515081733465195,
        -0.1576392650604248,
        0.15987496078014374,
        -0.32468098402023315,
        0.1596413403749466,
        -0.31113219261169434,
        0.03248664364218712,
        -0.03613436967134476,
        0.18672610819339752,
        0.24049341678619385,
        0.13762500882148743,
        0.18275566399097443,
        0.10479091852903366,
        0.26777368783950806,
        0.10076569020748138,
        -0.2071710228919983,
        -0.1490757316350937,
        0.13810531795024872,
        -0.12513034045696259,
        -0.059800807386636734,
        0.049662791192531586
      ],
      [
        0.07075857371091843,
        -0.025740480050444603,
        0.06610450148582458,
        -0.20141750574111938,
        -0.05053238943219185,
        -0.039214711636304855,
        0.17468951642513275,
        0.026240713894367218,
        0.1459607183933258,
        0.20467616617679596,
        -0.35996749997138977,
        0.07493039220571518,
        -0.03899623081088066,
        -0.09290628135204315,
        -0.056419409811496735,
        -0.18799327313899994,
        0.22727282345294952,
        -0.09225105494260788,
        0.12660378217697144,
        -0.09284328669309616,
        0.0367620550096035,
        -0.2400686889886856,
        -0.052570901811122894,
        0.02214471437036991,
        0.14336441457271576,
        -0.09101760387420654,
        -0.009782465174794197,
        0.020783791318535805,
        -0.007701455149799585,
        0.09180479496717453,
        0.013428883627057076,
        -0.01567663811147213
      ],
      [
        0.09023429453372955,
        -0.1807984709739685,
        0.007788072340190411,
        0.03691728040575981,
        0.2745993435382843,
        0.11006589978933334,
        -0.17365474998950958,
        -0.13371726870536804,
        0.032520342618227005,
        -0.2054433375597,
        0.27270081639289856,
        -0.1744828224182129,
        0.05417577922344208,
        0.15970666706562042,
        0.2228633016347885,
        0.04899633303284645,
        -0.054205272346735,
        -0.2694941461086273,
        0.053418852388858795,
        -0.056335218250751495,
        -0.23825150728225708,
        -0.09526365995407104,
        -0.21964384615421295,
        -0.08988598734140396,
        -0.31399232149124146,
        0.0890519767999649,
        0.08914386481046677,
        -0.24918293952941895,
        -0.04463505372405052,
        0.07101813703775406,
        -0.08025205135345459,
        -0.13320408761501312
      ],
      [
        -0.11450285464525223,
        -0.16710208356380463,
        -0.03229983523488045,
        0.005735172890126705,
        -0.12279033660888672,
        0.00875892024487257,
        -0.12598969042301178,
        0.2274777591228485,
        0.07136929780244827,
        -0.032797303050756454,
        -0.03976244851946831,
        0.22122588753700256,
        -0.2357809990644455,
        0.07249682396650314,
        -0.04709922894835472,
        0.05316164717078209,
        0.049553610384464264,
        0.1882682889699936,
        -0.1018262654542923,
        0.16157783567905426,
        0.12842373549938202,
        0.15062665939331055,
        0.2770545184612274,
        0.22453966736793518,
        0.04854544252157211,
        -0.19933758676052094,
        -0.059079769998788834,
        0.032668858766555786,
        -0.14321577548980713,
        -0.04445328190922737,
        0.10253579169511795,
        -0.11959964781999588
      ],
      [
        -0.12054657936096191,
        -0.053927890956401825,
        -0.15359936654567719,
        0.31736087799072266,
        0.18805932998657227,
        0.004724995698779821,
        -0.1247459352016449,
        -0.021186018362641335,
        -0.11501190066337585,
        0.06365790963172913,
        0.20578986406326294,
        -0.04826758801937103,
        0.052665140479803085,
        0.009822588413953781,
        0.038071248680353165,
        0.021377380937337875,
        -0.36386609077453613,
        -0.291506290435791,
        -0.1907392144203186,
        0.14042912423610687,
        -0.08894363790750504,
        -0.040713828057050705,
        0.1309615969657898,
        -0.09046286344528198,
        -0.30656003952026367,
        -0.0002592200762592256,
        -0.10354925692081451,
        -0.10299956798553467,
        -0.22686851024627686,
        -0.1329738348722458,
        0.10507318377494812,
        -0.26138418912887573
      ],
      [
        0.013235379941761494,
        -0.20717352628707886,
        0.13287660479545593,
        -0.2079842984676361,
        -0.1693522334098816,
        -0.1333899348974228,
        -0.05289807543158531,
        -0.11338764429092407,
        -0.17361603677272797,
        0.028812123462557793,
        -0.1298189014196396,
        0.22460119426250458,
        -0.22304262220859528,
        0.02287369780242443,
        -0.1979401409626007,
        0.07733429223299026,
        -0.08852574974298477,
        -0.06472781300544739,
        0.035694751888513565,
        -0.11627250909805298,
        -0.0952896997332573,
        -0.036016520112752914,
        0.08935120701789856,
        0.2790454924106598,
        0.2911689281463623,
        0.03141612932085991,
        0.05598105862736702,
        -0.04220229387283325,
        0.09815600514411926,
        0.1456255465745926,
        -0.01361534558236599,
        0.15761667490005493
      ],
      [
        -0.09610027819871902,
        0.191568061709404,
        -0.09051070362329483,
        -0.04204577952623367,
        0.20617936551570892,
        0.2653173506259918,
        0.04507710039615631,
        -0.039297979325056076,
        0.23799122869968414,
        0.0645180195569992,
        0.027964400127530098,
        -0.22530896961688995,
        0.11939728260040283,
        -0.03899487853050232,
        0.3061322271823883,
        -0.02602514810860157,
        -0.08395079523324966,
        -0.19252122938632965,
        0.00663719279691577,
        -0.1749870479106903,
        -0.26719582080841064,
        -0.24412901699543,
        -0.2770410180091858,
        -0.0943412184715271,
        -0.050294093787670135,
        0.14620943367481232,
        0.17651380598545074,
        0.02485344372689724,
        0.07967167347669601,
        -0.0744192898273468,
        -0.0013669967884197831,
        -0.026318080723285675
      ],
      [
        0.025758100673556328,
        0.2613191604614258,
        -0.06616866588592529,
        -0.14348997175693512,
        0.11898989975452423,
        0.12100427597761154,
        0.20877815783023834,
        -0.05887001007795334,
        0.05972006544470787,
        0.03621836006641388,
        -0.1608520895242691,
        -0.013824736699461937,
        0.20123158395290375,
        -0.22478316724300385,
        0.10694661736488342,
        -0.13070465624332428,
        0.1063050925731659,
        0.16802367568016052,
        0.16473788022994995,
        -0.03029601089656353,
        -0.010202827863395214,
        -0.12173320353031158,
        -0.1705392748117447,
        0.11531595140695572,
        0.120107002556324,
        -0.21616153419017792,
        0.07445633411407471,
        0.12425492703914642,
        -0.009725389070808887,
        0.09843970835208893,
        0.09032801538705826,
        0.03913002461194992
      ],
      [
        0.04063465818762779,
        -0.01024611759930849,
        -0.21430256962776184,
        0.15243305265903473,
        0.17490838468074799,
        -0.10989703983068466,
        0.05473090708255768,
        0.056903399527072906,
        0.15486764907836914,
        -0.04045495763421059,
        -0.07781373709440231,
        -0.12088851630687714,
        -0.005604239646345377,
        0.11890829354524612,
        -0.034537963569164276,
        -0.1447940468788147,
        -0.10798460245132446,
        -0.13965469598770142,
        -0.0602404922246933,
        -0.06226911395788193,
        0.05968376249074936,
        -0.06825423985719681,
        -0.15346834063529968,
        -0.01938718371093273,
        -0.3151371479034424,
        0.13754454255104065,
        0.15699373185634613,
        -0.10142436623573303,
        -0.11719893664121628,
        0.09348370879888535,
        0.1334071159362793,
        0.09651216864585876
      ],
      [
        -0.0781833603978157,
        0.022224580869078636,
        0.2553660571575165,
        -0.11635700613260269,
        -0.2355910837650299,
        0.06399849057197571,
        0.0038519250229001045,
        0.17134921252727509,
        -0.19947096705436707,
        -0.0929771438241005,
        -0.19796156883239746,
        0.11698764562606812,
        -0.03764912858605385,
        0.13765785098075867,
        -0.02757204882800579,
        -0.11899323761463165,
        -0.09673656523227692,
        0.0261950995773077,
        -0.09059648960828781,
        0.02875211276113987,
        0.13346979022026062,
        0.2274904102087021,
        0.05215229094028473,
        0.025340590626001358,
        0.0934065654873848,
        -0.21672043204307556,
        -0.07444731146097183,
        -0.09519863873720169,
        0.17847055196762085,
        0.11127301305532455,
        0.09648754447698593,
        0.09616006165742874
      ],
      [
        0.1635025590658188,
        0.11164076626300812,
        -0.010556950233876705,
        -0.20714829862117767,
        0.04279597848653793,
        -0.042588260024785995,
        -0.017366923391819,
        0.2007243037223816,
        -0.22619983553886414,
        0.024626953527331352,
        -0.2792825400829315,
        -0.06156960874795914,
        -0.17676618695259094,
        -0.0966920331120491,
        -0.32048752903938293,
        -0.19287143647670746,
        0.3126259744167328,
        0.07005240023136139,
        -0.10848449915647507,
        -0.1432737410068512,
        -0.04111197963356972,
        0.022751785814762115,
        -0.04586536064743996,
        0.16883911192417145,
        0.17820394039154053,
        -0.06910045444965363,
        -0.11475023627281189,
        0.2666859030723572,
        0.1904512196779251,
        -0.01536448486149311,
        -0.14139655232429504,
        0.024974405765533447
      ],
      [
        0.1578160971403122,
        0.028903106227517128,
        0.12769626080989838,
        -0.27734068036079407,
        -0.16689135134220123,
        -0.01843983307480812,
        -0.02601800300180912,
        -0.08413412421941757,
        -0.1489688605070114,
        0.07105449587106705,
        -0.030858756974339485,
        -0.09108307957649231,
        -0.08647726476192474,
        -0.033826470375061035,
        -0.268449068069458,
        0.045151177793741226,
        0.1590631753206253,
        0.029352843761444092,
        -0.00630580959841609,
        -0.0213841013610363,
        0.1397198736667633,
        -0.11732891201972961,
        -0.13751429319381714,
        0.30890294909477234,
        0.1175229623913765,
        0.056419484317302704,
        0.2244834303855896,
        0.025661835446953773,
        0.24945418536663055,
        0.12055406719446182,
        -0.19229352474212646,
        0.07434247434139252
      ],
      [
        0.08246457576751709,
        0.022276226431131363,
        0.04595087468624115,
        -0.28244277834892273,
        -0.07398088276386261,
        -0.006982472259551287,
        0.07353048026561737,
        0.06629937887191772,
        0.05413609743118286,
        0.1806783229112625,
        -0.1746187061071396,
        0.18772567808628082,
        -0.1451907753944397,
        -0.06872584670782089,
        -0.04782267287373543,
        -0.06879468262195587,
        0.2757501006126404,
        0.2129543274641037,
        0.027755992487072945,
        -0.048953112214803696,
        0.12492669373750687,
        0.17698761820793152,
        0.06741215288639069,
        0.04304221644997597,
        0.224697083234787,
        -0.01068869698792696,
        -0.013792824000120163,
        0.18022403120994568,
        0.2570343315601349,
        -0.11074242740869522,
        -0.14153479039669037,
        0.09316445887088776
      ],
      [
        -0.012643782421946526,
        0.18773646652698517,
        -0.13918660581111908,
        -0.26436012983322144,
        -0.0022819421719759703,
        0.1630854606628418,
        0.15533240139484406,
        0.05398774519562721,
        0.1270769089460373,
        0.1888027936220169,
        -0.27470579743385315,
        0.13550710678100586,
        0.22470304369926453,
        -0.11272428929805756,
        -0.13226079940795898,
        -0.0020708872471004725,
        0.18356260657310486,
        0.04196751490235329,
        0.20555242896080017,
        -0.23176273703575134,
        -0.18955279886722565,
        0.11176417022943497,
        -0.017482029274106026,
        -0.055585913360118866,
        -0.04276503622531891,
        -0.07467343658208847,
        0.13074395060539246,
        0.07704220712184906,
        0.13115927577018738,
        0.06763368844985962,
        0.05397852882742882,
        0.24031318724155426
      ],
      [
        0.030830157920718193,
        0.26917269825935364,
        0.1306750625371933,
        -0.18630267679691315,
        0.09159885346889496,
        0.013493400998413563,
        0.02212064526975155,
        -0.11010773479938507,
        0.16684134304523468,
        0.027596309781074524,
        -0.3573122024536133,
        0.08333662152290344,
        0.0023253809195011854,
        -0.026587355881929398,
        -0.030169473960995674,
        -0.04163861274719238,
        0.1765318363904953,
        0.08111085742712021,
        -0.024687014520168304,
        -0.16841748356819153,
        -0.1554604172706604,
        -0.19241930544376373,
        -0.040262676775455475,
        -0.016221096739172935,
        -0.008237682282924652,
        -0.14386418461799622,
        0.2655831277370453,
        0.21383225917816162,
        0.0247042216360569,
        0.03389830142259598,
        -0.21020863950252533,
        0.10831272602081299
      ],
      [
        0.021105924621224403,
        -0.2465430647134781,
        0.22349637746810913,
        0.1976945996284485,
        -0.013809642754495144,
        0.006783229764550924,
        -0.2445300668478012,
        0.09474802017211914,
        -0.15733513236045837,
        0.07599956542253494,
        0.08970355242490768,
        0.08398555964231491,
        0.04132221266627312,
        -0.014950662851333618,
        -0.01582220382988453,
        0.10336867719888687,
        0.027319442480802536,
        0.07336225360631943,
        -0.10790929943323135,
        -0.07480617612600327,
        0.1921316385269165,
        -0.06662482768297195,
        0.23443347215652466,
        -0.16963161528110504,
        0.1598777174949646,
        -0.14612573385238647,
        0.026406463235616684,
        -0.059725917875766754,
        0.052964966744184494,
        -0.1893005222082138,
        0.20553801953792572,
        -0.02711592987179756
      ],
      [
        -0.09662306308746338,
        0.048385139554739,
        -0.21958371996879578,
        0.24924035370349884,
        0.20729786157608032,
        -0.11762643605470657,
        -0.10170292854309082,
        -0.08609414845705032,
        0.31321293115615845,
        0.06348401308059692,
        0.2576608955860138,
        -0.08621145039796829,
        0.2569847106933594,
        0.11390265822410583,
        0.2818596065044403,
        -0.10412826389074326,
        -0.10929682105779648,
        -0.17388959228992462,
        -0.1780393123626709,
        -0.1710892766714096,
        -0.043150998651981354,
        0.0061533767729997635,
        -0.19067880511283875,
        0.0026196183171123266,
        -0.2619340419769287,
        0.15140584111213684,
        -0.045942045748233795,
        -0.10405223816633224,
        0.03617856279015541,
        0.05217602476477623,
        0.0571812205016613,
        -0.12996400892734528
      ],
      [
        -0.12327463179826736,
        0.17097795009613037,
        -0.08746062964200974,
        0.05855759605765343,
        0.21825946867465973,
        0.011708566918969154,
        0.14765046536922455,
        -0.20416060090065002,
        0.004917571786791086,
        0.014513853937387466,
        -0.12007077783346176,
        -0.041925787925720215,
        0.2527579069137573,
        -0.14443665742874146,
        0.2013320028781891,
        -0.044043682515621185,
        0.11721397191286087,
        -0.09250058978796005,
        0.033337585628032684,
        0.10117587447166443,
        -0.01337589044123888,
        -0.13856357336044312,
        -0.2555425763130188,
        -0.1134813204407692,
        0.013853172771632671,
        -0.14631128311157227,
        0.23552417755126953,
        0.042751509696245193,
        0.11261175572872162,
        -0.05401677265763283,
        0.07712440192699432,
        0.044689077883958817
      ],
      [
        -0.18678255379199982,
        0.24456727504730225,
        -0.02033497393131256,
        -0.27586084604263306,
        0.18528161942958832,
        0.05882365256547928,
        0.02100534737110138,
        0.1316062957048416,
        0.20116683840751648,
        -0.0035194915253669024,
        -0.1568913459777832,
        -0.2065780609846115,
        0.23892545700073242,
        -0.09827636182308197,
        0.22264552116394043,
        0.014654889702796936,
        0.03528251871466637,
        0.1636231541633606,
        -0.06306241452693939,
        0.018772145733237267,
        -0.03839895501732826,
        -0.11042995750904083,
        -0.04686227813363075,
        -0.10121110826730728,
        0.0659778043627739,
        -0.11705182492733002,
        0.24131281673908234,
        -0.00631896685808897,
        -0.14441446959972382,
        0.0180505383759737,
        -0.0801476463675499,
        -0.15255092084407806
      ],
      [
        0.05798297002911568,
        0.10490678250789642,
        -0.15029774606227875,
        0.06573949009180069,
        -0.03908275440335274,
        -0.19452941417694092,
        0.07820937782526016,
        0.022104958072304726,
        0.15031525492668152,
        -0.03701680153608322,
        0.03218560293316841,
        0.07639197260141373,
        -0.0039608958177268505,
        0.2152644544839859,
        0.15283071994781494,
        -0.11110252887010574,
        0.05705135315656662,
        -0.1105857640504837,
        0.08601850271224976,
        -0.05984105169773102,
