{
  "meta": {
    "input_size": 1,
    "hidden_size": 64,
    "num_layers": 1,
    "rnn_type": "lstm",
    "output_size": 1,
    "dtype": "float32",
    "input_columns": [
      "u0"
    ],
    "output_columns": [
      "y0"
    ],
    "norm": {
      "mean": [
        [
          [
            0.0061549232341349125
          ]
        ]
      ],
      "std": [
        [
          [
            0.022241493687033653
          ]
        ]
      ],
      "axes": [
        0,
        1
      ]
    }
  },
  "weights": {
    "w_ii_l0": [
      [
        0.11485903710126877
      ],
      [
        0.0970870852470398
      ],
      [
        -0.009449959732592106
      ],
      [
        0.008181987330317497
      ],
      [
        -0.3013983964920044
      ],
      [
        0.12289383262395859
      ],
      [
        -0.013973154127597809
      ],
      [
        0.0022859417367726564
      ],
      [
        0.08436811715364456
      ],
      [
        0.04650140181183815
      ],
      [
        -0.39454829692840576
      ],
      [
        -0.2760431170463562
      ],
      [
        -0.026658572256565094
      ],
      [
        -0.054254256188869476
      ],
      [
        0.02305593155324459
      ],
      [
        -0.08311069011688232
      ],
      [
        0.11469196528196335
      ],
      [
        0.01620018109679222
      ],
      [
        -0.12022577226161957
      ],
      [
        0.15846286714076996
      ],
      [
        -0.023940609768033028
      ],
      [
        0.07057289034128189
      ],
      [
        -0.1453128457069397
      ],
      [
        -0.08247765898704529
      ],
      [
        0.07371692359447479
      ],
      [
        -0.00027593839331530035
      ],
      [
        0.09335935115814209
      ],
      [
        -0.07290253043174744
      ],
      [
        -0.10419048368930817
      ],
      [
        0.13253597915172577
      ],
      [
        -0.017997929826378822
      ],
      [
        -0.0675700306892395
      ],
      [
        0.1104402169585228
      ],
      [
        -0.057407185435295105
      ],
      [
        -0.06548292189836502
      ],
      [
        -0.1155804768204689
      ],
      [
        0.1830594390630722
      ],
      [
        0.10637028515338898
      ],
      [
        -0.10491739958524704
      ],
      [
        -0.07853782922029495
      ],
      [
        -0.1304434835910797
      ],
      [
        0.046599987894296646
      ],
      [
        -0.11803749203681946
      ],
      [
        -0.1383756846189499
      ],
      [
        -7.094354077707976e-05
      ],
      [
        -0.02420097403228283
      ],
      [
        0.05429773032665253
      ],
      [
        0.24447327852249146
      ],
      [
        0.10882370173931122
      ],
      [
        0.04618930071592331
      ],
      [
        -0.004417307209223509
      ],
      [
        -0.05965356528759003
      ],
      [
        -0.00032957090297713876
      ],
      [
        0.14288657903671265
      ],
      [
        -0.004532602149993181
      ],
      [
        -0.07726642489433289
      ],
      [
        0.027745641767978668
      ],
      [
        -0.22031418979167938
      ],
      [
        0.011972595006227493
      ],
      [
        0.005832368042320013
      ],
      [
        -0.004994674120098352
      ],
      [
        0.05830662325024605
      ],
      [
        0.011660429649055004
      ],
      [
        0.08158696442842484
      ]
    ],
    "w_if_l0": [
      [
        -0.021122174337506294
      ],
      [
        -0.10742148756980896
      ],
      [
        0.05756676569581032
      ],
      [
        0.011223886162042618
      ],
      [
        -0.07808246463537216
      ],
      [
        0.09065859764814377
      ],
      [
        0.002440547803416848
      ],
      [
        -0.08225063979625702
      ],
      [
        -0.009604188613593578
      ],
      [
        -0.037078939378261566
      ],
      [
        -0.012256502173841
      ],
      [
        0.047696661204099655
      ],
      [
        -0.03833361715078354
      ],
      [
        -0.06454501301050186
      ],
      [
        0.06899748742580414
      ],
      [
        0.11225062608718872
      ],
      [
        0.04438125714659691
      ],
      [
        0.0641360804438591
      ],
      [
        -0.042850036174058914
      ],
      [
        -0.03281226009130478
      ],
      [
        0.10668569803237915
      ],
      [
        0.029830576851963997
      ],
      [
        0.013322322629392147
      ],
      [
        0.05465671792626381
      ],
      [
        0.10472646355628967
      ],
      [
        0.05266521871089935
      ],
      [
        0.0349043570458889
      ],
      [
        -0.17150218784809113
      ],
      [
        -0.07356869429349899
      ],
      [
        -0.024760037660598755
      ],
      [
        -0.017674684524536133
      ],
      [
        -0.045361362397670746
      ],
      [
        -0.1268381029367447
      ],
      [
        0.20799577236175537
      ],
      [
        0.09866088628768921
      ],
      [
        0.006605854723602533
      ],
      [
        0.06397657841444016
      ],
      [
        -0.010127452202141285
      ],
      [
        -0.07309271395206451
      ],
      [
        0.04186104238033295
      ],
      [
        -0.05355537310242653
      ],
      [
        -0.12455678731203079
      ],
      [
        -0.09529177099466324
      ],
      [
        -0.04889732599258423
      ],
      [
        -0.07698982208967209
      ],
      [
        0.11053359508514404
      ],
      [
        0.07848753035068512
      ],
      [
        -0.12424009293317795
      ],
      [
        0.04502200335264206
      ],
      [
        -0.08542969077825546
      ],
      [
        0.08183122426271439
      ],
      [
        -0.08756720274686813
      ],
      [
        0.12072732299566269
      ],
      [
        -0.03376070782542229
      ],
      [
        0.06577355414628983
      ],
      [
        0.01951438933610916
      ],
      [
        0.16469234228134155
      ],
      [
        -0.030302463099360466
      ],
      [
        0.05369580164551735
      ],
      [
        -0.060066599398851395
      ],
      [
        -0.0346507728099823
      ],
      [
        0.027890972793102264
      ],
      [
        0.01793154887855053
      ],
      [
        -0.03962615504860878
      ]
    ],
    "w_ig_l0": [
      [
        0.0066713979467749596
      ],
      [
        -0.017912384122610092
      ],
      [
        -0.05048434063792229
      ],
      [
        -0.04714268073439598
      ],
      [
        0.011868407018482685
      ],
      [
        -0.040966134518384933
      ],
      [
        -0.019559014588594437
      ],
      [
        -0.0007230094051919878
      ],
      [
        -0.004312895238399506
      ],
      [
        -0.0030074019450694323
      ],
      [
        -0.02117774821817875
      ],
      [
        -0.05247020721435547
      ],
      [
        -0.003573462599888444
      ],
      [
        -0.05111539363861084
      ],
      [
        0.008822739124298096
      ],
      [
        0.044561125338077545
      ],
      [
        0.013196613639593124
      ],
      [
        0.06320331990718842
      ],
      [
        0.03944357857108116
      ],
      [
        -0.08644518256187439
      ],
      [
        -0.07764285802841187
      ],
      [
        -0.005876318551599979
      ],
      [
        -0.04327333718538284
      ],
      [
        0.023247886449098587
      ],
      [
        -0.08325888216495514
      ],
      [
        0.06691106408834457
      ],
      [
        0.04972468316555023
      ],
      [
        -0.05009268969297409
      ],
      [
        -0.04150865972042084
      ],
      [
        -0.023908566683530807
      ],
      [
        0.014612612314522266
      ],
      [
        -0.10230349749326706
      ],
      [
        0.05356450006365776
      ],
      [
        0.04402792081236839
      ],
      [
        0.02226170338690281
      ],
      [
        0.06178952008485794
      ],
      [
        -0.014663671143352985
      ],
      [
        0.044259797781705856
      ],
      [
        -0.08496803790330887
      ],
      [
        0.022487610578536987
      ],
      [
        -0.05229506641626358
      ],
      [
        0.014510446228086948
      ],
      [
        0.04173316806554794
      ],
      [
        -0.05192134156823158
      ],
      [
        0.015978040173649788
      ],
      [
        -0.030890153720974922
      ],
      [
        0.06250941008329391
      ],
      [
        0.0204930379986763
      ],
      [
        0.01670352928340435
      ],
      [
        0.018307695165276527
      ],
      [
        -0.04413130506873131
      ],
      [
        0.03960096091032028
      ],
      [
        -0.02161581441760063
      ],
      [
        0.05959615111351013
      ],
      [
        -0.06628014892339706
      ],
      [
        0.019428202882409096
      ],
      [
        -0.033113110810518265
      ],
      [
        -0.01011675875633955
      ],
      [
        0.0848199799656868
      ],
      [
        -0.004517263267189264
      ],
      [
        -0.005992042366415262
      ],
      [
        0.09754981845617294
      ],
      [
        0.08773091435432434
      ],
      [
        -0.08847516030073166
      ]
    ],
    "w_io_l0": [
      [
        0.10650176554918289
      ],
      [
        0.15257464349269867
      ],
      [
        0.013592241331934929
      ],
      [
        -0.0667143315076828
      ],
      [
        -0.2936883866786957
      ],
      [
        0.00400293804705143
      ],
      [
        -0.025314949452877045
      ],
      [
        -0.016953198239207268
      ],
      [
        0.1764320582151413
      ],
      [
        -0.04229790344834328
      ],
      [
        -0.20982852578163147
      ],
      [
        -0.10265999287366867
      ],
      [
        -0.014390666969120502
      ],
      [
        -0.01688345894217491
      ],
      [
        -0.03890101984143257
      ],
      [
        0.06206372752785683
      ],
      [
        0.02011912129819393
      ],
      [
        0.09179281443357468
      ],
      [
        0.0260099358856678
      ],
      [
        0.0731404721736908
      ],
      [
        -0.0018204225925728679
      ],
      [
        0.014362946152687073
      ],
      [
        -0.1548207849264145
      ],
      [
        0.0741489976644516
      ],
      [
        -0.09783701598644257
      ],
      [
        0.05921385437250137
      ],
      [
        0.12638869881629944
      ],
      [
        0.04218578711152077
      ],
      [
        -0.08699564635753632
      ],
      [
        0.03147601708769798
      ],
      [
        -0.17760305106639862
      ],
      [
        -0.06291896104812622
      ],
      [
        0.08819055557250977
      ],
      [
        0.14715167880058289
      ],
      [
        0.10319093614816666
      ],
      [
        -0.15237052738666534
      ],
      [
        0.08313928544521332
      ],
      [
        -0.05593150481581688
      ],
      [
        -0.07776501774787903
      ],
      [
        -0.08420637249946594
      ],
      [
        -0.04579123109579086
      ],
      [
        0.008524700999259949
      ],
      [
        -0.03897084668278694
      ],
      [
        0.07056807726621628
      ],
      [
        -0.10032422840595245
      ],
      [
        -0.059366121888160706
      ],
      [
        0.12694837152957916
      ],
      [
        -0.004644788336008787
      ],
      [
        -0.04312785342335701
      ],
      [
        -0.051733698695898056
      ],
      [
        -0.06534677743911743
      ],
      [
        -0.04645098000764847
      ],
      [
        0.039072033017873764
      ],
      [
        0.0924132689833641
      ],
      [
        0.023296039551496506
      ],
      [
        0.02651357650756836
      ],
      [
        0.001768267247825861
      ],
      [
        -0.037255242466926575
      ],
      [
        0.029645046219229698
      ],
      [
        -0.020541280508041382
      ],
      [
        0.09758809208869934
      ],
      [
        -0.03619556128978729
      ],
      [
        -0.11520776897668839
      ],
      [
        -0.03676623851060867
      ]
    ],
    "b_ii_l0": [
      -0.10015092045068741,
      -0.0133982477709651,
      -0.04396398365497589,
      -0.03677721321582794,
      0.0327671580016613,
      -0.11959552764892578,
      0.09197928011417389,
      0.008725805208086967,
      0.04612197354435921,
      0.06397552043199539,
      -0.06013226881623268,
      -0.061650216579437256,
      0.03455248102545738,
      0.08104460686445236,
      -0.08108072727918625,
      0.08009622246026993,
      -0.0669107437133789,
      -0.11842402815818787,
      0.0784672275185585,
      0.1187405213713646,
      -0.05303412303328514,
      -0.04534569010138512,
      -0.004327990114688873,
      -0.00825454480946064,
      -0.12607021629810333,
      0.05894890055060387,
      -0.0392623208463192,
      -0.1637192964553833,
      0.10092440247535706,
      -0.011586757376790047,
      0.08945273607969284,
      -0.0026037883944809437,
      -0.09941781312227249,
      -0.060362864285707474,
      0.0135652469471097,
      -0.0996517539024353,
      0.04747151583433151,
      -0.1473371535539627,
      -0.06157689541578293,
      0.11257562041282654,
      0.11824812740087509,
      -0.038158878684043884,
      0.027102330699563026,
      -0.012784231454133987,
      0.09105654060840607,
      -0.02555079385638237,
      0.06831243634223938,
      -0.06319981813430786,
      0.0136692700907588,
      -0.07331431657075882,
      0.0658060684800148,
      -0.015601417049765587,
      0.056846704334020615,
      -0.09356723725795746,
      0.1193714365363121,
      0.13669463992118835,
      -0.01591954007744789,
      -0.05211641266942024,
      0.1062040627002716,
      0.02627113088965416,
      0.04172959178686142,
      0.05704085901379585,
      0.12712733447551727,
      0.11367303878068924
    ],
    "b_if_l0": [
      -0.09539376944303513,
      0.08535503596067429,
      0.09434249252080917,
      0.04141922667622566,
      -0.04938845708966255,
      -0.020365163683891296,
      0.030562499538064003,
      -0.09936001151800156,
      0.10160820931196213,
      0.0028496338054537773,
      0.025961076840758324,
      -0.03670565411448479,
      -0.09912926703691483,
      -0.08499716222286224,
      0.014062108471989632,
      -0.08856233954429626,
      -0.019327109679579735,
      0.02731490507721901,
      -0.036369845271110535,
      -0.01595967821776867,
      0.0981457307934761,
      -0.06398284435272217,
      0.08099550753831863,
      0.07783899456262589,
      -0.14398309588432312,
      0.0339568555355072,
      -0.06060342490673065,
      0.029191335663199425,
      -0.03358965367078781,
      -0.041463542729616165,
      0.01717253401875496,
      0.010229161009192467,
      -0.09984070807695389,
      -0.09211169183254242,
      0.0029164375737309456,
      -0.008616844192147255,
      0.07045771181583405,
      -0.05973386764526367,
      0.02234746888279915,
      0.02566610835492611,
      0.14417783915996552,
      0.004911679308861494,
      -0.02898871898651123,
      -0.1444634348154068,
      0.08992081135511398,
      -0.041316721588373184,
      -0.009447675198316574,
      0.04113541916012764,
      0.0841866135597229,
      -0.015375628136098385,
      -0.022115668281912804,
      -0.025069357827305794,
      -0.05733370780944824,
      -0.10220575332641602,
      0.14358295500278473,
      -0.014811248518526554,
      -0.1339484602212906,
      -0.009754008613526821,
      -0.08125495165586472,
      -0.00456719845533371,
      0.09630271047353745,
      0.05886751785874367,
      0.007518155965954065,
      -0.006733703427016735
    ],
    "b_ig_l0": [
      -0.044687170535326004,
      -0.0332096703350544,
      -0.039179906249046326,
      -0.08432111889123917,
      -0.007208759430795908,
      0.07064341008663177,
      0.04741155356168747,
      -0.0404076874256134,
      -0.05112316086888313,
      0.04800305515527725,
      0.04291273653507233,
      -0.10700441896915436,
      0.04626130312681198,
      -0.09184294939041138,
      -0.033309660851955414,
      -0.05116545036435127,
      0.01738850586116314,
      0.008425186388194561,
      0.09491411596536636,
      0.06621414422988892,
      0.10943653434515,
      0.0555691197514534,
      -0.018944071605801582,
      0.09940342605113983,
      0.034130703657865524,
      -0.03885874152183533,
      0.019029926508665085,
      -0.008516840636730194,
      0.013772392645478249,
      -0.09348038583993912,
      0.11802097409963608,
      0.04543028399348259,
      -0.05755693092942238,
      0.021540161222219467,
      -0.019327055662870407,
      0.004320933949202299,
      -0.08648211508989334,
      -0.058222051709890366,
      -0.004905532579869032,
      -0.030966918915510178,
      0.007999945431947708,
      0.019931381568312645,
      -0.011650498025119305,
      -0.036242205649614334,
      0.033864643424749374,
      -0.06805326789617538,
      -0.034243930131196976,
      0.040450528264045715,
      0.05185892432928085,
      -0.005937117151916027,
      0.06143912672996521,
      -0.03808571770787239,
      0.038559556007385254,
      -0.047974828630685806,
      0.07028350234031677,
      -0.00809574592858553,
      -0.02261093258857727,
      0.009450949728488922,
      -0.09925851225852966,
      -0.03878334164619446,
      0.08296975493431091,
      0.03740795701742172,
      -0.07614050060510635,
      -0.05737614259123802
    ],
    "b_io_l0": [
      0.0030915215611457825,
      0.00518447021022439,
      -0.028870081529021263,
      0.012705042026937008,
      -0.13426753878593445,
      -0.05579894408583641,
      0.03096032328903675,
      0.09079274535179138,
      0.03713810443878174,
      -0.14270085096359253,
      0.026387544348835945,
      -0.07299020141363144,
      0.02945222519338131,
      -0.09026116877794266,
      0.06523561477661133,
      -0.15873713791370392,
      0.020062876865267754,
      0.034785784780979156,
      0.008634167723357677,
      0.08008872717618942,
      -0.03260431066155434,
      0.060842227190732956,
      0.10598980635404587,
      -0.009522410109639168,
      -0.03476601839065552,
      0.039567895233631134,
      -0.09080018103122711,
      -0.029170185327529907,
      -0.06439696252346039,
      0.04467897117137909,
      0.022869208827614784,
      -0.06543920934200287,
      -0.08876921981573105,
      -0.09975183010101318,
      0.05522837117314339,
      -0.06866421550512314,
      0.05294216796755791,
      -0.06514273583889008,
      -0.1259179413318634,
      0.05727016553282738,
      0.029366429895162582,
      0.07517974078655243,
      -0.02678558975458145,
      -0.11104156076908112,
      -0.11669425666332245,
      0.011265728622674942,
      -0.038338493555784225,
      0.0017223389586433768,
      -0.06674802303314209,
      0.04540388286113739,
      -0.09192854166030884,
      -0.029363632202148438,
      -0.12334463745355606,
      0.05925309285521507,
      0.04364125058054924,
      0.09890557080507278,
      -0.008664766326546669,
      0.0468343086540699,
      -0.1118963286280632,
      -0.0332908071577549,
      0.04904692620038986,
      0.05662679299712181,
      0.19904100894927979,
      0.1127387285232544
    ],
    "w_hi_l0": [
      [
        0.15085028111934662,
        0.05515390634536743,
        -0.00835771020501852,
        0.03400884196162224,
        -0.17632490396499634,
        -0.08987156301736832,
        -0.006250850856304169,
        -0.0009070566156879067,
        -0.09408456087112427,
        -0.008740408346056938,
        0.22046977281570435,
        0.243905708193779,
        -0.05620807781815529,
        -0.0803925171494484,
        -0.11596936732530594,
        -0.047315727919340134,
        -0.06216541305184364,
        0.06728680431842804,
        -0.13490919768810272,
        -0.015479880385100842,
        -0.04690534248948097,
        -0.00019494407752063125,
        0.30994412302970886,
        -0.08153263479471207,
        -0.08317583054304123,
        0.13028031587600708,
        -0.01991693489253521,
        0.02671573869884014,
        0.1328800618648529,
        0.027900410816073418,
        0.13014398515224457,
        -0.0333712063729763,
        -0.006510389503091574,
        -0.06099076569080353,
        0.0029570795595645905,
        -0.10594912618398666,
        0.11480733007192612,
        0.11834026873111725,
        0.04160400480031967,
        0.0986691266298294,
        0.10575100034475327,
        0.05557451397180557,
        -0.04359842464327812,
        -0.0804828405380249,
        -0.10127013176679611,
        0.05216771736741066,
        -0.06560718268156052,
        -0.016650313511490822,
        0.09824168682098389,
        -0.0008100614068098366,
        0.049849189817905426,
        0.009228349663317204,
        -0.0922531709074974,
        -0.00965389609336853,
        -0.036259621381759644,
        -0.047442175447940826,
        -0.03617306053638458,
        0.017916666343808174,
        -0.11994581669569016,
        0.042299769818782806,
        0.05081382021307945,
        0.08495798707008362,
        0.05356069654226303,
        -0.038540393114089966
      ],
      [
        0.2949734628200531,
        -0.1705503612756729,
        -0.20386730134487152,
        0.08734842389822006,
        0.042251791805028915,
        -0.003196495585143566,
        -0.2300032079219818,
        -0.004497317131608725,
        -0.13432301580905914,
        -0.08179814368486404,
        0.2019861340522766,
        0.025079552084207535,
        0.07607497274875641,
        -0.0743488222360611,
        0.09504032880067825,
        0.11187881976366043,
        0.04673375189304352,
        -0.00569963501766324,
        0.05324016883969307,
        -0.46702489256858826,
        -0.04690375551581383,
        0.12902727723121643,
        0.07042060047388077,
        0.06327952444553375,
        -0.04665908217430115,
        -0.024902354925870895,
        0.17664706707000732,
        -0.10952641814947128,
        -0.054407648742198944,
        -0.16381052136421204,
        0.12866699695587158,
        -0.08647377789020538,
        0.2722432017326355,
        0.35885193943977356,
        0.08242907375097275,
        0.12480168044567108,
        -0.16581809520721436,
        0.1096377745270729,
        0.10801322758197784,
        -0.04378722608089447,
        0.07751838862895966,
        -0.011183108203113079,
        -0.06519228965044022,
        0.03853554278612137,
        0.05295635014772415,
        0.13408976793289185,
        -0.05332452058792114,
        0.22305282950401306,
        0.03990689292550087,
        -0.08496478199958801,
        0.03272593021392822,
        0.18957485258579254,
        -0.07004455476999283,
        0.23371154069900513,
        -0.0759124606847763,
        0.07750464230775833,
        0.10131710767745972,
        -0.10796696692705154,
        0.1738254576921463,
        -0.02894560992717743,
        -0.002599361352622509,
        0.1474601924419403,
        0.17021608352661133,
        -0.2572652995586395
      ],
      [
        0.20905636250972748,
        0.1746441125869751,
        -0.05278554931282997,
        -0.009463826194405556,
        -0.0640062466263771,
        0.0850282534956932,
        -0.16443608701229095,
        -0.0966334119439125,
        -0.10956171900033951,
        0.10155437141656876,
        0.024486003443598747,
        0.06593281030654907,
        -0.15997444093227386,
        -0.054737549275159836,
        -0.060655876994132996,
        0.0598483644425869,
        -0.0494239404797554,
        -0.14098010957241058,
        0.09525255858898163,
        -0.029507078230381012,
        -0.06760698556900024,
        -0.031605299562215805,
        -0.057943280786275864,
        0.18503160774707794,
        0.07418806105852127,
        0.0822673887014389,
        0.07351095229387283,
        0.0945751816034317,
        0.08756674826145172,
        -0.22539690136909485,
        -0.005205745808780193,
        -0.12533864378929138,
        0.13958455622196198,
        0.13006985187530518,
        -0.09000609815120697,
        0.1099538505077362,
        0.05737397447228432,
        0.035692885518074036,
        -0.07690049707889557,
        0.16557207703590393,
        -0.018106520175933838,
        0.042469073086977005,
        -0.0027889974880963564,
        -0.1694871038198471,
        -0.157389298081398,
        0.18176737427711487,
        0.08162100613117218,
        0.07499296963214874,
        -0.08881211280822754,
        0.09478716552257538,
        0.04183576628565788,
        -0.06612005829811096,
        0.07423768937587738,
        0.1310855597257614,
        -0.1299462467432022,
        -0.18541033565998077,
        0.17629338800907135,
        0.09631304442882538,
        0.1431506723165512,
        -0.12492663413286209,
        0.03926683962345123,
        -0.006815341301262379,
        -0.00659569539129734,
        -0.16479375958442688
      ],
      [
        0.11189387738704681,
        -0.1528385728597641,
        0.026703784242272377,
        -0.08722249418497086,
        -0.00950815062969923,
        -0.08492595702409744,
        -0.04489754140377045,
        -0.0943460464477539,
        -0.049828652292490005,
        0.07270482182502747,
        0.020718727260828018,
        -0.0037920239847153425,
        -0.07438372075557709,
        0.09935314208269119,
        0.14211992919445038,
        0.07123180478811264,
        -0.022659897804260254,
        -0.024059748277068138,
        0.07871394604444504,
        -0.17126300930976868,
        -0.057788651436567307,
        0.11810249835252762,
        -0.043109022080898285,
        -0.09066196531057358,
        0.07453714311122894,
        0.07213998585939407,
        0.1320268213748932,
        -0.011716610752046108,
        0.097748301923275,
        -0.09930308163166046,
        -0.012617170810699463,
        -0.024789253249764442,
        -0.03125942870974541,
        -0.09570818394422531,
        0.10676700621843338,
        -0.0817582979798317,
        -0.025706134736537933,
        -0.024009032174944878,
        0.052759576588869095,
        -0.02040780894458294,
        0.002870784839615226,
        0.04488790035247803,
        -0.006513306871056557,
        -0.052852313965559006,
        0.061297010630369186,
        -0.007034141104668379,
        -0.01960917003452778,
        -0.026213742792606354,
        -0.06451543420553207,
        -0.0899716317653656,
        0.023909034207463264,
        -0.0932478979229927,
        -0.06946305185556412,
        0.12237929552793503,
        0.010870962403714657,
        -0.10766483098268509,
        0.10377518832683563,
        0.0014611295191571116,
        0.06440333276987076,
        0.035288456827402115,
        0.09012772142887115,
        0.03699401021003723,
        -0.03550175204873085,
        0.012163635343313217
      ],
      [
        -0.02942751720547676,
        -0.30545103549957275,
        -0.14498238265514374,
        0.040575604885816574,
        -0.1381564438343048,
        0.05269354581832886,
        -0.039564818143844604,
        -0.0371977798640728,
        0.08673889189958572,
        -0.091099314391613,
        -0.0038083421532064676,
        0.020075155422091484,
        -0.07823400944471359,
        0.08282552659511566,
        0.16342991590499878,
        0.03651326894760132,
        -0.04812755435705185,
        0.01787571981549263,
        0.061340488493442535,
        -0.08733276277780533,
        -0.0230853371322155,
        0.11504102498292923,
        -0.12029214948415756,
        -0.17928364872932434,
        0.050120603293180466,
        -0.1379241794347763,
        -0.05214281380176544,
        0.08343855291604996,
        0.07790607959032059,
        -0.027033116668462753,
        -0.0024879141710698605,
        -0.13327154517173767,
        -0.048143867403268814,
        -0.22289662063121796,
        0.056856587529182434,
        -0.08284579962491989,
        -0.13921120762825012,
        0.08688445389270782,
        0.11692187935113907,
        -0.07743456959724426,
        0.2874338924884796,
        -0.12194127589464188,
        0.0023550400510430336,
        0.09236748516559601,
        -0.09977278858423233,
        -0.07259679585695267,
        -0.04457150399684906,
        -0.050791043788194656,
        -0.08984708786010742,
        -0.11689043045043945,
        -0.0013731239596381783,
        0.014144445769488811,
        -0.04879853129386902,
        -0.06041320785880089,
        -0.05743364989757538,
        -0.028359416872262955,
        0.06572528183460236,
        -0.018969548866152763,
        0.14867395162582397,
        -0.012286660261452198,
        0.10884242504835129,
        -0.09424112737178802,
        -0.0719199851155281,
        -0.06511148065328598
      ],
      [
        0.16755779087543488,
        0.03605041280388832,
        0.12677709758281708,
        -0.017127353698015213,
        0.03960408270359039,
        0.019558589905500412,
        0.06848128885030746,
        -0.07370328158140182,
        0.03221575543284416,
        0.0404292494058609,
        -0.06729674339294434,
        0.07786335796117783,
        -0.1489190012216568,
        -0.06267020106315613,
        -0.023174721747636795,
        0.13322390615940094,
        -0.06772412359714508,
        -0.13121511042118073,
        -0.07016471773386002,
        -0.07176733762025833,
        -0.030466420575976372,
        -0.05701354891061783,
        -0.11670159548521042,
        -0.057985447347164154,
        0.08690472692251205,
        0.0037563988007605076,
        -0.07247241586446762,
        0.07537806034088135,
        -0.032416731119155884,
        -0.11874305456876755,
        0.12133487313985825,
        0.0734749361872673,
        -0.05525299161672592,
        0.04683222621679306,
        0.005906982813030481,
        -0.05999567359685898,
        -0.015998264774680138,
        0.061260100454092026,
        0.012675376608967781,
        -0.036093685775995255,
        -0.12295454740524292,
        0.04069027677178383,
        -0.025708142668008804,
        -0.12929484248161316,
        0.0234355665743351,
        0.10213027894496918,
        0.012453597038984299,
        0.09342075139284134,
        -0.08261942118406296,
        0.08560047298669815,
        -0.11583741009235382,
        0.024465341120958328,
        -0.15117992460727692,
        0.1885196715593338,
        -0.06573431938886642,
        0.004626226611435413,
        0.13790881633758545,
        -0.03734205663204193,
        0.08677567541599274,
        0.05822310224175453,
        -0.1615922749042511,
        -0.037086378782987595,
        -0.06941677629947662,
        0.05126110464334488
      ],
      [
        -0.052215348929166794,
        -0.08349563181400299,
        0.06116858124732971,
        0.08555885404348373,
        0.05418481305241585,
        -0.12294172495603561,
        0.050831131637096405,
        -0.1250409036874771,
        -0.04005524516105652,
        -0.0319799929857254,
        0.09024795144796371,
        -0.01893777586519718,
        0.016556669026613235,
        0.05257352814078331,
        -0.030740588903427124,
        -0.05683483928442001,
        0.010651722550392151,
        -0.1181618943810463,
        -0.11160724610090256,
        0.021996190771460533,
        -0.11056074500083923,
        -0.08074100315570831,
        0.17404159903526306,
        -0.06019439175724983,
        0.02021726779639721,
        0.1603071242570877,
        0.08997857570648193,
        -0.00696150865405798,
        0.06707995384931564,
        -0.09225903451442719,
        -0.08625970035791397,
        -0.0031338119879364967,
        0.04541848972439766,
        0.09011369198560715,
        0.04928570240736008,
        -0.08516855537891388,
        0.0598437637090683,
        0.1203288808465004,
        0.026802822947502136,
        0.07722633332014084,
        -0.08368801325559616,
        0.04959296062588692,
        0.016421988606452942,
        -0.009239866398274899,
        0.08702445775270462,
        -0.06554887443780899,
        0.09316620975732803,
        0.07750913500785828,
        0.06533711403608322,
        0.10229644179344177,
        0.07644450664520264,
        -0.08659538626670837,
        -0.11102183163166046,
        0.12781819701194763,
        -0.11552999168634415,
        0.03141259402036667,
        0.017194557934999466,
        -0.060007136315107346,
        0.11146938800811768,
        0.06150006130337715,
        0.04167349636554718,
        0.11783022433519363,
        -0.040994685143232346,
        0.08291563391685486
      ],
      [
        -0.0766156017780304,
        0.04121343418955803,
        -0.027084365487098694,
        0.0791877806186676,
        0.09766273945569992,
        0.10710156708955765,
        -0.00224141008220613,
        0.06050023064017296,
        0.1634158492088318,
        0.09799228608608246,
        -0.04848039150238037,
        -0.07182958722114563,
        0.10524512827396393,
        0.09674472361803055,
        -0.014338787645101547,
        0.05848940834403038,
        0.11257649213075638,
        0.10549715906381607,
        0.08631756156682968,
        0.035846780985593796,
        -0.0068482765927910805,
        0.08861155062913895,
        -0.055100906640291214,
        -0.006963640917092562,
        0.09922505170106888,
        0.056640032678842545,
        -0.11109185218811035,
        -0.06432109326124191,
        0.0052318391390144825,
        0.13786008954048157,
        -0.15436331927776337,
        0.00278361514210701,
        0.07110516726970673,
        -0.09748683124780655,
        0.00304989842697978,
        -0.0356442891061306,
        -0.05475858226418495,
        -0.019248081371188164,
        0.16757340729236603,
        -0.17458680272102356,
        0.060951150953769684,
        0.08069485425949097,
        -0.11099124699831009,
        -0.02894660271704197,
        0.014882784336805344,
        -0.11480032652616501,
        0.01967843621969223,
        0.03208034485578537,
        0.004980252590030432,
        0.0051932199858129025,
        0.018904687836766243,
        0.07908701151609421,
        0.08682678639888763,
        0.05885244905948639,
        0.0830812156200409,
        0.11156270653009415,
        -0.07621181756258011,
        0.09858013689517975,
        0.005643670912832022,
        0.10982286185026169,
        0.003626743797212839,
        0.05127018317580223,
        -0.047954484820365906,
        0.10352222621440887
      ],
      [
        0.18935908377170563,
        -0.02701193280518055,
        0.031972166150808334,
        -0.013750883750617504,
        0.06055420637130737,
        0.08161952346563339,
        0.007871564477682114,
        -0.11040545254945755,
        -0.10723518580198288,
        0.05454261973500252,
        0.10009388625621796,
        0.05118486285209656,
        0.010150791145861149,
        0.03800564631819725,
        -0.02509799785912037,
        0.03712810203433037,
        -0.07707778364419937,
        0.10584792494773865,
        -0.02472062036395073,
        -0.16133733093738556,
        -0.13860560953617096,
        -0.08661294728517532,
        0.1463339626789093,
        -0.012719549238681793,
        -0.05259178951382637,
        0.028298018500208855,
        0.12628579139709473,
        0.014207948930561543,
        -0.09618329256772995,
        -0.1253470927476883,
        0.09034548699855804,
        -0.07349104434251785,
        0.14718398451805115,
        0.25068509578704834,
        0.08176308870315552,
        0.07325433194637299,
        -0.10655713826417923,
        -0.0588647797703743,
        0.14894577860832214,
        -0.07182031869888306,
        0.04172821715474129,
        -0.026630710810422897,
        -0.08742308616638184,
        0.0819605216383934,
        -0.1365721970796585,
        0.02954247035086155,
        0.1400797814130783,
        0.14040637016296387,
        0.011783680878579617,
        -0.010601072572171688,
        0.04010014981031418,
        0.14141488075256348,
        -0.0889739841222763,
        0.1916314661502838,
        0.05755240470170975,
        0.06400544196367264,
        -0.037532296031713486,
        0.02268466167151928,
        0.009603742510080338,
        0.1215568259358406,
        -0.10090737044811249,
        -0.08780471980571747,
        0.06649641692638397,
        -0.20449818670749664
      ],
      [
        -0.056699275970458984,
        0.050795119255781174,
        -0.04037783667445183,
        0.14786170423030853,
        -0.08575588464736938,
        -0.07552718371152878,
        0.03960070386528969,
        -0.037871651351451874,
        0.10697180777788162,
        -0.018377678468823433,
        -0.14295732975006104,
        -0.13095438480377197,
        0.061404936015605927,
        0.02018398977816105,
        0.12493216246366501,
        0.048508647829294205,
        0.07455335557460785,
        -0.09698909521102905,
        0.12262298911809921,
        -0.11501894891262054,
        0.02317041903734207,
        -0.007532183546572924,
        0.07773969322443008,
        0.008285405114293098,
        0.05048341676592827,
        -0.08761198818683624,
        0.05759766325354576,
        0.06684274226427078,
        -0.016952257603406906,
        -0.06855718046426773,
        -0.06268174201250076,
        -0.1337781697511673,
        -0.06499199569225311,
        -0.09233196824789047,
        -0.036280982196331024,
        0.05428413301706314,
        -0.002881331369280815,
        0.0354042649269104,
        0.08849594742059708,
        0.04223035275936127,
        -0.010581603273749352,
        -0.020419692620635033,
        -0.026218222454190254,
        0.0784073993563652,
        -0.11250700056552887,
        0.08803911507129669,
        0.016923798248171806,
        -0.10413899272680283,
        0.0831729918718338,
        -0.055360499769449234,
        0.06011985242366791,
        -0.07654571533203125,
        -0.008124048821628094,
        -0.06167607381939888,
        -0.13516531884670258,
        0.04832052066922188,
        -0.10064509510993958,
        -0.009094738401472569,
        -0.093380406498909,
        0.017536066472530365,
        0.03937723487615585,
        0.03983010724186897,
        0.10788509249687195,
        0.03047516755759716
      ],
      [
        -0.14932306110858917,
        -0.16668564081192017,
        0.007857779040932655,
        0.04898455739021301,
        -0.1726318746805191,
        0.03668086603283882,
        0.2999013066291809,
        -0.03731216490268707,
        0.19078893959522247,
        -0.025413043797016144,
        0.2014526128768921,
        0.016734613105654716,
        0.15617363154888153,
        0.03253612294793129,
        0.07054667174816132,
        -0.13385552167892456,
        0.2234875112771988,
        -0.08596359938383102,
        -0.10313902795314789,
        -0.007096706889569759,
        0.03829190880060196,
        -0.08124475181102753,
        -0.07770270854234695,
        -0.19991923868656158,
        -0.06756290793418884,
        0.030484549701213837,
        -0.10475924611091614,
        0.08624684810638428,
        -0.12206993252038956,
        0.06276189535856247,
        -0.10471712052822113,
        0.11545751243829727,
        -0.25401055812835693,
        -0.2541680932044983,
        0.0657743513584137,
        -0.20555904507637024,
        -0.0263479333370924,
        -0.04633967950940132,
        0.38486090302467346,
        -0.13266287744045258,
        0.25267112255096436,
        0.19054782390594482,
        -0.05065903067588806,
        0.166788250207901,
        0.09760257601737976,
        -0.25534358620643616,
        -0.04768691956996918,
        0.019118204712867737,
        -0.0649312436580658,
        0.0031966629903763533,
        0.25267431139945984,
        -0.07686855643987656,
        0.15751948952674866,
        -0.2662407457828522,
        0.030326390638947487,
        0.10225984454154968,
        -0.11682320386171341,
        0.17294086515903473,
        -0.0890384092926979,
        0.013268861919641495,
        0.05163074657320976,
        -0.10840924084186554,
        -0.22373542189598083,
        0.21285736560821533
      ],
      [
        -0.11876522749662399,
        -0.13934804499149323,
        -0.029830925166606903,
        0.05136220529675484,
        -0.22320762276649475,
        -0.1269853115081787,
        0.13284136354923248,
        0.07550762593746185,
        0.06921412795782089,
        -0.14347217977046967,
        0.20357105135917664,
        -0.050514984875917435,
        0.17870181798934937,
        0.033658284693956375,
        0.16391496360301971,
        -0.09338262677192688,
        -0.0014792929869145155,
        0.09942036122083664,
        -0.18912167847156525,
        0.008237570524215698,
        0.10584690421819687,
        -0.13780203461647034,
        0.12060918658971786,
        -0.28485792875289917,
        -0.04851368069648743,
        -0.06681539863348007,
        -0.07254208624362946,
        -0.03599408641457558,
        0.11897759139537811,
        0.0054750582203269005,
        -0.06042139232158661,
        0.1861497461795807,
        -0.08019540458917618,
        -0.12811985611915588,
        0.12449435889720917,
        -0.21498540043830872,
        0.2279178649187088,
        0.08241596072912216,
        0.09817477315664291,
        -0.04682907462120056,
        0.2579999566078186,
        -0.05809730291366577,
        0.005116088315844536,
        -0.011063655838370323,
        0.1640768200159073,
        -0.14135608077049255,
        0.06759033352136612,
        -0.14795804023742676,
        -0.06054145470261574,
        -0.08802913129329681,
        0.07587207108736038,
        0.011241426691412926,
        -0.03341783583164215,
        -0.149053156375885,
        0.09819956868886948,
        -0.02951187454164028,
        -0.10533435642719269,
        0.09508398175239563,
        -0.16188432276248932,
        0.08421219140291214,
        -0.06429409235715866,
        -0.09764295071363449,
        -0.3903152644634247,
        0.17721790075302124
      ],
      [
        -0.022877193987369537,
        -0.12106133997440338,
        -0.03429509326815605,
        -0.115030936896801,
        -0.08031587302684784,
        4.879328116658144e-05,
        0.03496716916561127,
        -0.08449109643697739,
        0.007779654115438461,
        -0.07395848631858826,
        0.10001278668642044,
        0.0952046737074852,
        -0.05548712611198425,
        0.057372357696294785,
        0.0830347090959549,
        0.03052804432809353,
        -0.12978854775428772,
        -0.12395661324262619,
        -0.03277754411101341,
        -0.030093707144260406,
        0.08775968104600906,
        0.000932804134208709,
        0.1440923660993576,
        -0.020688354969024658,
        -0.11427736282348633,
        -0.09643209725618362,
        0.130766823887825,
        -0.09131889790296555,
        -0.08176053315401077,
        0.053556106984615326,
        -0.11396423727273941,
        0.028433650732040405,
        0.01403274666517973,
        -0.057182542979717255,
        0.04733370989561081,
        0.07590041309595108,
        0.041175417602062225,
        0.0037210723385214806,
        0.10357969999313354,
        -0.0809037983417511,
        -0.04148672893643379,
        0.10347439348697662,
        0.07478992640972137,
        0.06365232914686203,
        0.008959479629993439,
        0.008652609772980213,
        -0.08695060759782791,
        0.0808177962899208,
        -0.025296533480286598,
        -0.020731588825583458,
        0.008194604888558388,
        -0.08230017125606537,
        -0.06766827404499054,
        0.13727544248104095,
        0.10288432240486145,
        -0.11931990087032318,
        -0.021001717075705528,
        -0.04140932485461235,
        -0.04978548362851143,
        0.09291930496692657,
        0.11247598379850388,
        0.07083672285079956,
        0.049138233065605164,
        -0.13419924676418304
      ],
      [
        0.03567241504788399,
        -0.07470452040433884,
        0.037041857838630676,
        0.06746812909841537,
        -0.010122222825884819,
        -0.09805689007043839,
        0.013138283975422382,
        0.0036354931071400642,
        -0.05304403975605965,
        0.06786087155342102,
        -0.0020349917467683554,
        -0.13381054997444153,
        0.01070414762943983,
        -0.07355926930904388,
        0.09328805655241013,
        -0.0007625021389685571,
        0.06402929872274399,
        -0.11027220636606216,
        -0.02298501506447792,
        0.09650014340877533,
        0.0521080307662487,
        0.12795528769493103,
        0.07615549862384796,
        -0.10435577481985092,
        -0.06782858818769455,
        0.13741162419319153,
        0.056465033441782,
        0.06496374309062958,
        -0.06540451943874359,
        0.12623515725135803,
        -0.026420652866363525,
        -0.04001840949058533,
        -0.026035282760858536,
        0.0721740648150444,
        -0.09779782593250275,
        -0.08768989890813828,
        -0.053048841655254364,
        0.021541593596339226,
        -0.04132356867194176,
        0.04860939458012581,
        0.16087675094604492,
        0.025815129280090332,
        -0.12052018195390701,
        -0.009287660010159016,
        0.09428974241018295,
        0.03716506063938141,
        -0.08378710597753525,
        0.011138075962662697,
        -0.030742045491933823,
        0.003410180564969778,
        0.09965609759092331,
        0.07474491745233536,
        -0.06578492373228073,
        -0.07143798470497131,
        0.08406824618577957,
        -0.09410008043050766,
        0.09768000990152359,
        0.007724940776824951,
        0.09040828794240952,
        0.05276823043823242,
        0.05525577440857887,
        -0.10369618237018585,
        -0.09135347604751587,
        0.14226429164409637
      ],
      [
        0.10370651632547379,
        0.03953532129526138,
        -0.09810718894004822,
        -0.09105571359395981,
        0.031515300273895264,
        -0.0446944534778595,
        0.07117109000682831,
        0.0028049310203641653,
        0.009861215949058533,
        0.002021452644839883,
        -0.07717084139585495,
        -0.01515285950154066,
        -0.059498753398656845,
        0.04189923033118248,
        -0.09172332286834717,
        -0.03417777642607689,
        -0.07326870411634445,
        -0.045941829681396484,
        -0.07576064020395279,
        -0.13615252077579498,
        -0.05520332604646683,
        0.09150438010692596,
        0.07401823252439499,
        -0.1070939153432846,
        0.08062887191772461,
        0.026300815865397453,
        0.11203078925609589,
        -0.09533674269914627,
        0.006608996074646711,
        -0.06665660440921783,
        -0.08561497181653976,
        -0.09393236041069031,
        -0.06569907814264297,
        0.12264304608106613,
        -0.03250953555107117,
        -0.06158040463924408,
        0.04060656204819679,
        0.015172160230576992,
        -0.08806971460580826,
        -0.0920274555683136,
        -0.06312988698482513,
        -0.13122104108333588,
        -0.11120973527431488,
        -0.012834075838327408,
        0.05613449215888977,
        0.07196500152349472,
        -0.009395421482622623,
        -0.053535956889390945,
        -0.13395234942436218,
        -0.08923236280679703,
        -0.03713085129857063,
        -0.0981127917766571,
        -0.04950128495693207,
        -0.02740970253944397,
        -0.09136281162500381,
        0.04058986157178879,
        -0.007771474774926901,
        -0.08728978037834167,
        -0.09659243375062943,
        -0.032665397971868515,
        -0.12471213191747665,
        0.01427406258881092,
        -0.07060672342777252,
        0.06387802958488464
      ],
      [
        -0.07153881341218948,
        -0.05317514389753342,
        0.005304708145558834,
        0.08114262670278549,
        -0.012238731607794762,
        -0.07101979851722717,
        0.0923692062497139,
        0.013678841292858124,
        -0.06340708583593369,
        -0.03532030060887337,
        -0.01164837647229433,
        0.01906166411936283,
        0.09384019672870636,
        0.0714474618434906,
        0.13415461778640747,
        0.009741147048771381,
        -0.11429628729820251,
        -0.11334150284528732,
        -0.03430622071027756,
        0.03999407961964607,
        -0.15688729286193848,
        -0.00825780164450407,
        -0.1523354947566986,
        -0.029100224375724792,
        -0.072540283203125,
        -0.08995774388313293,
        0.01619708724319935,
        0.052566882222890854,
        -0.02859102189540863,
        -0.1034429743885994,
        0.09119508415460587,
        -0.04887799173593521,
        -0.02030283771455288,
        -0.07563883066177368,
        -0.056603316217660904,
        -0.017312360927462578,
        0.03454393148422241,
        0.10439275950193405,
        -0.020837806165218353,
        -0.12277001887559891,
        -0.0015175247099250555,
        0.02103712595999241,
        0.021333299577236176,
        0.07076111435890198,
        -0.05642947182059288,
        0.09370940178632736,
        0.12085644155740738,
        0.07038769870996475,
        -0.039717286825180054,
        -0.1149924099445343,
        0.11250709742307663,
        0.11873716115951538,
        0.07066679000854492,
        -0.04904787987470627,
        0.03990490734577179,
        0.021238205954432487,
        0.023758120834827423,
        0.09093542397022247,
        0.04830140247941017,
        0.030743516981601715,
        0.1021239161491394,
        0.06787385791540146,
        0.031257979571819305,
        0.06884916126728058
      ],
      [
        -0.005191738251596689,
        -0.02123742364346981,
        0.08140222728252411,
        -0.04015675559639931,
        0.11003648489713669,
        -0.06521584838628769,
        0.058726776391267776,
        0.11697404831647873,
        0.025060195475816727,
        -0.007454752456396818,
        -0.05291483923792839,
        -0.007683378644287586,
        -0.08098282665014267,
        0.12069158256053925,
        0.005368911195546389,
        -0.026586035266518593,
        -0.11269654333591461,
        -0.08548935502767563,
        -0.06650379300117493,
        -0.19815325736999512,
        -0.147882878780365,
        0.06785809993743896,
        0.062056250870227814,
        -0.06931430101394653,
        0.04707818478345871,
        -0.08070363104343414,
        0.19472569227218628,
        0.013498488813638687,
        -0.11086047440767288,
        -0.02110716700553894,
        -0.053635142743587494,
        0.07203178852796555,
        0.09299124032258987,
        0.061583008617162704,
        -0.06238236278295517,
        -0.10630660504102707,
        -0.09580975025892258,
        0.09824112802743912,
        -0.05027232691645622,
        -0.11073564738035202,
        0.11768317967653275,
        -0.11948897689580917,
        0.08642265945672989,
        -0.134877011179924,
        -0.014681692235171795,
        -0.10653698444366455,
        0.08354543894529343,
        -0.02962365560233593,
        -0.08941330760717392,
        -0.07477080076932907,
        -0.03667985647916794,
        0.09230721741914749,
        0.06766212731599808,
        0.010073607787489891,
        -0.09465852379798889,
        -0.015036676079034805,
        -0.005720025394111872,
        0.08351729065179825,
        0.05933375284075737,
        -0.03933175280690193,
        0.04263613000512123,
        0.012014059349894524,
        0.11638270318508148,
        -0.145620658993721
      ],
      [
        0.04274342581629753,
        0.036223459988832474,
        0.07842224091291428,
        0.0016605537384748459,
        0.03105872869491577,
        -0.05121312290430069,
        -0.0612252913415432,
        -0.012671357952058315,
        -0.026685519143939018,
        0.05561905726790428,
        0.030772127211093903,
        -0.06795933097600937,
        0.03634899482131004,
        -0.08486589044332504,
        -0.05364276096224785,
        0.023796282708644867,
        0.08371113985776901,
        -0.12209217250347137,
        -0.11423610895872116,
        0.0007957398192957044,
        0.10342609137296677,
        -0.0767161101102829,
        -0.05286528542637825,
        -0.02436365745961666,
        0.02013152837753296,
        -0.025417637079954147,
        0.11509399861097336,
        -0.02637602388858795,
        0.0998053103685379,
        0.01588413678109646,
        0.026686519384384155,
        0.023287160322070122,
        0.0020969482138752937,
        0.049960941076278687,
        0.018907243385910988,
        0.02823542058467865,
        -0.14212067425251007,
        -0.03088097646832466,
        -0.05409358814358711,
        -0.06136593967676163,
        0.011184618808329105,
        0.10417544841766357,
        0.044593993574380875,
        0.11984745413064957,
        -0.012503668665885925,
        -0.008057719096541405,
        0.10636691749095917,
        0.012238428927958012,
        0.0021446982864290476,
        -0.03446289524435997,
        -0.09077402204275131,
        0.05841248482465744,
        -0.10533493012189865,
        0.008521206676959991,
        -0.06575971096754074,
        -0.04148677736520767,
        0.004965134430676699,
        0.08190903067588806,
        -0.03553394228219986,
        0.044413693249225616,
        0.008068084716796875,
        0.002758461283519864,
        0.02885933592915535,
        0.02460828796029091
      ],
      [
        -0.09704630076885223,
        0.11010726541280746,
        -0.07452721893787384,
        -0.12266071885824203,
        0.11498923599720001,
        -0.10634597390890121,
        -0.033191706985235214,
        -0.02246789075434208,
        0.02014729753136635,
        -0.08281219750642776,
        0.018056081607937813,
        -0.00700114481151104,
        0.0638500526547432,
        0.10619687288999557,
        0.10695134103298187,
        -0.06542196124792099,
        -0.008954057469964027,
        -0.05611298978328705,
        0.07045444846153259,
        -0.12812219560146332,
        -0.09246451407670975,
        -0.05951656773686409,
        0.0149102583527565,
        0.024056661874055862,
        0.04493430256843567,
        -0.021784164011478424,
        0.1061551570892334,
        0.02780751697719097,
        -0.035209644585847855,
        -0.13414046168327332,
        0.02231852151453495,
        0.03492256999015808,
        -0.05604290962219238,
        0.12405618280172348,
        -0.042365748435258865,
        0.05063072592020035,
        0.08479520678520203,
        0.043385155498981476,
        0.12439282238483429,
        0.1226428896188736,
        -0.02820359542965889,
        0.0937611535191536,
        0.096793033182621,
        -0.12838919460773468,
        -0.0022544697858393192,
        -0.011523514054715633,
        0.13742808997631073,
        -0.05965624377131462,
        -0.13127776980400085,
        -0.09258059412240982,
        -0.04215023294091225,
        -0.05064184591174126,
        -0.023206276819109917,
        0.01994932070374489,
        0.040669091045856476,
        -0.018045708537101746,
        0.016685979440808296,
        -0.0681171715259552,
        -0.07062544673681259,
        -0.10005442053079605,
        -0.06963762640953064,
        -0.0014345835661515594,
        -0.034368496388196945,
        -0.047379933297634125
      ],
      [
        0.4397238492965698,
        0.13940025866031647,
        -0.09644421190023422,
        0.0960957333445549,
        0.09206187725067139,
        -0.1142866387963295,
        -0.2966650426387787,
        -0.006092395167797804,
        -0.12194647639989853,
        -0.022337106987833977,
        -0.12694641947746277,
        0.04082348197698593,
        -0.04188178479671478,
        -0.07652878016233444,
        0.026641154661774635,
        0.12192171066999435,
        0.06958641111850739,
        0.011241182684898376,
        -0.03224656730890274,
        -0.1482825130224228,
        -0.11448335647583008,
        -0.0374901108443737,
        0.04960436001420021,
        0.34526148438453674,
        0.03104781173169613,
        0.05067585036158562,
        -0.09684520214796066,
        -0.0010442623170092702,
        -0.09060582518577576,
        -0.30314740538597107,
        -0.07608762383460999,
        0.062533438205719,
        0.2005007416009903,
        0.4925219714641571,
        -0.11988414078950882,
        0.2503765821456909,
        0.019918177276849747,
        0.014535785652697086,
        -0.1090996265411377,
        0.2640329599380493,
        -0.2018612027168274,
        -0.12624864280223846,
        -0.07059741765260696,
        -0.12920647859573364,
        -0.002953513292595744,
        0.02196412719786167,
        0.04185885936021805,
        -0.057026419788599014,
        -0.03842727094888687,
        0.11016324162483215,
        -0.07885902374982834,
        -0.006431289482861757,
        -0.09376030415296555,
        0.04179549962282181,
        0.07694389671087265,
        -0.046569470316171646,
        0.09711018949747086,
        -0.1131165474653244,
        -0.026355143636465073,
        -0.09511798620223999,
        -0.12211129069328308,
        0.11273335665464401,
        0.21935787796974182,
        -0.040982313454151154
      ],
      [
        -0.04801688715815544,
        -0.07485315203666687,
        0.0787721574306488,
        -0.09321117401123047,
        -0.07395471632480621,
        -0.04973408952355385,
        0.030508754774928093,
        -0.07134874910116196,
        -0.0666186511516571,
        0.1011715903878212,
        -0.03390154242515564,
        -0.04452411085367203,
        0.07372128963470459,
        0.04832208529114723,
        -0.06882131099700928,
        0.10573455691337585,
        -0.022753091529011726,
        -0.031296562403440475,
        0.12325966358184814,
        -0.08495526760816574,
        0.06989673525094986,
        -0.10949937999248505,
        -0.12630370259284973,
        -0.0133889215067029,
        -0.11992170661687851,
        0.025402288883924484,
        0.07662977278232574,
        -0.10539388656616211,
        -0.036581698805093765,
        0.09978489577770233,
        -0.02971249632537365,
        -0.07602158188819885,
        0.0773094967007637,
        -0.02726760506629944,
        0.084171824157238,
        0.055909719318151474,
        0.0922015905380249,
        0.06464186310768127,
        0.08741677552461624,
        -0.020994560793042183,
        0.08032210171222687,
        -0.08707922697067261,
        -0.0400962308049202,
        -0.09602710604667664,
        0.014339023269712925,
        -0.06448736041784286,
        -0.07628067582845688,
        0.09893431514501572,
        -0.10997249186038971,
        -0.12482427060604095,
        -0.10156385600566864,
        0.024550797417759895,
        0.03486817702651024,
        0.004464180674403906,
        0.02830599434673786,
        0.11397623270750046,
        -0.05460648611187935,
        -0.08113270998001099,
        -0.08433181047439575,
        -0.10627879202365875,
        0.0275442972779274,
        0.036904476583004,
        -0.019753456115722656,
        0.13840262591838837
      ],
      [
        -0.04811054468154907,
        0.05885152891278267,
        -0.12130830436944962,
        0.10118873417377472,
        -0.030486032366752625,
        -0.0523119755089283,
        -0.08756189048290253,
        0.08765225857496262,
        -0.07615651190280914,
        -0.023940851911902428,
        -0.0395091250538826,
        0.059969160705804825,
        -0.029993122443556786,
        0.1407572478055954,
        -0.05191809684038162,
        -0.10702680796384811,
        0.03657950088381767,
        -0.05178891122341156,
        -0.05136960744857788,
        -0.10787998139858246,
        -0.10404830425977707,
        0.02841678448021412,
        -0.10860257595777512,
        -0.07656767219305038,
        -0.1400279849767685,
        0.023878490552306175,
        -0.06430632621049881,
        0.05526793748140335,
        -0.04898772016167641,
        0.036877963691949844,
        0.06555941700935364,
        -0.044588491320610046,
        0.13011375069618225,
        0.1008882224559784,
        -0.03508007898926735,
        -0.06974221020936966,
        -0.04122784733772278,
        0.06961274892091751,
        0.08779289573431015,
        -0.052791010588407516,
        -0.004807472229003906,
        -0.03306850418448448,
        0.015029982663691044,
        -0.08267252892255783,
        -0.017929140478372574,
        -0.04829876869916916,
        0.11574467271566391,
        -0.04950248450040817,
        -0.08935626596212387,
        0.04968709498643875,
        -0.034336697310209274,
        0.06598812341690063,
        -0.00767903495579958,
        0.09760371595621109,
        -0.022491581737995148,
        -0.05295664817094803,
        0.04934922978281975,
        -0.02818339876830578,
        0.055971525609493256,
        0.11162649840116501,
        0.04601690173149109,
        -0.021746179088950157,
        -0.08020872622728348,
        -0.10525790601968765
      ],
      [
        -0.05901975929737091,
        -0.19144980609416962,
        -0.01826591230928898,
        -0.0735594853758812,
        -0.22839701175689697,
        -0.08022962510585785,
        0.08431917428970337,
        -0.061415839940309525,
        0.12256070226430893,
        -0.10208489000797272,
        0.2268460988998413,
        -0.07627823948860168,
        -0.011559641920030117,
        0.0478079617023468,
        0.08765667676925659,
        -0.10621818155050278,
        0.14766569435596466,
        0.0260954387485981,
        -0.14386847615242004,
        -0.010241427458822727,
        0.08855476975440979,
        0.07337658852338791,
        0.1263180822134018,
        -0.16040922701358795,
        -0.057624008506536484,
        -0.0629911869764328,
        0.0524202361702919,
        0.12475647032260895,
        -0.11593347787857056,
        0.08619652688503265,
        -0.17324109375476837,
        0.1740284413099289,
        -0.1902693808078766,
        -0.23190782964229584,
        -0.1125461757183075,
        -0.21528089046478271,
        0.11049913614988327,
        -0.07931949943304062,
        0.33982595801353455,
        -0.06569702178239822,
        0.1896192729473114,
        0.0977248102426529,
        -0.03392850235104561,
        0.02614634856581688,
        0.12164707481861115,
        -0.1962834894657135,
        -0.08084876835346222,
        -0.09177251905202866,
        0.12725092470645905,
        -0.051277030259370804,
        0.019954482093453407,
        -0.04785628989338875,
        0.11487206816673279,
        -0.16510362923145294,
        0.13776709139347076,
        0.16355477273464203,
        -0.19365078210830688,
        0.00799640454351902,
        0.036200955510139465,
        0.02625916339457035,
        -0.017353324219584465,
        0.04878460615873337,
        -0.1353185474872589,
        0.12385772913694382
      ],
      [
        0.14627939462661743,
        -0.08849809318780899,
        -0.12208874523639679,
        0.01862436532974243,
        -0.03709884360432625,
        -0.06762973964214325,
        -0.0785483866930008,
        -0.019786028191447258,
        -0.06615816056728363,
        0.05819030478596687,
        0.0643778070807457,
        0.26705536246299744,
        -0.014038780704140663,
        -0.07431472837924957,
        0.06257394701242447,
        -0.08478858321905136,
        0.06553930789232254,
        0.09181845188140869,
        -0.127943217754364,
        0.02735831029713154,
        0.09454966336488724,
        0.07791909575462341,
        0.13687148690223694,
        0.049426790326833725,
        -0.07643081992864609,
        0.10679124295711517,
        -0.009059305302798748,
        0.027218066155910492,
        -0.026502201333642006,
        0.06733793020248413,
        -0.03469301760196686,
        0.008316393941640854,
        -0.02332276478409767,
        -0.0017591009382158518,
        -0.10478125512599945,
        -0.04235507547855377,
        -0.04135798662900925,
        -0.03553672507405281,
        0.054035838693380356,
        0.074296735227108,
        0.1090337336063385,
        -0.06327971071004868,
        -0.1012042686343193,
        -0.03059506230056286,
        -0.12716032564640045,
        0.0740702822804451,
        -0.10922971367835999,
        -0.0696263387799263,
        0.032104168087244034,
        0.015498746186494827,
        -0.01023196056485176,
        -0.012324173003435135,
        0.01740206778049469,
        9.753323683980852e-05,
        0.045849964022636414,
        -0.2220967411994934,
        0.11590670794248581,
        0.18606919050216675,
        -0.02862708270549774,
        -0.051921866834163666,
        -0.027094990015029907,
        0.05905529484152794,
        0.1098921075463295,
        0.113919198513031
      ],
      [
        -0.08499490469694138,
        0.0428159162402153,
        0.13431882858276367,
        -0.08412818610668182,
        0.0608040988445282,
        -0.15525099635124207,
        -0.09943867474794388,
        0.026282642036676407,
        -0.10581589490175247,
        0.08439116925001144,
        -0.006807106081396341,
        0.12391320616006851,
        -0.13866208493709564,
        0.12789984047412872,
        0.058335430920124054,
        0.08209004998207092,
        -0.15311945974826813,
        -0.0580325610935688,
        0.04220883548259735,
        -0.13908930122852325,
        -0.1222943365573883,
        0.13471657037734985,
        0.09660299867391586,
        0.10339181125164032,
        -0.044656261801719666,
        0.01903039962053299,
        -0.07644608616828918,
        0.06383185088634491,
        -0.02665163390338421,
        0.09848838299512863,
        -0.015067894011735916,
        0.0657750815153122,
        0.011768233962357044,
        -0.06686118245124817,
        0.06420411169528961,
        0.05965011566877365,
        -0.06888695061206818,
        0.007513218559324741,
        0.11188850551843643,
        -0.10884274542331696,
        0.1616191267967224,
        0.10005676746368408,
        0.08370909839868546,
        -0.08554524183273315,
        -0.133061945438385,
        -0.08308842033147812,
        0.05693938583135605,
        0.12047001719474792,
        0.07097731530666351,
        -0.03429122641682625,
        -0.08072590082883835,
        -0.005021723452955484,
        0.0748983696103096,
        0.10430758446455002,
        -0.005440786015242338,
        0.03073243238031864,
        -0.023444509133696556,
        0.01498787198215723,
        0.05547856166958809,
        -0.08319994062185287,
        -0.09226567298173904,
        -0.06893481314182281,
        0.07453350722789764,
        0.12433085590600967
      ],
      [
        -0.0765358954668045,
        -0.04242190346121788,
        0.03384477272629738,
        -0.1352323591709137,
        -0.1255362182855606,
        0.0410335399210453,
        -0.1524660289287567,
        -0.018997596576809883,
        -0.1394222229719162,
        -0.17227496206760406,
        0.18751627206802368,
        0.02921121194958687,
        0.015117442235350609,
        0.007297753356397152,
        -0.027117891237139702,
        -0.057442910969257355,
        -0.008761035278439522,
        -0.02356896735727787,
        -0.11227581650018692,
        -0.11983321607112885,
        0.12664899230003357,
        -0.08016189187765121,
        -0.009689259342849255,
        0.051597710698843,
        -0.062478095293045044,
        0.07434355467557907,
        -0.10569600015878677,
        -0.13526514172554016,
        -0.05053657665848732,
        -0.12156586349010468,
        -0.12232416868209839,
        0.039111409336328506,
        -0.06951776146888733,
        0.14277972280979156,
        -0.12787644565105438,
        -0.14824557304382324,
        0.1252269297838211,
        0.06879259645938873,
        0.23919188976287842,
        0.010991211980581284,
        0.09891968965530396,
        0.1265842318534851,
        0.018577827140688896,
        0.16259147226810455,
        0.0849962905049324,
        -0.03305814415216446,
        -0.10551971197128296,
        0.006400414276868105,
        0.0746864601969719,
        -0.026161866262555122,
        0.005804579704999924,
        0.017718767747282982,
        -0.026402823626995087,
        0.003465306246653199,
        0.009106711484491825,
        0.11370501667261124,
        -0.1593710333108902,
        0.11167580634355545,
        0.029861005023121834,
        0.08325141668319702,
        0.01761750690639019,
        -0.1178438737988472,
        -0.09889037162065506,
        -0.08020702749490738
      ],
      [
        0.09950706362724304,
        0.059038471430540085,
        0.05069269612431526,
        0.06732570379972458,
        0.10293053835630417,
        -0.025504617020487785,
        -0.013788016512989998,
        0.11285975575447083,
        0.06288526207208633,
        -0.088800810277462,
        0.05035728961229324,
        0.049363937228918076,
        -0.027028556913137436,
        0.1257791966199875,
        -0.04498261585831642,
        0.11437968164682388,
        -0.04390430077910423,
        -0.08004500716924667,
        0.0007222465937957168,
        0.02452285774052143,
        0.08594617992639542,
        0.10252968221902847,
        0.09304655343294144,
        0.004989565350115299,
        0.1209803968667984,
        0.15676720440387726,
        0.04593907669186592,
        0.024425851181149483,
        -0.04828501120209694,
        -0.06800802052021027,
        0.06455538421869278,
        -0.02090771123766899,
        0.14438404142856598,
        0.21723510324954987,
        -0.02723679319024086,
        0.09432977437973022,
        0.08535879850387573,
        0.05667702481150627,
        0.08979091793298721,
        0.13687533140182495,
        -0.02237018570303917,
        -0.02835928276181221,
        0.011488214135169983,
        0.007309128064662218,
        -0.021793529391288757,
        0.04570481553673744,
        -0.037842705845832825,
        0.06428170949220657,
        -0.02266012132167816,
        -0.06964628398418427,
        0.0733327865600586,
        0.12763026356697083,
        -0.019415970891714096,
        -0.07484374940395355,
        0.02791331149637699,
        0.05369608476758003,
        -0.013783128932118416,
        0.03818945586681366,
        -0.06348678469657898,
        -0.019993148744106293,
        -0.044817063957452774,
        0.0547948032617569,
        0.12760603427886963,
        -0.12022540718317032
      ],
      [
        0.0642775222659111,
        0.0347929485142231,
        -0.057602424174547195,
        0.13709603250026703,
        -0.017296813428401947,
        -0.13038639724254608,
        -0.029859382659196854,
        -0.02012571692466736,
        0.04620428755879402,
        -0.010079339146614075,
        -0.06707008928060532,
        -0.0357772558927536,
        -0.06630925089120865,
        -0.039095792919397354,
        -0.06312219798564911,
        0.08342267572879791,
        -0.10942324995994568,
        -0.054541777819395065,
        -0.0009077584254555404,
        0.003710796358063817,
        -0.12433667480945587,
        0.032480936497449875,
        -0.0799560397863388,
        0.020084887742996216,
        -0.01334148459136486,
        -0.07986076176166534,
        0.016658399254083633,
        -0.048835206776857376,
        0.058009810745716095,
        0.0725298523902893,
        -0.06570222973823547,
        -0.09149456769227982,
        -0.08545324206352234,
        -0.032330937683582306,
        0.12936566770076752,
        0.05479961633682251,
        0.12895295023918152,
        -0.04855279624462128,
        0.025456540286540985,
        -0.009876050055027008,
        0.07763973623514175,
        0.02236410416662693,
        -0.015430841594934464,
        0.08914701640605927,
        -0.06628324091434479,
        -0.035296883434057236,
        -0.0891793742775917,
        -0.06380657851696014,
        0.008124405518174171,
        -0.10134313255548477,
        -0.03125207498669624,
        0.10554828494787216,
        -0.030299795791506767,
        -0.039250005036592484,
        0.05111604183912277,
        -0.050851743668317795,
        -0.06716321408748627,
        -0.05895225703716278,
        -0.0974273681640625,
        0.07803306728601456,
        -0.03841475024819374,
        0.12738274037837982,
        0.03362473100423813,
        0.13138388097286224
      ],
      [
        0.11841364204883575,
        0.044093456119298935,
        0.11281879991292953,
        -0.0820690393447876,
        -0.10726948082447052,
        -0.10864850133657455,
        0.08113409578800201,
        -0.10056930035352707,
        -0.09396311640739441,
        -0.09938450157642365,
        -0.06405731290578842,
        0.01206861063838005,
        0.013537776656448841,
        -0.07857628911733627,
        -0.005782578140497208,
        0.12239430844783783,
        -0.06303088366985321,
        0.030933406203985214,
        -0.0697566568851471,
        0.03490948677062988,
        0.08041176944971085,
        -0.004484087228775024,
        -0.0989665612578392,
        -0.04426451027393341,
        -0.014839272946119308,
        0.03818850964307785,
        -0.10488367080688477,
        -0.0017525466391816735,
        -0.10730493813753128,
        -0.06544376909732819,
        -0.034796811640262604,
        -0.03208576887845993,
        -0.028201790526509285,
        -0.09348195791244507,
        0.05679929256439209,
        -0.16420167684555054,
        0.04127105697989464,
        -0.035350438207387924,
        0.05437138304114342,
        0.07623035460710526,
        0.10705158114433289,
        -0.06245841458439827,
        -0.08341415226459503,
        -0.02000589296221733,
        -0.05760355293750763,
        -0.07049505412578583,
        0.08327173441648483,
        -0.12832650542259216,
        -0.0987633466720581,
        -0.010398320853710175,
        0.00220958748832345,
        -0.011433050967752934,
        -0.11978895962238312,
        0.04484394192695618,
        0.028959618881344795,
        -0.06239371746778488,
        0.07684735208749771,
        0.12043049186468124,
        0.056041814386844635,
        -0.07307641208171844,
        -0.04061729088425636,
        -0.04269920662045479,
        -0.02513432689011097,
        -0.08475547283887863
      ],
      [
        0.10023012012243271,
        0.08837519586086273,
        0.012994748540222645,
        -0.05642067268490791,
        -0.09917114675045013,
        -0.08651652932167053,
        -0.03322787210345268,
        -0.05034888535737991,
        0.003581946948543191,
        0.050264421850442886,
        0.30505770444869995,
        0.30047351121902466,
        -0.010266007855534554,
        -0.16452766954898834,
        0.049424394965171814,
        -0.00952563714236021,
        -0.1003333032131195,
        0.0718427300453186,
        -0.20560157299041748,
        0.04478669539093971,
        -0.014153840020298958,
        0.024502793326973915,
        0.29542723298072815,
        0.03721911087632179,
        0.029281938448548317,
        0.09128842502832413,
        0.07836660742759705,
        0.016263699159026146,
        0.06429505348205566,
        -0.09353335201740265,
        -0.07486755400896072,
        0.1341514140367508,
        -0.040447838604450226,
        -0.06879319995641708,
        -0.1340082436800003,
        0.002059571910649538,
        0.13383419811725616,
        0.11170216649770737,
        -0.07443806529045105,
        0.10892057418823242,
        -0.0556844025850296,
        0.11551859974861145,
        -0.2625996470451355,
        0.05855103209614754,
        -0.0810130387544632,
        0.15780377388000488,
        -0.019071444869041443,
        -0.053693756461143494,
        0.07602060586214066,
        0.034972161054611206,
        -0.034311674535274506,
        -0.1329803764820099,
        0.002208335092291236,
        -0.009397849440574646,
        0.02380950190126896,
        -0.10021200031042099,
        -0.02275657281279564,
        0.0934128537774086,
        -0.0009774339850991964,
        0.10859314352273941,
        0.08795401453971863,
        -0.03402286022901535,
        0.14563846588134766,
        -0.03319225087761879
      ],
      [
        0.0617133192718029,
        -0.13241179287433624,
        -0.19149477779865265,
        -0.06521622091531754,
        -0.013751909136772156,
        -0.09295417368412018,
        -0.08002664148807526,
        -0.11980236321687698,
        0.06835796684026718,
        -0.12032720446586609,
        0.11085733771324158,
        0.03377695381641388,
        -0.031034113839268684,
        0.05226214975118637,
        -0.10679091513156891,
        0.03618638217449188,
        0.08662847429513931,
        0.10576850920915604,
        0.014872027561068535,
        -0.002496685367077589,
        -0.007118287030607462,
        0.03919689729809761,
        0.03203831613063812,
        -0.0896984413266182,
        0.10964309424161911,
        0.08907278627157211,
        -0.07595387101173401,
        -0.09620401263237,
        -0.1829114854335785,
        0.07480920106172562,
        0.0725150927901268,
        -0.02963806316256523,
        0.00957738421857357,
        0.12014994025230408,
        -0.01562938652932644,
        -0.04259181395173073,
        -0.0003937350120395422,
        -0.02941502444446087,
        0.1165568083524704,
        0.06653819978237152,
        0.11736471205949783,
        0.04025600850582123,
        0.07197468727827072,
        0.12232215702533722,
        0.13663256168365479,
        0.03866545483469963,
        -0.07679197192192078,
        0.10346727818250656,
        -0.034063760191202164,
        -0.10007403045892715,
        0.13728448748588562,
        0.161911740899086,
        0.29851096868515015,
        0.06764933466911316,
        0.03748362138867378,
        0.02777392417192459,
        0.02593701146543026,
        0.07202914357185364,
        0.004441257566213608,
        0.02589660882949829,
        -0.022036779671907425,
        -0.02966902032494545,
        0.1261223405599594,
        -0.06108510121703148
      ],
      [
        0.0057251956313848495,
        -0.14715640246868134,
        -0.14572152495384216,
        -0.0047166780568659306,
        0.07901616394519806,
        0.05831732600927353,
        0.17920926213264465,
        0.03941700980067253,
        0.1272808015346527,
        0.029326967895030975,
        -0.072884202003479,
        0.062972292304039,
        0.13324420154094696,
        -0.02050558663904667,
        0.06955697387456894,
        -0.009422161616384983,
        0.07328257709741592,
        -0.104855976998806,
        0.12268729507923126,
        0.04806935414671898,
        0.04887047037482262,
        -0.02855564095079899,
        -0.03454355522990227,
        -0.08303709328174591,
        -0.03113660030066967,
        -0.1305055320262909,
        -0.034617580473423004,
        0.017564652487635612,
        0.028086259961128235,
        0.07857818156480789,
        -0.08417461812496185,
        -0.07434125989675522,
        -0.1583610475063324,
        -0.053759247064590454,
        -0.006842098664492369,
        -0.08185962587594986,
        -0.11943786591291428,
        -0.0009274551412090659,
        0.10269312560558319,
        -0.12896773219108582,
        0.24271425604820251,
        0.14416556060314178,
        0.019055744633078575,
        -0.05516214668750763,
        -0.06436338275671005,
        0.03938029333949089,
        0.07333315908908844,
        0.12682124972343445,
        -0.0992487221956253,
        -0.05179635435342789,
        0.04698321595788002,
        -0.021527152508497238,
        0.10215828567743301,
        -0.16392622888088226,
        -0.06520894169807434,
        -0.012363918125629425,
        0.07431372255086899,
        -0.02035639062523842,
        0.06403831392526627,
        0.03998832032084465,
        0.14862146973609924,
        0.009230443276464939,
        -0.06702931970357895,
        0.03578144684433937
      ],
      [
        0.10317709296941757,
        0.028567055240273476,
        0.06819102168083191,
        -0.04378964379429817,
        0.06673259288072586,
        0.0001932233717525378,
        0.023400375619530678,
        0.003856716910377145,
        -0.0071014962159097195,
        -0.09436289221048355,
        -0.0030182478949427605,
        0.0699080154299736,
        -0.13921120762825012,
        0.08951492607593536,
        -0.02446182817220688,
        0.11558761447668076,
        -0.12925152480602264,
        -0.05643155425786972,
        -0.10672273486852646,
        0.006116586271673441,
        0.03240295499563217,
        -0.023084493353962898,
        0.057253398001194,
        -0.060843512415885925,
        -0.04661216214299202,
        0.049055445939302444,
        0.08341790735721588,
        -0.04995456710457802,
        -0.01612214930355549,
        -0.14345966279506683,
        0.014994903467595577,
        -0.12543322145938873,
        -0.06430110335350037,
        0.24046744406223297,
        0.09282438457012177,
        0.1432979851961136,
        0.0884128212928772,
        0.11424265056848526,
        -0.019181666895747185,
        0.11976774036884308,
        -0.12482892721891403,
        -0.0818672701716423,
        -0.13076826930046082,
        0.030582912266254425,
        -0.0763622596859932,
        0.06456051021814346,
        0.012708060443401337,
        0.05508841574192047,
        -0.02678581327199936,
        0.09257256239652634,
        -0.08540800213813782,
        -0.07082773000001907,
        -0.030151300132274628,
        0.14158688485622406,
        -0.10215306282043457,
        -0.09459052979946136,
        -0.036232151091098785,
        -0.04839251562952995,
        -0.09742502123117447,
        0.06872624903917313,
        0.08226680755615234,
        -0.10578112304210663,
        0.12940935790538788,
        -0.007034534588456154
      ],
      [
        0.18422900140285492,
        0.13151989877223969,
        0.14407430589199066,
        -0.0067870523780584335,
        -0.054773055016994476,
        -0.09340706467628479,
        0.029228461906313896,
        -0.14668995141983032,
        -0.04580957442522049,
        -0.05986275523900986,
        0.21529658138751984,
        0.23999376595020294,
        -0.033212434500455856,
        -0.004966188687831163,
        -0.10420627146959305,
        0.09994734078645706,
        0.04674393683671951,
        -0.04971212521195412,
        -0.08952130377292633,
        0.011285269632935524,
        0.08299100399017334,
        0.044914547353982925,
        0.30381086468696594,
        -0.04472428932785988,
        0.13444919884204865,
        0.21825696527957916,
        -0.056501664221286774,
        -0.012465822510421276,
        -0.032643917948007584,
        0.07471781224012375,
        0.07119637727737427,
        0.09930089116096497,
        0.007471221033483744,
        0.09944808483123779,
        -0.08781420439481735,
        -0.07832081615924835,
        0.09353665262460709,
        -0.06483231484889984,
        0.017929987981915474,
        0.13643620908260345,
        -0.1538967341184616,
        -0.039447031915187836,
        -0.24096031486988068,
        0.030569685623049736,
        -0.024846116080880165,
        0.16980639100074768,
        -0.10028837621212006,
        -0.2662876546382904,
        -0.0003085561911575496,
        -0.04450511559844017,
        -0.15595437586307526,
        -0.08521072566509247,
        -0.11183160543441772,
        0.10406680405139923,
        0.01986805349588394,
        -0.28115010261535645,
        -0.004922275897115469,
        0.10544208437204361,
        0.0012592399725690484,
        0.0073837838135659695,
        0.013301476836204529,
        -0.10590015351772308,
        0.07718490809202194,
        0.048217885196208954
      ],
      [
        0.10266605019569397,
        0.05570673197507858,
        -0.057924553751945496,
        -0.072995625436306,
        0.05595112964510918,
        -0.05870272219181061,
        0.1349586695432663,
        -0.0565168671309948,
        -0.09608986228704453,
        -0.06155027076601982,
        -0.09569267183542252,
        -0.03559330478310585,
        -0.030406637117266655,
        -0.08777621388435364,
        0.09175091236829758,
        0.003466628259047866,
        0.025366991758346558,
        -0.05819013714790344,
        0.02303996868431568,
        0.10560448467731476,
        0.04122568294405937,
        -0.011490645818412304,
        0.032027166336774826,
        -0.0729694813489914,
        -0.0933685302734375,
        -0.060209039598703384,
        -0.033789776265621185,
        0.01297817099839449,
        -0.024042252451181412,
        0.1473551243543625,
        0.02336662821471691,
        0.06182018667459488,
        -0.11174527555704117,
        -0.0022815337870270014,
        0.07695910334587097,
        0.0044297692365944386,
        -0.03441992402076721,
        0.07844686508178711,
        -0.07255291193723679,
        -0.08674998581409454,
        -0.0536629818379879,
        -0.10137256979942322,
        0.08223169296979904,
        0.03370840847492218,
        0.014185555279254913,
        -0.07851559668779373,
        0.03446374833583832,
        0.10055681318044662,
        -0.04055917263031006,
        -0.05016631633043289,
        -0.0033849028404802084,
        -0.06527184695005417,
        -0.0014142756117507815,
        0.10104428231716156,
        0.10897771269083023,
        0.02738155797123909,
        -0.1187707707285881,
        0.005998197477310896,
        0.10067837685346603,
        -0.011266370303928852,
        0.055238302797079086,
        -0.07776891440153122,
        -0.05115553364157677,
        -0.017254898324608803
      ],
      [
        0.01816312037408352,
        -0.2919488847255707,
        0.025237735360860825,
        -0.12452943623065948,
        -0.0954173281788826,
        -0.0020265821367502213,
        0.031081674620509148,
        -0.05985003709793091,
        0.16139671206474304,
        -0.0024849839974194765,
        0.08517031371593475,
        0.08401383459568024,
        0.0923696905374527,
        0.11752619594335556,
        0.12368196994066238,
        -0.05625703185796738,
        0.0721481591463089,
        0.05692390725016594,
        -0.014411093667149544,
        -0.22956088185310364,
        -0.02577340416610241,
        0.09093576669692993,
        0.04364817962050438,
        0.13772903382778168,
        -0.1677686721086502,
        -0.05571315065026283,
        0.20340992510318756,
        -0.053187981247901917,
        0.09015286713838577,
        -0.03442475199699402,
        0.05290132388472557,
        -0.04366593062877655,
        -0.020429393276572227,
        0.06139901280403137,
        0.052284568548202515,
        0.04658547043800354,
        -0.24171887338161469,
        0.1299443244934082,
        -0.09578661620616913,
        -0.01650816760957241,
        -0.026751559227705002,
        -0.1293773502111435,
        0.05194419249892235,
        -0.06657242774963379,
        -0.11846859753131866,
        0.019868014380335808,
        0.010983455926179886,
        0.07875634729862213,
        -0.07759653776884079,
        -0.12476012855768204,
        -0.04852902516722679,
        0.007608255837112665,
        -0.05684896931052208,
        -0.006289035081863403,
        -0.023569514974951744,
        0.12784484028816223,
        0.15101687610149384,
        -0.042406946420669556,
        -0.05264339968562126,
        -0.062440425157547,
        0.1179608553647995,
        0.15637338161468506,
        -0.03925750404596329,
        -0.15678516030311584
      ],
      [
        0.2602437734603882,
        -0.13393013179302216,
        -0.17682181298732758,
        -0.028615368530154228,
        0.05359683558344841,
        -0.0749870017170906,
        -0.15373404324054718,
        0.09208682179450989,
        -0.09015179425477982,
        0.0772596001625061,
        -0.01620308682322502,
        0.11618632078170776,
        -0.0923726037144661,
        -0.05001324787735939,
        0.10916571319103241,
        -0.021389173343777657,
        0.024183694273233414,
        -0.13034817576408386,
        0.11005564033985138,
        -0.2557089328765869,
        -0.041658297181129456,
        -0.09420710057020187,
        -0.0007970359292812645,
        0.17247629165649414,
        -0.1051647886633873,
        0.16377684473991394,
        0.14534959197044373,
        -0.06815578043460846,
        -0.12859557569026947,
        -0.16742634773254395,
        -0.05457770451903343,
        -0.025336435064673424,
        0.13001017272472382,
        0.13241150975227356,
        -0.10463188588619232,
        0.06779012084007263,
        -0.15845993161201477,
        0.054445598274469376,
        -0.017940934747457504,
        -0.0012933285906910896,
        0.04175149276852608,
        -0.09346547722816467,
        -0.0683731809258461,
        0.04378509521484375,
        -0.06315077096223831,
        0.06598713248968124,
        0.004331029485911131,
        0.09828535467386246,
        0.13310860097408295,
        0.018977781757712364,
        -0.09678017348051071,
        0.08094778656959534,
        -0.10521110147237778,
        0.20718033611774445,
        0.09134037047624588,
        0.015503262169659138,
        -0.013813928700983524,
        0.08842723071575165,
        0.024871474131941795,
        -0.08636339008808136,
        0.12235067784786224,
        0.08447571843862534,
        -0.023695167154073715,
        0.0034945281222462654
      ],
      [
        0.1521444171667099,
        0.11371513456106186,
        0.08407540619373322,
        0.13560155034065247,
        -0.06386525928974152,
        0.010911013931035995,
        -0.07003038376569748,
        0.10308821499347687,
        -0.2050708532333374,
        0.028272075578570366,
        0.028238622471690178,
        -0.03589741513133049,
        0.03152624890208244,
        -0.08580327779054642,
        -0.05511098727583885,
        -0.03948777914047241,
        -0.021306168287992477,
        -0.1196756437420845,
        -0.11328817903995514,
        0.13946539163589478,
        -0.11395101249217987,
        -0.05530094355344772,
        -0.06313926726579666,
        -0.08091165870428085,
        -0.11821985244750977,
        0.14999593794345856,
        0.030967582017183304,
        -0.011692682281136513,
        0.13349954783916473,
        -0.09520630538463593,
        0.0017925981665030122,
        0.0037990002892911434,
        0.11779577285051346,
        0.10411097854375839,
        0.06970192492008209,
        0.0038577739614993334,
        0.14818809926509857,
        0.07287876307964325,
        0.06369143724441528,
        0.15887074172496796,
        -0.05518834665417671,
        -0.12591198086738586,
        -0.10328785330057144,
        0.07687374204397202,
        -0.07800854742527008,
        -0.04436629265546799,
        0.10727330297231674,
        -0.1636473536491394,
        -0.16094571352005005,
        0.05763912573456764,
        -0.06984087824821472,
        -0.017165005207061768,
        -0.11751952022314072,
        0.10935022681951523,
        0.04628852382302284,
        -0.16766591370105743,
        0.0261196568608284,
        0.11504319310188293,
        -0.05694323033094406,
        0.05654750019311905,
        -0.0688391774892807,
        0.10144688189029694,
        0.11319097131490707,
        0.0061685857363045216
      ],
      [
        0.03534663841128349,
        -0.15478163957595825,
        -0.12093820422887802,
        -0.13809680938720703,
        0.05683046206831932,
        -0.13122868537902832,
        0.016073813661932945,
        0.1216587945818901,
        0.019525378942489624,
        0.03856344893574715,
        -0.06229563429951668,
        0.06766583770513535,
        -0.0006161764613352716,
        -0.03338218480348587,
        -0.0036178610753268003,
        -0.024759948253631592,
        -0.07391693443059921,
        -0.04825551435351372,
        0.13937908411026,
        -0.25884562730789185,
        -0.10240911692380905,
        0.05800575017929077,
        -0.09700995683670044,
        0.14986847341060638,
        -0.12158278375864029,
        -0.27258074283599854,
        0.2060132622718811,
        0.13321150839328766,
        -0.11409597098827362,
        -0.09881259500980377,
        0.1311357021331787,
        -0.16643568873405457,
        -0.040716372430324554,
        -0.06467750668525696,
        0.1504727452993393,
        -0.02415921911597252,
        -0.19110354781150818,
        0.04729365184903145,
        0.04989923909306526,
        -0.24415293335914612,
        0.14119821786880493,
        0.006901072338223457,
        0.09098108857870102,
        -0.10871870070695877,
        -0.09508993476629257,
        0.03581139072775841,
        0.1197323426604271,
        0.050321999937295914,
        -0.06565690785646439,
        -0.14965707063674927,
        0.10784907639026642,
        0.14976991713047028,
        -0.020383842289447784,
        -0.051588788628578186,
        0.04589955508708954,
        0.12426139414310455,
        0.18868063390254974,
        -0.1581040471792221,
        0.16977939009666443,
        -0.020269587635993958,
        0.10645400732755661,
        0.03129979968070984,
        -0.03331968933343887,
        -0.1980300098657608
      ],
      [
        0.12288858741521835,
        0.05781148001551628,
        -0.14641760289669037,
        -0.09522625803947449,
        -0.13764753937721252,
        0.020570343360304832,
        0.0476263090968132,
        0.05332927778363228,
        -0.044600117951631546,
        -0.09359796345233917,
        0.3115728199481964,
        -0.011518945917487144,
        0.09940233826637268,
        -0.08911842107772827,
        0.021901249885559082,
        0.023786544799804688,
        0.055968351662158966,
        0.020369714125990868,
        0.05498752370476723,
        -0.06824696809053421,
        0.08594424277544022,
        0.01344053540378809,
        0.05564576014876366,
        -0.03196428343653679,
        0.09420272707939148,
        -0.047198355197906494,
        -0.07464691251516342,
        0.0035119270905852318,
        0.07756403833627701,
        -0.12795008718967438,
        0.07027412950992584,
        0.0236447062343359,
        -0.04377998039126396,
        -0.009604296647012234,
        -0.12329446524381638,
        -0.04693332314491272,
        -0.03532189875841141,
        0.029203277081251144,
        0.10725408792495728,
        0.13895158469676971,
        -0.054777272045612335,
        -0.035718463361263275,
        -0.10521805286407471,
        0.06688098609447479,
        0.04519198089838028,
        -0.08796786516904831,
        0.06747165322303772,
        -0.048615358769893646,
        0.08634538948535919,
        -0.023907043039798737,
        0.11413829028606415,
        -0.069610595703125,
        -0.11415117233991623,
        0.09737928211688995,
        0.15047533810138702,
        0.0765320435166359,
        0.004393374547362328,
        -0.04900326579809189,
        -0.010587555356323719,
        0.11822223663330078,
        -0.008234704844653606,
        0.002890725154429674,
        0.07383028417825699,
        -0.3376712203025818
      ],
      [
        -0.005107326433062553,
        -0.323009192943573,
        -0.21874700486660004,
        -0.03187103942036629,
        0.07409930974245071,
        0.044955626130104065,
        -0.12442684918642044,
        0.06282918900251389,
        0.2646559178829193,
        -0.028436634689569473,
        0.12286121398210526,
        0.08190496265888214,
        0.009831178933382034,
        -0.15717214345932007,
        0.08342701196670532,
        -0.12049824744462967,
        0.13808651268482208,
        -0.018223155289888382,
        0.09616263210773468,
        -0.1920553296804428,
        -0.09506472200155258,
        0.01809518411755562,
        0.07730291038751602,
        0.09662918001413345,
        -0.105181485414505,
        -0.1093868613243103,
        0.10637609660625458,
        -0.013964984565973282,
        -0.015076124109327793,
        -0.02358865924179554,
        0.0918603241443634,
        0.042673833668231964,
        -0.002110149944201112,
        0.005196340847760439,
        -0.020033594220876694,
        -0.09738439321517944,
        -0.2615133225917816,
        -0.043200746178627014,
        -0.027486691251397133,
        0.05182182788848877,
        0.011836409568786621,
        -0.03819544240832329,
        0.07661367952823639,
        -0.007386668119579554,
        -0.06182141229510307,
        -0.18958105146884918,
        0.04551590234041214,
        0.2739609181880951,
        0.08541811257600784,
        0.023346541449427605,
        0.026106838136911392,
        0.17480231821537018,
        -0.007947158999741077,
        -0.062007077038288116,
        0.01777963899075985,
        0.08674607425928116,
        0.087871253490448,
        -0.14622193574905396,
        0.13709105551242828,
        0.02457876317203045,
        -0.027537208050489426,
        0.06873377412557602,
        0.07828403264284134,
        -0.1861942708492279
      ],
      [
        -0.08557239919900894,
        0.04492519050836563,
        -0.036171603947877884,
        0.07758421450853348,
        -0.08915707468986511,
        -0.0007610545726493001,
        -0.03288252651691437,
        0.143914595246315,
        -0.020227553322911263,
        0.06252570450305939,
        0.07171738892793655,
        -0.03793029859662056,
        -0.11763851344585419,
        0.1237536072731018,
        0.19090309739112854,
        0.03608155995607376,
        -0.027970261871814728,
        -0.15198591351509094,
        -0.039222653955221176,
        -0.10287156701087952,
        0.05167384818196297,
        0.12253275513648987,
        -0.1771955043077469,
        -0.008699935860931873,
        -0.12320845574140549,
        -0.16438207030296326,
        0.11158199608325958,
        0.06856121122837067,
        -0.10560891032218933,
        0.08289868384599686,
        -0.0972205102443695,
        -0.04390342906117439,
        0.144297793507576,
        0.05384363979101181,
        0.10195985436439514,
        0.03715556859970093,
        -0.17208454012870789,
        0.002908279886469245,
        0.08968168497085571,
        -0.16533538699150085,
        -0.07843957841396332,
        0.019664708524942398,
        0.017554104328155518,
        0.04270957037806511,
        -0.052346549928188324,
        -0.11405740678310394,
        0.04277518764138222,
        0.03435974195599556,
        -0.010803870856761932,
        -0.06771332770586014,
        -0.04494639113545418,
        0.03029676526784897,
        0.04308591037988663,
        -0.03545345738530159,
        -0.07289503514766693,
        -0.03131726384162903,
        0.040084049105644226,
        0.08589638769626617,
        0.074435755610466,
        0.012267274782061577,
        0.02608461119234562,
        0.046132881194353104,
        0.06797439604997635,
        0.056759778410196304
      ],
      [
        -0.1481103003025055,
        -0.09939348697662354,
        0.018939871340990067,
